0,1500.0,2.0,-102.5826144809987,7.212165,-6.702783,3.874047570266896
1,1500.0,6.0,-105.42022119874242,6.553546,-15.548896,1.036440852523171
2,1500.0,12.0,-112.22028597371151,-7.164289,-24.259758,-5.763623922445916
3,1500.0,14.0,-104.27693520119071,33.854646,2.384518,2.1797268500748856
4,1500.0,17.0,-109.06676019131282,1.826053,-17.083538,-2.610098140047228
5,1500.0,19.0,-111.80202621032952,7.118955,-24.425193,-5.345364159063919
6,1500.0,24.0,-111.10115820352232,1.946255,-22.901233,-4.644496152256721
7,1500.0,28.0,-113.38062128934894,5.233941,-4.237064,-6.9239592380833415
8,1501.0,2.0,-78.7261544857801,23.994726,-5.186207,10.219483223065907
9,1501.0,6.0,-72.38639131431233,-19.181366,-13.720454,16.559246394533673
10,1501.0,12.0,-90.77028716815484,-20.666477,-23.950321,-1.82464945930883
11,1501.0,14.0,-71.23926633209867,5.118029,3.478743,17.70637137674734
12,1501.0,17.0,-74.41714583782155,-19.089669,-16.06337,14.528491871024457
13,1501.0,19.0,-79.85756565846475,-18.863638,-23.032089,9.088072050381257
14,1501.0,24.0,-99.05413549579923,-21.737399,-21.778693,-10.108497786953222
15,1501.0,28.0,-80.64643579775024,-8.166321,-2.910619,8.299201911095764
16,1502.0,2.0,-83.69020819322672,22.858591,-3.280037,-3.544782023393907
17,1502.0,6.0,-80.21699796523224,-0.759278,-9.969713,-0.07157179539942149
18,1502.0,12.0,-84.29043434889958,-21.544968,-20.825918,-4.145008179066764
19,1502.0,14.0,-76.28456471035312,30.174143,4.636571,3.8608614594796933
20,1502.0,17.0,-83.48780522068097,-15.923494,-12.358397,-3.3423790508481517
21,1502.0,19.0,-89.0758209491766,-4.550838,-18.293431,-8.930394779343786
22,1502.0,24.0,-94.02289094054703,-9.069519,-18.228396,-13.877464770714212
23,1502.0,28.0,-89.80848529686035,6.629405,-0.688596,-9.663059127027537
24,1503.0,2.0,-102.79784589676473,-9.822559,-1.574082,3.33451022353907
25,1503.0,6.0,-107.08863228709477,-10.588011,-7.074305,-0.9562761667909712
26,1503.0,12.0,-112.96138169836613,-14.303608,-19.043515,-6.829025578062328
27,1503.0,14.0,-104.8153228923811,24.493303,5.84161,1.3170332279226926
28,1503.0,17.0,-110.9506551975104,-7.068969,-9.81431,-4.818299077206603
29,1503.0,19.0,-112.96616116115354,-6.686779,-15.049812,-6.8338050408497395
30,1503.0,24.0,-112.11033933199998,-11.638565,-15.846259,-5.977983211696184
31,1503.0,28.0,-113.89986927843047,-12.373179,1.196801,-7.767513158126675
32,1504.0,2.0,-79.4043627464846,-19.201562,-0.166645,2.9482352917202945
33,1504.0,6.0,-73.81205294343465,-15.857029,-6.211586,8.540545094770238
34,1504.0,12.0,-91.58465245006077,-24.764959,-20.137228,-9.232054411855884
35,1504.0,14.0,-72.30578469900465,36.921923,6.851024,10.046813339200241
36,1504.0,17.0,-75.42697420852888,-21.629144,-10.25598,6.925623829676013
37,1504.0,19.0,-81.10490197706356,-19.883214,-15.410588,1.2476960611413261
38,1504.0,24.0,-100.58598452056845,-21.316007,-15.885587,-18.233386482363557
39,1504.0,28.0,-81.59182054393904,-11.333457,2.013222,0.7607774942658523
40,1505.0,2.0,-65.25504394240835,39.052548,1.810125,0.20390059894012325
41,1505.0,6.0,-68.07452320548775,-19.645909,-1.094133,-2.615578664139278
42,1505.0,12.0,-83.10720886856664,-25.978026,-12.822941,-17.648264327218172
43,1505.0,14.0,-54.86277271462259,0.579328,6.647888,10.596171826725886
44,1505.0,15.0,-99.42566399696811,-0.120547,0.872597,-33.96671945561964
45,1505.0,17.0,-64.11149171740131,-24.598815,-4.34348,1.3474528239471653
46,1505.0,19.0,-78.81005049678171,-28.665478,-7.392605,-13.35110595543324
47,1505.0,24.0,-92.77555070355548,-29.768098,-9.015022,-27.31660616220701
48,1505.0,28.0,-60.24660693547047,4.904089,3.890418,5.212337605878005
49,1506.0,2.0,-87.43147635390949,18.112477,26.727258,8.773633745017563
50,1506.0,6.0,-90.95112713548708,-33.90771,30.166841,5.253982963439967
51,1506.0,12.0,-94.55980393845716,-40.920785,6.348345,1.645306160469886
52,1506.0,14.0,-88.02208810265473,-46.581974,16.246132,8.183021996272316
53,1506.0,17.0,-94.99170075392401,-16.676752,14.578518,1.2134093450030434
54,1506.0,19.0,-96.98850470672258,-36.743381,21.838019,-0.7833946077955289
55,1506.0,24.0,-99.63551485949013,-33.11075,20.38593,-3.4304047605630785
56,1506.0,28.0,-102.95120981350803,-20.794854,20.114785,-6.7460997145809785
57,1507.0,2.0,-95.77553698029755,56.548035,37.219302,-21.046741307449025
58,1507.0,6.0,-102.67579924798714,17.545718,30.331433,-27.947003575138623
59,1507.0,14.0,-73.12038835843836,23.037694,34.641508,1.608407314410158
60,1507.0,17.0,-87.17687249608441,13.214296,0.638253,-12.448076823235894
61,1507.0,19.0,-101.08365325983897,16.930804,1.517897,-26.35485758699045
62,1507.0,24.0,-111.22823070096166,5.080186,-0.452984,-36.49943502811314
63,1507.0,28.0,-85.68291848175524,24.450166,31.094519,-10.954122808906718
64,1508.0,2.0,-111.30305278878431,2.918724,-2.105842,-10.621244300681653
65,1508.0,6.0,-121.8224635354935,-8.179051,-21.67943,-21.140655047390837
66,1508.0,14.0,-105.96942046942394,23.887635,14.423382,-5.287611981321277
67,1508.0,17.0,-116.28856065883764,-20.271132,-33.567053,-15.606752170734978
68,1508.0,19.0,-129.5783751868236,-25.462141,-47.487113,-28.89656669872093
69,1508.0,24.0,-130.12267402454333,-30.288158,-44.523315,-29.44086553644067
70,1508.0,28.0,-114.00334220615088,21.021353,0.460214,-13.321533718048215
71,1509.0,2.0,-55.4689807065123,11.269567,1.719865,-10.173750144640486
72,1509.0,6.0,-63.78627808317838,-18.477648,-16.620969,-18.49104752130657
73,1509.0,12.0,-74.91477809841744,-18.710509,-45.773033,-29.61954753654563
74,1509.0,14.0,-52.10998475271504,15.187153,11.627295,-6.814754190843232
75,1509.0,17.0,-55.09605214879796,-23.648162,-30.144646,-9.800821586926148
76,1509.0,19.0,-65.16881939752153,-14.11137,-40.445457,-19.87358883564972
77,1509.0,24.0,-66.69469228696356,-20.386936,-34.80032,-21.399461725091747
78,1509.0,28.0,-57.02198659127441,28.956503,-0.052252,-11.726756029402601
79,1510.0,2.0,-65.58907092721938,-4.755729,-0.939612,-11.636786441400403
80,1510.0,6.0,-69.0876815390715,-20.237755,-13.9849,-15.135397053252518
81,1510.0,12.0,-78.76797379009622,-12.36901,-33.09291,-24.815689304277242
82,1510.0,14.0,-48.57217389202862,-4.63806,7.296375,5.380110593790356
83,1510.0,17.0,-50.531473712379025,-25.668326,-22.160462,3.4208107734399533
84,1510.0,19.0,-62.153927458626455,-25.472574,-30.138179,-8.201642972807477
85,1511.0,2.0,-112.11353376043752,-47.266045,-12.337872,2.4188266872453568
86,1511.0,6.0,-118.67275846102898,-41.900269,-15.933821,-4.1403980133461005
87,1511.0,12.0,-129.23385627642207,-14.198882,-24.412301,-14.701495828739198
88,1511.0,14.0,-111.76314470292786,8.888426,5.049781,2.769215744755016
89,1511.0,17.0,-116.93780288974871,-33.494305,-10.305645,-2.4054424420658336
90,1511.0,19.0,-121.57818700516813,-37.026487,-20.02517,-7.045826557485256
91,1512.0,2.0,-114.56533234506306,21.87923,-19.696471,4.68008925381055
92,1512.0,6.0,-120.72510654245714,-13.182164,-18.560391,-1.4796849435835355
93,1512.0,12.0,-131.12528214149964,-12.464815,-16.33269,-11.879860542626034
94,1512.0,14.0,-114.78560654317502,-3.395556,0.308363,4.459815055698584
95,1512.0,17.0,-124.4240122787085,-5.655642,-4.869371,-5.1785906798348975
96,1512.0,19.0,-127.30753821530554,-5.228859,-14.64877,-8.062116616431936
97,1512.0,28.0,-124.32513031569223,-1.643254,-4.007944,-5.0797087168186295
98,1513.0,6.0,-120.53378007322009,-2.023689,-24.822958,1.351689178354249
99,1513.0,12.0,-131.78446171689995,-11.850741,-19.486482,-9.89899246532562
100,1513.0,14.0,-113.44272383874771,18.208452,-2.665611,8.442745412826625
101,1513.0,17.0,-120.27972403276148,4.332777,-10.08778,1.6057452188128565
102,1513.0,19.0,-125.5829266474374,1.761018,-21.241773,-3.6974573958630685
103,1513.0,24.0,-125.1900544596778,36.743043,-28.907478,-3.304585208103461
104,1513.0,28.0,-122.19797982344384,0.456361,-8.300876,-0.3125105718695096
105,1514.0,6.0,-113.91938290413749,-3.291568,-35.842065,-0.186338944737642
106,1514.0,12.0,-122.62438441654007,-12.084321,-31.909955,-8.891340457140217
107,1514.0,14.0,-108.25865334508691,8.006076,-6.140032,5.474390614312938
108,1514.0,17.0,-117.12840377781002,-1.69948,-26.841891,-3.3953598184101708
109,1514.0,19.0,-120.71328518661386,-5.265874,-40.138408,-6.980241227214009
110,1514.0,28.0,-117.36008803487196,4.144228,-15.974103,-3.6270440754721136
111,1515.0,6.0,-104.92315565179659,-12.944069,-37.621895,-0.9358708606259398
112,1515.0,12.0,-112.53684413548221,-15.659462,-35.261053,-8.549559344311561
113,1515.0,14.0,-99.91048475489497,18.980092,-5.132495,4.076800036275685
114,1515.0,17.0,-107.13412602267348,-9.349276,-27.979336,-3.146841231502833
115,1515.0,19.0,-111.84973725858978,-10.434197,-42.562716,-7.862452467419132
116,1515.0,24.0,-108.32621542412268,16.991804,-42.625343,-4.338930632952028
117,1515.0,28.0,-107.53667144758707,-7.781809,-15.761515,-3.5493866564164165
118,1516.0,2.0,-93.10827335934421,55.24263,-26.343925,7.791532453667074
119,1516.0,6.0,-101.44823170939296,-19.598484,-38.284309,-0.5484258963816728
120,1516.0,12.0,-109.13023917001104,-24.129168,-35.644183,-8.230433356999754
121,1516.0,14.0,-95.41657236563977,18.551261,-5.510083,5.483233447371518
122,1516.0,17.0,-102.92825883368036,-13.568444,-28.78036,-2.028453020669076
123,1516.0,19.0,-107.54724377516693,-5.764238,-43.441065,-6.647437962155649
124,1516.0,24.0,-105.39538956194961,-10.83639,-43.039572,-4.49558374893833
125,1516.0,28.0,-101.98064493263803,1.951097,-16.307791,-1.080839119626745
126,1517.0,2.0,-123.30459786949693,29.847993,-27.184879,-7.087559499033901
127,1517.0,6.0,-122.19268625064565,-15.483179,-38.594869,-5.9756478801826205
128,1517.0,12.0,-131.22108793078715,-29.559895,-34.231706,-15.00404956032412
129,1517.0,14.0,-107.23959844220663,27.514853,-6.401286,8.977439928256402
130,1517.0,17.0,-113.83213828618513,-9.92434,-28.169001,2.384900084277902
131,1517.0,19.0,-125.42925399718429,-15.314935,-42.677965,-9.21221562672126
132,1517.0,24.0,-132.12854976645076,-24.598318,-42.414241,-15.91151139598773
133,1517.0,28.0,-117.20150740756422,-12.183198,-16.905965,-0.9844690371011922
134,1518.0,6.0,-127.3678175273405,-29.480285,-38.901387,-3.1923805981128908
135,1518.0,12.0,-138.13045303108836,-36.822966,-35.309068,-13.95501610186075
136,1518.0,14.0,-116.77402193252118,11.193024,-6.168397,7.4014149967064355
137,1518.0,17.0,-122.60834241686126,-18.552502,-29.092597,1.5670945123663529
138,1518.0,19.0,-130.63005599082558,-30.114187,-43.743047,-6.454619061597967
139,1518.0,24.0,-135.11296837799276,-31.730396,-43.063176,-10.937531448765142
140,1518.0,28.0,-127.5679802481118,-16.833832,-16.960835,-3.3925433188841794
141,1519.0,2.0,-102.81807942454864,39.374348,-25.833243,6.9303105858229515
142,1519.0,6.0,-110.9958160760543,-33.534575,-37.60323,-1.2474260656827028
143,1519.0,12.0,-120.65383433839557,-24.054454,-35.307168,-10.905444328023975
144,1519.0,14.0,-103.79893345346605,-8.430963,-5.219028,5.949456556905545
145,1519.0,17.0,-110.5322565987557,-26.391436,-28.320235,-0.7838665883841003
146,1519.0,19.0,-115.15276877286671,-38.152181,-42.790595,-5.404378762495114
147,1519.0,24.0,-116.31641227389888,-36.919181,-42.457057,-6.568022263527283
148,1519.0,28.0,-111.9065243410641,-18.699933,-15.882293,-2.158134330692505
149,1520.0,6.0,-85.21434201424786,-38.392311,-35.074401,19.094689317396487
150,1520.0,12.0,-102.66590056245695,-41.211852,-33.500911,1.643130769187394
151,1520.0,14.0,-82.76290887072437,-0.451806,-4.379359,21.546122460919975
152,1520.0,17.0,-90.21672623519436,-24.420257,-26.190518,14.09230509644999
153,1520.0,19.0,-94.89130267463443,-29.712725,-39.940639,9.417728657009917
154,1520.0,24.0,-112.71760541706446,-37.603585,-40.143471,-8.408574085420113
155,1520.0,28.0,-95.86167640626364,-7.135397,-14.410604,8.447354925380708
156,1521.0,2.0,-100.7826572018792,-1.07493,-20.612907,16.06270880279395
157,1521.0,6.0,-98.69103459759425,-30.147924,-30.860031,18.1543314070789
158,1521.0,12.0,-113.68352444461621,-34.314789,-29.249874,3.161841560056942
159,1521.0,14.0,-94.84666665067755,-5.531962,-4.395971,21.998699353995605
160,1521.0,17.0,-104.25330757359696,-11.650579,-24.011159,12.592058431076197
161,1521.0,19.0,-108.09965903365338,-29.274509,-35.71861,8.745706971019771
162,1521.0,24.0,-125.28496095977083,-37.356872,-34.697034,-8.439594955097675
163,1521.0,28.0,-110.53400923692755,0.891628,-13.259692,6.3113567677456075
164,1522.0,2.0,-93.62851047342325,39.490706,-20.116117,6.792211629892094
165,1522.0,6.0,-101.21613302414589,-14.651794,-28.64621,-0.7954109208305482
166,1522.0,12.0,-108.26157824423093,-27.249574,-27.786348,-7.840856140915591
167,1522.0,14.0,-98.04037789194284,9.176631,-3.123531,2.3803442113725026
168,1522.0,17.0,-106.94615085565646,-20.75566,-21.00801,-6.525428752341114
169,1522.0,19.0,-108.85757756593804,-20.418899,-32.495151,-8.436855462622702
170,1522.0,24.0,-108.58113355657171,-17.926554,-33.280435,-8.160411453256373
171,1522.0,28.0,-105.22786798328688,-1.637947,-11.362214,-4.807145879971543
172,1523.0,6.0,-103.85970774673547,-13.717223,-29.628752,-1.962890045031628
173,1523.0,12.0,-111.5277730148807,-25.006938,-34.753859,-9.630955313176855
174,1523.0,14.0,-100.15748082007399,15.021724,2.123937,1.7393368816298533
175,1523.0,17.0,-110.55883844987002,1.178699,-18.843134,-8.662020748166185
176,1523.0,19.0,-111.74858159023539,-14.935376,-33.587608,-9.85176388853155
177,1523.0,24.0,-111.20825776511136,-15.594655,-40.468084,-9.311440063407517
178,1523.0,28.0,-107.2737304631792,3.021237,-7.259653,-5.376912761475367
179,1524.0,2.0,-100.33941668431483,30.936696,-22.878427,6.642373555224978
180,1524.0,6.0,-109.49542900380649,-11.264892,-29.97898,-2.5136387642666875
181,1524.0,12.0,-118.37605917773404,-12.041247,-35.889083,-11.39426893819423
182,1524.0,14.0,-102.60950628606332,-2.130416,2.416684,4.372283953476483
183,1524.0,17.0,-113.21265786770962,-0.106628,-19.666789,-6.230867628169818
184,1524.0,19.0,-115.62918003058292,-5.087004,-34.618335,-8.64738979104311
185,1524.0,24.0,-115.27181727950942,-9.825753,-41.238797,-8.290027039969615
186,1524.0,28.0,-109.92462488273604,45.712354,-7.259117,-2.9428346431962353
187,1525.0,2.0,-96.27382704937956,-14.796467,-23.044803,4.083577999940232
188,1525.0,6.0,-106.45250905224697,-39.595792,-30.102796,-6.095104002927172
189,1525.0,12.0,-114.63671827777438,-46.346042,-36.007726,-14.279313228454583
190,1525.0,14.0,-99.98073921326316,-39.360985,2.446853,0.37666583605663106
191,1525.0,17.0,-110.88363274129219,-20.315472,-19.650998,-10.526227691972394
192,1525.0,19.0,-113.61419431863614,-44.711887,-34.684184,-13.256789269316343
193,1525.0,24.0,-112.59876158477358,-46.980473,-41.421692,-12.24135653545379
194,1525.0,28.0,-106.96932973561152,31.219719,-7.255276,-6.611924686291729
195,1526.0,2.0,-100.7616043641724,-22.875246,-23.085908,0.6632141246566903
196,1526.0,6.0,-109.47869585238423,-14.926079,-30.170828,-8.053877363555145
197,1526.0,12.0,-117.87698612758072,-16.567721,-36.148917,-16.452167638751632
198,1526.0,17.0,-115.1964119619829,4.434674,-19.707911,-13.771593473153814
199,1526.0,19.0,-116.89826331831807,-13.050955,-34.787728,-15.473444829488983
200,1526.0,24.0,-116.32419557030833,-17.676288,-41.548859,-14.899377081479244
201,1527.0,2.0,-102.02567182208503,-3.673407,-23.225065,2.8046070715864744
202,1527.0,6.0,-111.17739226910383,-12.185864,-30.381286,-6.347113375432329
203,1527.0,12.0,-120.58504261047888,-10.076631,-36.402198,-15.754763716807375
204,1527.0,17.0,-116.22780727641623,8.526055,-19.871489,-11.397528382744724
205,1527.0,19.0,-118.56780330084864,-6.835543,-35.045938,-13.737524407177133
206,1527.0,24.0,-117.5625014895049,-8.767922,-41.819683,-12.732222595833392
207,1527.0,28.0,-112.08865254187258,-2.342805,-7.304593,-7.258373648201072
208,1528.0,2.0,-95.43941700801003,-15.464476,-23.730619,3.5374008788531484
209,1528.0,6.0,-104.68441103311314,-27.557824,-31.024241,-5.7075931462499625
210,1528.0,12.0,-113.26036810581914,-36.679944,-36.466334,-14.283550218955966
211,1528.0,14.0,-99.66555014978896,1.932432,2.074191,-0.6887322629257824
212,1528.0,17.0,-111.31095010901467,-18.191043,-20.263338,-12.334132222151496
213,1528.0,19.0,-112.78778929335807,-30.643907,-35.540267,-13.8109714064949
214,1528.0,24.0,-111.88891134780559,-37.230615,-42.152408,-12.912093460942415
215,1528.0,28.0,-106.80154616558369,8.062608,-7.807371,-7.824728278720514
216,1529.0,2.0,-103.55751633977866,-1.318538,-24.020155,4.154605400987208
217,1529.0,6.0,-113.29439609879859,-9.504522,-31.442949,-5.58227435803272
218,1529.0,12.0,-123.27631426614253,-16.982891,-36.437623,-15.564192525376669
219,1529.0,17.0,-117.79091775485823,-9.312544,-20.568887,-10.078796014092362
220,1529.0,19.0,-120.85457904830658,-7.527355,-35.872716,-13.14245730754071
221,1529.0,24.0,-119.44547024799165,-18.280481,-42.287751,-11.733348507225784
222,1529.0,28.0,-113.08436504400561,22.921734,-8.194591,-5.372243303239742
223,1530.0,2.0,-47.96249364637472,-45.097098,-23.983077,-12.738728645392655
224,1530.0,6.0,-56.783677418401496,-42.868037,-31.561559,-21.559912417419433
225,1530.0,12.0,-76.38288226306436,-53.643632,-36.545232,-41.1591172620823
226,1530.0,14.0,-34.18641146459383,39.395675,1.649726,1.0373535363882311
227,1530.0,17.0,-60.28774770914256,-22.638159,-20.81082,-25.063982708160495
228,1530.0,19.0,-77.25578678932126,-46.810889,-36.106724,-42.0320217883392
229,1530.0,24.0,-74.21852761620137,-45.913589,-42.340916,-38.99476261521931
230,1530.0,28.0,-47.24611765766004,7.731866,-8.317534,-12.022352656677974
231,1531.0,2.0,-59.38718122923713,-68.625054,-22.614067,-8.966898591000515
232,1531.0,6.0,-67.78034693415238,-63.791598,-28.735224,-17.360064295915763
233,1531.0,12.0,-89.47682133386867,-68.189249,-33.867137,-39.05653869563206
234,1531.0,14.0,-44.50523644176212,23.183359,2.324311,5.915046196474492
235,1531.0,17.0,-73.23744347204492,-48.826292,-17.931753,-22.817160833808302
236,1531.0,19.0,-90.15913051314283,-66.617004,-32.3773,-39.73884787490621
237,1531.0,24.0,-85.36601330920877,-72.601931,-39.471972,-34.945730670972154
238,1531.0,28.0,-60.21869810135907,-39.073725,-6.775659,-9.798415463122453
239,1532.0,2.0,-75.25381998317914,-81.083337,-14.318638,-5.19473131579511
240,1532.0,6.0,-86.27752868866914,-88.616697,-20.966388,-16.218440021285105
241,1532.0,12.0,-110.65905336903288,-89.090897,-31.178367,-40.599964701648844
242,1532.0,14.0,-60.092850207355966,1.552041,5.053935,9.966238460028066
243,1532.0,17.0,-98.25012940858548,-84.030533,-16.005233,-28.191040741201448
244,1532.0,19.0,-113.02239713145237,-85.858489,-27.654129,-42.963308464068334
245,1532.0,24.0,-105.0581088121654,-90.9501,-32.563727,-34.99902014478137
246,1532.0,28.0,-79.18994124506737,-48.992979,-3.0054,-9.130852577683342
247,1533.0,2.0,-47.415214898221166,-70.647064,-26.295452,-13.174885000003144
248,1533.0,6.0,-60.54078528205596,-72.461566,-40.600043,-26.300455383837935
249,1533.0,12.0,-80.26108993967506,-76.721238,-54.869978,-46.02076004145704
250,1533.0,14.0,-27.713832206436187,2.131711,5.220359,6.5264976917818345
251,1533.0,17.0,-64.88202535731068,-72.129896,-32.805425,-30.64169545909266
252,1533.0,19.0,-80.88936978997722,-79.96789,-53.009789,-46.6490398917592
253,1533.0,24.0,-75.01633966045524,-75.124925,-57.881043,-40.77600976223722
254,1533.0,28.0,-47.07417147830419,-12.960285,-9.528387,-12.833841580086165
255,1534.0,2.0,-27.317432785249004,-71.644663,-28.940231,-20.28397906067874
256,1534.0,6.0,-34.10258694099115,-74.544199,-45.196125,-27.069133216420887
257,1534.0,12.0,-51.448210888236694,-79.509268,-53.963081,-44.41475716366643
258,1534.0,14.0,-2.482452646302375,-0.564429,0.696419,4.551001078267891
259,1534.0,17.0,-37.84247573758176,-16.730009,-36.876171,-30.809022013011493
260,1534.0,19.0,-57.04584240620486,-69.898713,-56.975232,-50.0123886816346
261,1534.0,24.0,-54.93265086087482,-76.505642,-58.64764,-47.89919713630456
262,1534.0,28.0,-16.823727057219035,-6.829515,-14.450808,-9.790273332648768
263,1535.0,2.0,-71.06878573365074,-42.009476,-28.741696,-9.051641859485017
264,1535.0,6.0,-82.05224985049182,-51.724515,-41.59267,-20.035105976326093
265,1535.0,12.0,-105.35126100872495,-55.863541,-47.227498,-43.33411713455922
266,1535.0,14.0,-54.427492323076144,-0.81679,0.053418,7.589651551089581
267,1535.0,17.0,-92.51286371751478,-18.422347,-31.147474,-30.49571984334905
268,1535.0,19.0,-107.32682340039182,-50.05063,-49.775221,-45.30967952622609
269,1535.0,24.0,-98.54487415611747,-55.833371,-53.312863,-36.52773028195175
270,1535.0,28.0,-73.60044874318756,-22.236103,-13.213593,-11.58330486902183
271,1536.0,2.0,-58.82185921591078,-44.117779,-28.618059,-9.020312217246634
272,1536.0,6.0,-70.75304015276433,-54.474314,-45.688682,-20.951493154100184
273,1536.0,12.0,-91.20993499535642,-61.346983,-52.742093,-41.40838799669228
274,1536.0,14.0,-44.14136862209182,-14.315469,-0.874589,5.6601783765723255
275,1536.0,17.0,-79.93540870632364,-19.462904,-38.086004,-30.1338617076595
276,1536.0,19.0,-95.65447872368182,-55.663753,-57.555955,-45.852931725017676
277,1536.0,24.0,-86.63205797871164,-55.443333,-57.465143,-36.8305109800475
278,1536.0,28.0,-57.66560613971704,-7.999229,-15.921489,-7.864059141052898
279,1537.0,2.0,-76.34394377880366,-29.840397,-29.715619,-14.21791083403616
280,1537.0,6.0,-85.65870059071709,-31.845674,-49.682191,-23.532667645949587
281,1537.0,12.0,-108.94386494490598,-49.27907,-58.695908,-46.81783200013848
282,1537.0,17.0,-97.66254910743443,-0.943895,-43.261017,-35.53651616266693
283,1537.0,19.0,-113.58120522923781,-34.556349,-64.254934,-51.45517228447031
284,1537.0,24.0,-103.76304183754921,-36.17686,-62.688227,-41.63700889278171
285,1537.0,28.0,-80.33692509941996,0.151676,-17.49864,-18.210892154652456
286,1538.0,2.0,-83.08831469382953,0.86858,-27.291631,-8.83505653979185
287,1538.0,6.0,-91.03135855083136,-62.264878,-46.981513,-16.778100396793675
288,1538.0,12.0,-113.94317509818296,-65.935654,-57.357721,-39.68991694414528
289,1538.0,17.0,-106.06198219277468,-56.427398,-41.981221,-31.808724038736997
290,1538.0,19.0,-121.10217592358939,-59.630927,-62.071381,-46.848917769551704
291,1538.0,24.0,-108.59862510371134,-67.17152,-60.234001,-34.34536694967366
292,1538.0,28.0,-79.49580717122272,-26.634931,-16.098213,-5.242549017185041
293,1539.0,2.0,-62.31239174837212,17.457344,-25.689791,-35.17357473118139
294,1539.0,6.0,-72.90432495689892,-42.306591,-47.076335,-45.765507939708186
295,1539.0,12.0,-91.4953165355434,-47.150903,-58.227686,-64.35649951835266
296,1539.0,17.0,-78.59171659911425,-44.436308,-44.236669,-51.45289958192352
297,1539.0,19.0,-102.31376779667194,-44.208535,-63.895477,-75.17495077948121
298,1539.0,24.0,-87.56738928400459,-44.7617,-59.941392,-60.42857226681386
299,1539.0,28.0,-47.03138376324974,-3.958295,-16.775396,-19.892566746059014
300,1540.0,2.0,-51.10790985621506,-169.812802,-18.225505,4.393060926070262
301,1540.0,6.0,-67.86799651906128,-245.597274,-36.940588,-12.367025736775958
302,1540.0,12.0,-87.2413891765774,-228.375893,-51.248807,-31.740418394292078
303,1540.0,19.0,-89.60108636912035,-247.89666,-53.644823,-34.10011558683503
304,1540.0,24.0,-79.57609022569169,-245.962727,-50.216901,-24.075119443406365
305,1541.0,2.0,-52.114585935674015,-138.217399,-1.45581,-6.752450421502019
306,1541.0,6.0,-71.15777201233247,-202.622397,-21.5336,-25.795636498160476
307,1541.0,14.0,-36.86848784110747,-101.129206,14.741849,8.493647673064523
308,1541.0,19.0,-91.77379390209927,-211.969988,-47.710615,-46.411658387927275
309,1541.0,24.0,-83.93695475273215,-213.899237,-43.899268,-38.57481923856015
310,1542.0,2.0,-60.46910984058642,-127.945902,-76.276041,-14.192305550630387
311,1542.0,6.0,-72.17123985686003,-188.175516,-113.383501,-25.894435566903994
312,1542.0,12.0,-91.22246590102502,-173.245001,-114.633993,-44.945661611068985
313,1542.0,17.0,-66.99898803953813,-161.32375,-87.42817,-20.7221837495821
314,1542.0,19.0,-83.058783796612,-197.005309,-132.827094,-36.78197950665597
315,1542.0,24.0,-85.46176461024373,-194.768379,-132.857068,-39.1849603202877
316,1543.0,2.0,-71.95720718057204,-97.208953,-25.005835,-11.264171535478624
317,1543.0,6.0,-81.19109483351114,-129.153862,-45.463558,-20.498059188417727
318,1543.0,12.0,-96.07134721880179,-100.338353,-64.371343,-35.37831157370837
319,1543.0,14.0,-51.70304575176976,-14.155302,5.646421,8.98998989332366
320,1543.0,19.0,-92.86386996272599,-130.854504,-64.152176,-32.17083431763257
321,1543.0,24.0,-94.5794962285531,-138.667939,-64.314681,-33.88646058345968
322,1543.0,28.0,-65.86938306733087,-76.438725,-11.868733,-5.1763474222374555
323,1544.0,2.0,-73.69905694857877,-66.619333,1.78327,-12.60324985383754
324,1544.0,6.0,-82.70166845269084,-96.32874,-8.090122,-21.605861357949607
325,1544.0,12.0,-95.13024986074696,-66.496405,-32.306846,-34.034442766005725
326,1544.0,14.0,-54.15946279093516,-54.128079,12.294788,6.936344303806074
327,1544.0,17.0,-78.45046592173013,-57.247056,-15.907477,-17.354658826988896
328,1544.0,19.0,-91.87956442462249,-98.804995,-23.680691,-30.783757329881254
329,1544.0,24.0,-95.47007903994017,-97.343819,-24.011973,-34.37427194519894
330,1544.0,28.0,-66.84975840631778,-43.660245,4.693403,-5.753951311576543
331,1545.0,2.0,-101.90809602454334,-29.211731,-26.666869,-16.621938520337864
332,1545.0,6.0,-107.77178413583555,-33.06373,-34.555502,-22.48562663163007
333,1545.0,12.0,-122.68118674616181,-41.134034,-48.668125,-37.39502924195634
334,1545.0,17.0,-98.77851977394117,-16.346681,-22.286042,-13.492362269735693
335,1545.0,19.0,-115.33339697193124,-36.333893,-41.915454,-30.04723946772576
336,1545.0,28.0,-92.2043519787558,-8.921273,-4.346276,-6.918194474550319
337,1546.0,2.0,-74.34614607531437,-40.134676,-32.085381,-13.424494047359921
338,1546.0,6.0,-76.71559732572685,-54.565125,-41.737407,-15.793945297772403
339,1546.0,12.0,-95.89725656805588,-39.819452,-51.345982,-34.975604540101436
340,1546.0,14.0,-47.71507560183129,68.15987,4.542356,13.206576426123156
341,1546.0,17.0,-67.3545689463538,-29.928817,-27.009997,-6.43291691839935
342,1546.0,19.0,-83.3953503134546,-48.266081,-48.314928,-22.473698285500156
343,1546.0,28.0,-63.857252233015814,-37.93592,-9.141317,-2.9356002050613696
344,1547.0,2.0,-100.85167342870501,-25.364413,-30.40392,-11.032558427191205
345,1547.0,6.0,-102.81646148393996,-34.303094,-38.255995,-12.997346482426153
346,1547.0,12.0,-124.76942814889499,-37.89006,-44.767876,-34.95031314738118
347,1547.0,14.0,-77.1284978005071,40.663918,3.083754,12.690617201006702
348,1547.0,17.0,-99.27797411308195,-6.79067,-23.43255,-9.458859111568145
349,1547.0,19.0,-114.07616453263894,-25.43506,-42.658255,-24.257049531125134
350,1547.0,28.0,-95.9925122341728,-11.968306,-8.931534,-6.173397232658999
351,1548.0,2.0,-100.87375084897619,-20.494486,-29.681539,-6.522760426809654
352,1548.0,6.0,-103.51473562889385,-33.57848,-36.00924,-9.163745206727313
353,1548.0,12.0,-125.65442953861348,-36.438681,-40.364932,-31.303439116446953
354,1548.0,14.0,-78.13521290076235,37.889748,2.220664,16.215777521404178
355,1548.0,17.0,-100.84419484364365,-10.786296,-20.647783,-6.493204421477117
356,1548.0,19.0,-115.47088503954853,-23.871138,-38.636182,-21.119894617382002
357,1548.0,24.0,-125.98071237858672,3.556118,-48.515709,-31.629721956420184
358,1548.0,28.0,-96.15011598682882,-7.042639,-8.650366,-1.7991255646622903
359,1549.0,2.0,-119.39672241279149,-16.082207,-28.55011,-1.1159349489746262
360,1549.0,6.0,-118.08525089018042,-33.009781,-38.653326,0.1955365736364456
361,1549.0,12.0,-142.75155386347728,-35.104465,-45.784872,-24.47076639966042
362,1549.0,14.0,-101.01527777526195,32.743999,2.383469,17.265509688554914
363,1549.0,17.0,-122.36796077495013,-2.323968,-26.511965,-4.08717331113327
364,1549.0,19.0,-134.08727765372163,-23.504672,-45.181428,-15.806490189904764
365,1549.0,24.0,-142.74493350066658,4.899615,-51.99881,-24.464146036849712
366,1549.0,28.0,-116.41561772100938,-13.064988,-10.087616,1.8651697428074812
367,1550.0,2.0,-113.34578764562208,-17.567697,-28.803476,-6.988055715795085
368,1550.0,6.0,-112.49287044578884,-30.869276,-38.717285,-6.135138515961842
369,1550.0,12.0,-135.9791618075681,-31.054056,-45.19635,-29.621429877741093
370,1550.0,14.0,-92.33049268860657,11.074092,2.035027,14.027239241220428
371,1550.0,17.0,-111.93824684699517,-12.141928,-26.277489,-5.580514917168173
372,1550.0,19.0,-127.0917554237703,-25.356987,-44.854082,-20.734023493943297
373,1550.0,24.0,-135.63305210156403,-25.50077,-51.680701,-29.275320171737036
374,1550.0,28.0,-109.49378953405804,-7.605877,-10.312484,-3.1360576042310413
375,1551.0,2.0,-124.01170311669004,-12.083767,-29.114329,-2.583997793249466
376,1551.0,6.0,-121.67830722901279,-40.420934,-38.818753,-0.2506019055722106
377,1551.0,12.0,-145.13747809424967,-45.513458,-44.642071,-23.709772770809096
378,1551.0,14.0,-104.58950900331794,10.925961,1.696967,16.838196320122634
379,1551.0,17.0,-127.58185079082754,-19.972504,-26.029879,-6.154145467386968
380,1551.0,19.0,-137.98228694276793,-35.875575,-44.541185,-16.55458161932735
381,1551.0,24.0,-146.34955669543623,-57.171202,-51.42327,-24.921851371995658
382,1551.0,28.0,-120.59476868355759,-9.907436,-10.534076,0.8329366398829876
383,1552.0,2.0,-113.8203979665827,-12.581708,-29.269113,-7.225689870608846
384,1552.0,6.0,-115.46945399523997,-23.093232,-39.230251,-8.874745899266117
385,1552.0,12.0,-138.3174871861512,-45.457683,-44.815201,-31.72277909017734
386,1552.0,14.0,-94.69748873916097,42.761149,1.429833,11.897219356812883
387,1552.0,17.0,-117.47151671253924,-25.421733,-26.501436,-10.876808616565384
388,1552.0,19.0,-129.83002428315402,-29.204153,-45.046548,-23.23531618718016
389,1552.0,24.0,-138.00527423651127,-36.968266,-51.632349,-31.410566140537412
390,1552.0,28.0,-113.65405725458311,-30.56145,-10.891693,-7.059349158609251
391,1553.0,2.0,-117.39764316621931,-15.577472,-29.415209,-16.896170164685728
392,1553.0,6.0,-122.9857451247573,-28.891736,-39.384853,-22.484272123223718
393,1553.0,12.0,-137.665973298475,-53.766169,-44.822549,-37.16450029694141
394,1553.0,14.0,-98.40622398521512,31.117413,1.33716,2.095249016318462
395,1553.0,17.0,-116.48545597369144,-19.118297,-26.561226,-15.983982972157861
396,1553.0,19.0,-133.4650347577567,-30.937674,-45.137106,-32.96356175622313
397,1553.0,24.0,-140.20313893947585,-34.890061,-51.713158,-39.701665937942266
398,1554.0,2.0,-99.6167577289498,-34.680064,-29.4426,-17.109855460704438
399,1554.0,6.0,-106.63379126194094,-51.476987,-39.428707,-24.126888993695573
400,1554.0,12.0,-122.89315961166814,-60.902723,-44.870041,-40.38625734342277
401,1554.0,14.0,-75.48589786999099,12.756371,1.338067,7.021004398254377
402,1554.0,17.0,-98.9813292752374,-30.709122,-26.594721,-16.47442700699203
403,1554.0,19.0,-116.02526571373637,-46.757983,-45.186256,-33.518363445491005
404,1554.0,24.0,-125.02043084576883,-30.755757,-51.756633,-42.51352857752346
405,1555.0,2.0,-98.69544019616256,-36.192583,-29.400944,-17.67783731081755
406,1555.0,6.0,-105.26084542109574,-48.713098,-39.392598,-24.243242535750724
407,1555.0,12.0,-122.05473513706757,-55.497892,-44.87506,-41.037132251722554
408,1555.0,14.0,-73.68988931208477,15.038991,1.365312,7.32771357326024
409,1555.0,17.0,-97.69858876530972,-21.644783,-26.586861,-16.68098587996471
410,1555.0,19.0,-115.0383797301152,-38.678324,-45.167692,-34.02077684477018
411,1555.0,24.0,-124.17136601241096,-29.15294,-51.727391,-43.15376312706594
412,1556.0,2.0,-85.56102710091673,-37.024266,-29.345008,-18.955009279924298
413,1556.0,6.0,-92.28022055422134,-54.014066,-39.322033,-25.67420273322891
414,1556.0,12.0,-108.69205191639082,-64.323962,-44.838717,-42.08603409539839
415,1556.0,14.0,-58.352403604213464,18.951344,1.395808,8.25361421677897
416,1556.0,17.0,-83.82921033176667,-24.423092,-26.540778,-17.22319251077424
417,1556.0,19.0,-101.35853567862962,-39.764282,-45.098871,-34.75251785763719
418,1556.0,24.0,-111.26627447228705,-35.000013,-51.658162,-44.66025665129462
419,1557.0,2.0,-87.62522461449392,-47.135915,-29.291733,-16.50042907953444
420,1557.0,6.0,-93.76879044158285,-50.330732,-39.21984,-22.643994906623377
421,1557.0,12.0,-112.67295715416756,-62.890859,-44.745798,-41.54816161920809
422,1557.0,14.0,-60.73674701105647,16.357332,1.424421,10.388048523903002
423,1557.0,17.0,-84.65067039380737,-20.502876,-26.438864,-13.5258748588479
424,1557.0,19.0,-102.19067528349235,-42.319153,-44.964026,-31.06587974853288
425,1557.0,24.0,-113.44441209711049,-40.582823,-51.547265,-42.31961656215101
426,1558.0,2.0,-120.3517786962148,-54.260683,-29.249731,-16.23460526075884
427,1558.0,6.0,-123.244492285896,-45.812065,-39.071932,-19.127318850440048
428,1558.0,12.0,-138.1676506556448,-65.598076,-44.565631,-34.05047722018884
429,1558.0,14.0,-97.88235309773633,20.400399,1.450285,6.234820337719626
430,1558.0,17.0,-116.7265081852823,-19.20695,-26.246526,-12.609334749826346
431,1558.0,19.0,-134.0342968266603,-40.951316,-44.725462,-29.917123391204342
432,1558.0,24.0,-140.40403160581917,-42.306472,-51.376417,-36.28685817036322
433,1559.0,2.0,-102.88399848499886,-40.265662,-29.187132,-18.06001400090186
434,1559.0,6.0,-109.13519889086047,-50.786289,-39.160682,-24.31121440676347
435,1559.0,12.0,-124.2253767936974,-64.503407,-44.768446,-39.401392309600396
436,1559.0,14.0,-77.15230921340577,9.934314,1.461799,7.671675270691225
437,1559.0,17.0,-100.38191739409947,-26.395706,-26.472493,-15.557932910002478
438,1559.0,19.0,-117.68962707810235,-46.337821,-44.968492,-32.86564259400535
439,1559.0,24.0,-126.35096108692846,-23.835475,-51.485417,-41.52697660283147
440,1560.0,2.0,-104.56361395775156,-49.385733,-29.061222,-19.172961583727584
441,1560.0,6.0,-110.53183018685336,-66.631086,-39.319159,-25.141177812829383
442,1560.0,12.0,-124.71017468733304,-76.288541,-45.163543,-39.319522313309065
443,1560.0,14.0,-77.73378729887808,6.999654,1.495207,7.6568650751458875
444,1560.0,17.0,-100.94009871925336,-33.849807,-26.897007,-15.549446345229384
445,1560.0,19.0,-118.3830143352469,-63.399227,-45.429401,-32.992361961222926
446,1560.0,24.0,-127.39484946825402,-60.920155,-51.70398,-42.00419709423005
447,1561.0,2.0,-91.86477416286036,-46.308384,-28.850794,-15.188296633706756
448,1561.0,6.0,-92.09549641012056,-73.00836,-39.07717,-15.41901888096696
449,1561.0,12.0,-108.13654163993205,-73.698687,-45.102624,-31.460064110778447
450,1561.0,14.0,-68.17936102690312,-3.757247,1.625391,8.497116502250478
451,1561.0,17.0,-97.15025350598309,-38.898737,-26.771156,-20.473775976829486
452,1561.0,19.0,-105.78935637143181,-80.835322,-45.242641,-29.112878842278207
453,1561.0,24.0,-105.32503373964478,-42.655567,-51.526892,-28.64855621049118
454,1561.0,28.0,-82.01302865190033,-53.523827,-10.759333,-5.336551122746727
455,1562.0,2.0,-43.53623922329807,-15.056035,-28.245911,-26.296655741172966
456,1562.0,6.0,-40.313939467088105,-58.13046,-38.145264,-23.074355984963002
457,1562.0,12.0,-57.928100206153545,-58.594402,-44.725346,-40.688516724028446
458,1562.0,14.0,-11.788273055622485,4.105821,2.121622,5.4513104265026175
459,1562.0,17.0,-42.51931180183944,-39.300957,-26.025856,-25.27972831971434
460,1562.0,19.0,-56.004948631487814,-60.362009,-44.310964,-38.76536514936271
461,1562.0,24.0,-63.708261224361216,-50.687587,-50.884255,-46.46867774223611
462,1562.0,28.0,-16.829768076637894,-29.656235,-10.08597,0.4098154054872083
463,1563.0,2.0,-100.15198057227292,-4.660193,-27.28449,-25.45077420645312
464,1563.0,6.0,-96.87461866206513,-43.769483,-36.15456,-22.17341229624533
465,1563.0,12.0,-115.52355879109395,-49.528251,-43.080828,-40.82235242527415
466,1563.0,14.0,-68.2342868691831,9.949324,2.7611,6.466919496636706
467,1563.0,17.0,-94.8390188448097,-18.390175,-23.999456,-20.1378124789899
468,1563.0,19.0,-115.18585564104409,-39.226232,-41.764872,-40.484649275224285
469,1563.0,24.0,-112.30945411228883,-48.803671,-49.068842,-37.60824774646903
470,1563.0,28.0,-83.92598398894181,-25.618857,-8.880465,-9.224777623122009
471,1564.0,2.0,-110.79527004593476,9.707524,-27.301557,-16.368958417798282
472,1564.0,6.0,-104.87915227245425,-48.16322,-35.312033,-10.452840644317774
473,1564.0,12.0,-126.12769862692882,-54.514166,-41.323038,-31.701386998792344
474,1564.0,14.0,-85.85277462813713,17.202358,2.509532,8.573536999999348
475,1564.0,17.0,-106.48771179483013,-40.774046,-22.579073,-12.061400166693659
476,1564.0,19.0,-122.78520079775798,-47.203291,-39.968896,-28.358889169621506
477,1564.0,24.0,-127.8378893577611,-50.772117,-47.725396,-33.411577729624625
478,1564.0,28.0,-100.43816796051344,-5.187733,-8.65313,-6.011856332376965
479,1565.0,2.0,-111.43049799894074,42.939846,-25.853151,-14.75975070392947
480,1565.0,6.0,-103.9159289361024,-35.419506,-34.710303,-7.245181641091136
481,1565.0,12.0,-126.4347920365905,-36.997655,-42.235646,-29.764044741579227
482,1565.0,14.0,-85.7749067347208,25.253302,3.094857,10.895840560290466
483,1565.0,17.0,-106.16204349153223,-40.97957,-23.486846,-9.491296196520963
484,1565.0,19.0,-122.28585610213749,-37.989978,-40.670198,-25.61510880712622
485,1565.0,24.0,-127.44590444859388,-40.040435,-47.568174,-30.77515715358261
486,1565.0,28.0,-101.04909878914277,-20.03034,-8.276756,-4.378351494131508
487,1566.0,6.0,-52.316104970142554,-28.790675,-33.886285,-31.754688891708554
488,1566.0,12.0,-69.62056116623445,-31.88648,-41.679616,-49.05914508780045
489,1566.0,14.0,-15.988170995327355,22.387683,3.380575,4.573245083106645
490,1566.0,17.0,-49.77947501720603,-30.094348,-22.820187,-29.21805893877203
491,1566.0,19.0,-68.6300595029648,-26.574761,-39.770559,-48.0686434245308
492,1566.0,24.0,-75.69539569595425,-27.705247,-46.829694,-55.13397961752025
493,1566.0,28.0,-22.3386038347594,13.917855,-7.793249,-1.7771877563254002
494,1567.0,2.0,-83.89506847646437,51.106528,-21.767426,-28.274214608218813
495,1567.0,6.0,-84.04278877725984,-37.048368,-26.739287,-28.421934909014283
496,1567.0,12.0,-105.31458517194751,-45.771525,-33.920806,-49.69373130370195
497,1567.0,14.0,-54.16961801628883,40.01956,4.311411,1.4512358519567314
498,1567.0,17.0,-84.70012264539585,-27.972396,-15.678794,-29.07926877715029
499,1567.0,19.0,-105.17954398356419,-35.58354,-30.139558,-49.558690115318626
500,1567.0,24.0,-105.45053357448067,-38.289128,-38.835584,-49.82967970623511
501,1567.0,28.0,-62.80825564485017,-14.508372,-4.504564,-7.187401776604609
502,1568.0,6.0,-104.78374798546923,-45.089369,-27.62071,-3.9124322089337795
503,1568.0,12.0,-128.83899755258764,-36.902453,-30.976608,-27.96768177605219
504,1568.0,14.0,-87.30018068837377,4.951304,1.368652,13.571135088161682
505,1568.0,17.0,-106.5377950331567,-28.376707,-16.787908,-5.666479256621244
506,1568.0,19.0,-122.52067792500932,-47.728898,-30.238488,-21.64936214847387
507,1568.0,24.0,-127.81395188905671,-46.383683,-36.655266,-26.942636112521257
508,1568.0,28.0,-102.2240136307185,-27.436766,-7.04566,-1.3526978541830488
509,1569.0,2.0,-103.76064827098477,54.343302,-24.147228,-13.202755218405798
510,1569.0,6.0,-97.12436880577214,-13.243623,-33.226971,-6.56647575319316
511,1569.0,12.0,-119.95889956990364,-19.981973,-38.773529,-29.40100651732466
512,1569.0,14.0,-77.09906364884365,-12.873776,1.507883,13.458829403735322
513,1569.0,17.0,-96.60853652837184,-7.162302,-23.246646,-6.050643475792867
514,1569.0,19.0,-113.56482370747156,-15.466581,-38.909503,-23.006930654892585
515,1569.0,24.0,-119.55989186526544,-21.856779,-43.84676,-29.001998812686466
516,1569.0,28.0,-93.21403897125802,1.288769,-9.136418,-2.6561459186790444
517,1570.0,2.0,-97.48454594463435,-4.827635,-24.340255,-18.606881195253095
518,1570.0,6.0,-90.69214086300718,-22.090846,-33.370522,-11.814476113625929
519,1570.0,12.0,-111.66079875486166,-24.75652,-39.152067,-32.783134005480406
520,1570.0,14.0,-69.00958922481901,-1.426477,1.711306,9.868075524562244
521,1570.0,17.0,-89.80243501048811,-7.252901,-23.229734,-10.924770261106858
522,1570.0,19.0,-108.10665516488673,-21.581386,-39.063065,-29.22899041550548
523,1570.0,24.0,-114.90676711420552,-27.897989,-44.246615,-36.02910236482427
524,1570.0,28.0,-85.10212568383398,0.629999,-9.007564,-6.224460934452722
525,1571.0,2.0,-93.56947453193304,-11.08095,-23.533862,-16.81505911660075
526,1571.0,6.0,-89.55734083267998,-30.126664,-31.730291,-12.802925417347694
527,1571.0,12.0,-111.16345292396609,-38.869587,-36.600986,-34.4090375086338
528,1571.0,14.0,-67.52725647119397,-7.257452,1.391995,9.227158944138324
529,1571.0,17.0,-87.84718772281714,-10.869253,-21.572246,-11.09277230748485
530,1571.0,19.0,-106.05491732323216,-35.113093,-36.593942,-29.30050190789987
531,1571.0,24.0,-112.67861979383214,-37.112769,-41.813583,-35.92420437849985
532,1571.0,28.0,-84.30024675979364,-19.33247,-8.643758,-7.545831344461348
533,1572.0,2.0,-107.24250792992522,-46.488144,-22.766455,-12.65559746310143
534,1572.0,6.0,-103.05761991567904,-50.471362,-30.941867,-8.470709448855246
535,1572.0,12.0,-127.17726852842254,-56.637372,-36.24893,-32.59035806159875
536,1572.0,14.0,-84.59990370438554,31.753625,1.657227,9.987006762438256
537,1572.0,17.0,-104.46667399002317,-27.911565,-21.275533,-9.879763523199372
538,1572.0,19.0,-121.05044273100224,-48.25702,-36.020709,-26.46353226417844
539,1572.0,24.0,-126.3886099543396,-55.821486,-41.090247,-31.801699487515805
540,1572.0,28.0,-100.82970671756536,-8.465571,-8.249763,-6.242796250741563
541,1573.0,2.0,-101.38340286923815,-34.921328,-22.189822,-6.961856907770368
542,1573.0,6.0,-97.75798554720141,-39.012077,-31.10215,-3.336439585733629
543,1573.0,12.0,-121.02043289662352,-46.291424,-36.802618,-26.598886935155733
544,1573.0,14.0,-78.25674861403448,19.850667,1.568932,16.164797347433307
545,1573.0,17.0,-97.18743039524118,-23.535689,-22.292358,-2.765884433773394
546,1573.0,19.0,-114.85784467607242,-44.227451,-36.932172,-20.436298714604632
547,1573.0,24.0,-120.42011910431397,-44.334085,-41.157185,-25.998573142846183
548,1573.0,28.0,-93.96912470133704,-7.107674,-8.529146,0.45242126013074824
549,1574.0,2.0,-100.45296908036137,-20.386991,-22.190256,-15.043001837581798
550,1574.0,6.0,-97.27383237204948,-34.724645,-30.961822,-11.86386512926991
551,1574.0,12.0,-120.67782928216123,-44.943409,-36.489196,-35.267862039381654
552,1574.0,17.0,-96.645630872231,-12.266378,-22.057011,-11.235663629451423
553,1574.0,19.0,-113.77720405284676,-31.859959,-36.625539,-28.367236810067183
554,1574.0,24.0,-119.95931811790928,-37.255139,-40.910481,-34.549350875129704
555,1574.0,28.0,-93.1347560885249,11.162362,-8.50082,-7.724788845745323
556,1575.0,2.0,-111.13309374548558,-42.190229,-22.775963,-9.147983330506236
557,1575.0,6.0,-108.75400615280158,-35.914813,-31.797467,-6.768895737822234
558,1575.0,12.0,-133.8364983567624,-48.000604,-37.868509,-31.85138794178306
559,1575.0,17.0,-110.53299952845315,-7.219767,-22.669016,-8.5478891134738
560,1575.0,19.0,-125.63443997519882,-41.363708,-37.748184,-23.64932956021947
561,1575.0,24.0,-131.89487605864574,-44.631644,-42.305931,-29.90976564366639
562,1575.0,28.0,-106.30063421381752,-11.03656,-8.529844,-4.315523798838171
563,1576.0,2.0,-92.78390084562663,-14.037726,-25.087522,-16.6893744481727
564,1576.0,6.0,-88.61009071534134,-33.080443,-34.612272,-12.51556431788741
565,1576.0,12.0,-108.49505717708767,-28.931822,-39.078655,-32.40053077963374
566,1576.0,17.0,-86.6432416715038,-27.460557,-24.275689,-10.548715274049869
567,1576.0,19.0,-105.53308789850982,-39.006102,-40.137171,-29.438561501055887
568,1576.0,24.0,-112.45579187919013,-41.649227,-44.555502,-36.3612654817362
569,1576.0,28.0,-81.2710514648048,-17.770141,-10.208682,-5.176525067350866
570,1577.0,2.0,-99.06953982376545,-5.398482,-24.596731,-19.045907052403948
571,1577.0,6.0,-94.69126530089606,-3.999763,-33.639248,-14.667632529534558
572,1577.0,12.0,-116.97359230130752,-26.888942,-38.003174,-36.949959529946014
573,1577.0,14.0,-73.88692837263473,68.296567,0.754425,6.136704398726778
574,1577.0,17.0,-94.1687737095675,0.149315,-23.310716,-14.145140938205998
575,1577.0,19.0,-113.01704628028747,-2.953208,-38.823245,-32.99341350892597
576,1577.0,24.0,-117.74855578308411,-10.71748,-43.44408,-37.72492301172261
577,1577.0,28.0,-89.77544067432986,13.272071,-9.773176,-9.751807902968352
578,1578.0,2.0,-47.38133358052964,-52.031935,-20.416869,-27.333936846795833
579,1578.0,6.0,-50.025965673055005,-54.91874,-29.790315,-29.978568939321196
580,1578.0,12.0,-67.8088165436253,-54.798212,-38.846727,-47.76141980989149
581,1578.0,14.0,-13.541195046891463,41.603128,3.613019,6.506201686842346
582,1578.0,17.0,-47.904579389864054,-49.074712,-22.450563,-27.857182656130245
583,1578.0,19.0,-67.1833702794593,-48.578681,-37.245385,-47.13597354572549
584,1578.0,24.0,-74.05708345097968,-59.433498,-41.671373,-54.00968671724587
585,1578.0,28.0,-20.166733486207345,-1.981288,-6.801139,-0.11933675247353648
586,1579.0,2.0,-47.80430282368125,-10.953364,-13.306462,-26.765844317697553
587,1579.0,6.0,-49.223725825130764,-9.860772,-16.739291,-28.18526731914707
588,1579.0,12.0,-68.04258165029776,-25.79654,-25.784834,-47.004123144314065
589,1579.0,14.0,-13.471410832969651,15.544292,5.747421,7.567047673014043
590,1579.0,17.0,-47.79801129601446,-3.018616,-10.238536,-26.759552790030764
591,1579.0,19.0,-66.31693386804412,-8.333036,-20.581375,-45.27847536206042
592,1579.0,24.0,-76.150043295131,-18.410725,-27.611508,-55.1115847891473
593,1579.0,28.0,-20.856895417147356,14.159272,-0.632117,0.18156308883633798
594,1580.0,2.0,-55.6907806977049,11.649822,-2.591302,-29.93253442299317
595,1580.0,6.0,-59.60345717389671,-9.780286,-0.123386,-33.84521089918498
596,1580.0,12.0,-78.05821657225196,-23.99573,-11.495991,-52.299970297540234
597,1580.0,14.0,-19.987045892772542,23.177439,9.251726,5.771200381939188
598,1580.0,17.0,-56.975202594381585,-3.024822,3.124356,-31.216956319669855
599,1580.0,19.0,-76.72917130346572,-8.199975,-1.583967,-50.97092502875399
600,1580.0,24.0,-81.04193577546167,-14.318276,-10.525091,-55.28368950074994
601,1580.0,28.0,-32.22209456806085,2.509753,7.405554,-6.463848293349116
602,1581.0,2.0,-127.19805294346044,2.028905,0.601918,-3.409788911424613
603,1581.0,6.0,-125.33079127236736,-9.712756,6.545172,-1.5425272403315375
604,1581.0,12.0,-146.1980124399146,-14.23326,-4.067321,-22.40974840787878
605,1581.0,14.0,-109.39176211871923,15.822827,10.035322,14.396501913316598
606,1581.0,17.0,-127.16111047241381,-7.037394,9.940641,-3.372846440377984
607,1581.0,19.0,-142.34968141401322,-7.359409,7.557105,-18.561417381977392
608,1581.0,24.0,-147.7513528638244,-16.504917,-3.031058,-23.963088831788568
609,1581.0,28.0,-124.48565955706385,-8.014108,10.43435,-0.6973955250280284
610,1582.0,2.0,-111.8058455168205,1.933259,-15.511034,-6.82555586286982
611,1582.0,6.0,-109.87044455272314,-2.367565,-25.370902,-4.890154898772465
612,1582.0,12.0,-134.64744260453324,-9.007937,-29.734214,-29.66715295058256
613,1582.0,14.0,-89.64167454671842,-9.542931,-0.22064,15.338615107232258
614,1582.0,17.0,-111.75536811932142,8.932007,-21.544262,-6.77507846537074
615,1582.0,19.0,-125.93580507536012,-5.819467,-32.282903,-20.955515421409444
616,1582.0,24.0,-133.34039539810547,-6.010488,-31.706668,-28.360105744154794
617,1582.0,28.0,-106.37050396610944,-3.645772,-8.674908,-1.3902143121587613
618,1583.0,2.0,-119.89382081791814,-13.580069,-16.720759,-15.064101731565032
619,1583.0,6.0,-119.66636863365802,-29.592383,-27.145108,-14.836649547304916
620,1583.0,12.0,-139.467313796487,-33.33321,-30.19715,-34.63759471013388
621,1583.0,14.0,-99.14107542936523,5.216713,-1.303471,5.688643656987878
622,1583.0,17.0,-118.7421729359502,12.108442,-22.877899,-13.912453849597085
623,1583.0,19.0,-135.13927267471485,-24.35652,-33.908942,-30.309553588361737
624,1583.0,24.0,-141.17585735274218,-26.137851,-32.736101,-36.346138266389076
625,1583.0,28.0,-115.10485265150568,-1.251777,-10.040448,-10.275133565152572
626,1584.0,2.0,-125.0765584779537,-31.155841,-17.416894,-16.74187443610917
627,1584.0,6.0,-124.42794062436306,-48.142469,-27.826786,-16.093256582518535
628,1584.0,12.0,-143.02237447959388,-50.399127,-27.937528,-34.68769043774935
629,1584.0,14.0,-105.6814062254863,33.527285,-3.310983,2.6532778163582265
630,1584.0,17.0,-123.05091847938688,-47.857063,-23.076273,-14.716234437542354
631,1584.0,19.0,-139.13866112863803,-46.879589,-33.547353,-30.80397708679351
632,1584.0,24.0,-145.26554029096096,-49.91314,-31.373723,-36.93085624911643
633,1584.0,28.0,-121.07201510445185,27.611387,-11.687431,-12.737331062607325
634,1585.0,2.0,-90.10546187959828,-34.3048,-17.449381,-20.89859170950048
635,1585.0,6.0,-92.04584358815528,-39.959371,-27.964903,-22.838973418057478
636,1585.0,12.0,-111.16962355172136,-38.413029,-26.202852,-41.96275338162356
637,1585.0,14.0,-59.87924440463655,10.19084,-4.667878,9.32762576546125
638,1585.0,17.0,-95.59310086013114,-41.537182,-23.25123,-26.386230690033344
639,1585.0,19.0,-110.41102992090443,-39.831163,-33.158372,-41.204159750806625
640,1585.0,24.0,-110.20931549387295,-40.911292,-30.032882,-41.00244532377515
641,1585.0,28.0,-75.07843880280709,50.474817,-12.749604,-5.871568632709284
