0,121,2,-50.69517201,-4.660012,7.705789,-0.430969574
1,121,5,-50.41166521,-4.072563,-6.033292,-0.147462781
2,121,6,-52.0504836,-13.528624,8.798213,-1.786281165
3,121,12,-49.69444141,20.47058,7.083137,0.569761027
4,121,19,-51.99418754,7.206275,3.822954,-1.729985102
5,121,24,-50.62807381,-0.266769,-5.122606,-0.363871379
6,121,25,-48.79470887,32.863154,8.908277,1.469493567
7,121,29,-48.53023313,-7.843042,3.036377,1.733969303
8,122,2,-44.6561741,2.493815,7.719478,2.870455141
9,122,5,-45.55078068,14.267517,-5.901058,1.975848556
10,122,6,-46.92950533,-10.730803,8.797509,0.597123915
11,122,12,-44.6887061,21.148639,7.082238,2.837923143
12,122,19,-48.56473766,2.996617,3.882657,-1.038108417
13,122,24,-44.49481078,2.535405,-5.068848,3.031818459
14,122,25,-48.18069002,15.938001,8.812586,-0.654060785
15,122,29,-44.60866862,-1.390245,2.942591,2.917960617
16,123,2,-29.6069546,-1.154779,7.799317,-2.571808112
17,123,5,-31.93708651,-6.926089,-5.712693,-4.901940028
18,123,6,-28.17012013,-15.331793,8.816367,-1.13497364
19,123,12,-28.20741491,-17.39373,7.156305,-1.172268428
20,123,19,-30.62745535,0.395779,3.943429,-3.592308866
21,123,24,-27.04828603,-1.702702,-4.951767,-0.013139543
22,123,25,-26.92513905,-4.350865,8.75536,0.110007431
23,123,29,-23.56407771,-1.120991,2.876937,3.47106878
24,124,2,-105.6348954,-2.233049,7.868438,0.357255174
25,124,5,-106.4820351,-11.908511,-5.619168,-0.489884562
26,124,6,-107.4933566,5.7579,8.883572,-1.501205989
27,124,12,-105.0141705,11.346482,7.203383,0.977980079
28,124,19,-107.6893622,7.73503,4.040989,-1.697211596
29,124,24,-104.2186428,-8.996718,-4.939562,1.773507806
30,124,25,-105.979689,5.124467,8.714779,0.012461592
31,124,29,-103.2070666,-0.423108,2.792563,2.785083964
32,125,2,-89.05298936,-10.817466,8.047628,0.081782472
33,125,5,-89.71851395,-6.956295,-5.347966,-0.583742115
34,125,6,-91.3103638,-5.52036,8.935865,-2.175591967
35,125,12,-89.22666091,1.969443,7.388216,-0.091889076
36,125,19,-91.03347086,9.399186,4.109285,-1.898699026
37,125,24,-86.88173509,-9.665846,-4.733285,2.253036737
38,125,25,-90.33252386,5.316069,8.712498,-1.197752031
39,125,29,-86.70294532,-8.987525,2.763302,2.431826512
40,126,2,-52.01325327,-0.536126,8.230238,-3.527426138
41,126,5,-53.02278008,0.693661,-5.000137,-4.53695294
42,126,6,-53.04739098,-25.184246,8.968854,-4.561563845
43,126,12,-53.05557687,12.056916,7.577415,-4.569749732
44,126,19,-53.35222672,11.705246,4.185751,-4.866399589
45,126,24,-47.73190206,-12.675029,-4.474203,0.753925073
46,126,25,-50.6549536,-9.742425,8.667551,-2.169126462
47,126,29,-44.72552002,-1.245714,2.705043,3.76030712
48,127,2,-67.44839411,5.074104,8.255613,-3.397315567
49,127,5,-67.33042097,-14.319095,-4.916448,-3.279342428
50,127,6,-68.02502847,-28.509803,8.937784,-3.973949929
51,127,12,-67.90461281,11.777214,7.615828,-3.853534272
52,127,19,-68.09341007,12.056976,4.156424,-4.042331528
53,127,24,-64.44301495,-14.606351,-4.382357,-0.391936406
54,127,25,-66.15955934,-22.176411,8.666968,-2.108480797
55,127,29,-61.28329866,4.970809,2.729206,2.767779881
56,128,2,-45.70225657,-4.879268,8.254598,-3.409098981
57,128,5,-45.19849059,-8.894021,-4.9039,-2.905333004
58,128,6,-45.11566321,-27.305885,8.871194,-2.822505621
59,128,12,-45.97937554,4.276523,7.645558,-3.68621796
60,128,19,-45.84664044,8.870614,4.053001,-3.553482857
61,128,24,-40.66627712,-27.851327,-4.293983,1.626880464
62,128,25,-45.24962525,-1.263385,8.723911,-2.956467662
63,128,29,-39.88849151,-0.695879,2.835455,2.404666071
64,129,2,-45.07223495,-7.211131,8.263796,-3.61496714
65,129,5,-44.43201014,-8.036218,-4.951288,-2.974742329
66,129,6,-44.68701204,-22.918432,8.828698,-3.229744224
67,129,12,-45.10416268,8.317391,7.685346,-3.646894868
68,129,19,-45.11945383,1.706332,3.945809,-3.662186019
69,129,24,-41.05124244,-3.106656,-4.244885,0.406025369
70,129,25,-44.00483494,-5.975753,8.82617,-2.547567131
71,129,29,-39.12635783,7.33639,2.97054,2.330909986
72,130,2,-27.22183085,11.500133,8.157517,-0.653583027
73,130,5,-30.9686856,6.090385,-5.190648,-4.400437776
74,130,6,-26.24525152,-23.267695,8.730358,0.322996296
75,130,12,-27.10883353,6.679052,7.618465,-0.540585715
76,130,19,-28.98467194,0.652132,3.747383,-2.416424121
77,130,24,-24.55030077,-14.253945,-4.30631,2.017947045
78,130,25,-25.11493926,5.55272,8.96821,1.453308562
79,130,29,-23.42449656,7.380578,3.179942,3.14375126
80,131,2,-32.09165329,11.617397,7.91837,-2.151764208
81,131,5,-35.76429453,8.611975,-5.704707,-5.824405448
82,131,6,-31.2143962,-1.100367,8.575,-1.274507123
83,131,12,-31.62862269,15.786645,7.432352,-1.688733606
84,131,19,-32.5644206,6.293275,3.425414,-2.624531516
85,131,24,-29.8236552,-2.845234,-4.521024,0.116233876
86,131,25,-31.49917819,10.168229,9.196522,-1.559289112
87,131,29,-26.31475357,5.349709,3.510584,3.625135508
88,132,2,-43.58304228,6.423269,8.188252,-1.452098676
89,132,5,-45.34370004,-0.658038,-6.219433,-3.212756435
90,132,6,-42.26087043,3.858262,8.644482,-0.129926826
91,132,12,-42.98262333,26.665766,7.843819,-0.851679727
92,132,19,-44.21649114,15.100451,2.989346,-2.08554753
93,132,24,-42.75778053,4.746076,-4.481257,-0.626836924
94,132,25,-42.88849025,5.113237,10.031014,-0.757546641
95,132,29,-39.25569858,5.284297,4.316571,2.875245029
96,133,2,-0.68468739,-0.735951,7.938692,0.147517236
97,133,5,-8.719380657,-12.237614,-5.250799,-7.887176031
98,133,6,-3.105194803,-0.208016,7.80225,-2.272990177
99,133,12,1.452177515,-4.818635,7.798124,2.284382141
100,133,19,-10.31770155,26.000361,2.378572,-9.485496924
101,133,24,0.431120998,-13.894401,-3.340445,1.263325624
102,133,25,9.278330024,6.676395,9.635606,10.11053465
103,133,29,11.28468758,-17.684967,4.511076,12.11689221
104,134,2,-1.457204545,-1.104905,7.992838,0.287243856
105,134,5,-9.499365992,-9.044882,-4.510562,-7.754917591
106,134,6,-2.928687568,-12.580919,6.894626,-1.184239167
107,134,12,0.29518027,1.36178,8.245006,2.039628671
108,134,19,-10.08977925,42.570496,1.239112,-8.345330852
109,134,24,-0.99050806,-10.144075,-1.853554,0.753940341
110,134,25,6.677191505,20.639741,10.016536,8.421639906
111,134,29,8.514477563,1.529297,5.549811,10.25892596
112,135,2,-0.833485673,-7.137812,7.835394,0.214846518
113,135,5,-9.151695247,-9.569522,-3.686096,-8.103363056
114,135,6,-2.656914681,-7.018527,6.145296,-1.608582491
115,135,12,1.119955135,-10.698509,8.301019,2.168287325
116,135,19,-10.02885267,-8.19434,0.612975,-8.980520479
117,135,24,-0.683594482,-12.094867,-0.779945,0.364737708
118,135,25,8.974438458,-8.898746,9.805695,10.02277065
119,135,29,10.30670415,4.601074,5.86739,11.35503634
120,136,2,-0.61134925,13.382895,7.78058,0.409791797
121,136,5,-9.077223623,-0.846289,-3.75374,-8.056082576
122,136,6,-2.622233709,3.986166,5.786851,-1.601092662
123,136,12,1.356681243,14.331885,8.419162,2.37782229
124,136,19,-9.841047907,-0.363998,0.031043,-8.81990686
125,136,24,-0.398844983,3.522034,-0.387914,0.622296064
126,136,25,9.418144259,8.797845,10.152822,10.43928531
127,136,29,10.66666281,11.283238,6.472216,11.68780386
128,137,2,-0.301238041,0.998641,7.772822,0.73209813
129,137,5,-9.060808988,-2.10083,-3.868193,-8.027472817
130,137,6,-2.319415237,3.194385,5.633248,-1.286079066
131,137,12,1.792752259,12.519034,8.502818,2.82608843
132,137,19,-9.817416768,-4.364233,-0.282373,-8.784080596
133,137,24,-0.105695637,2.058267,-0.230742,0.927640534
134,137,25,9.540412333,17.520506,10.404277,10.5737485
135,137,29,10.7039766,9.714814,6.836003,11.73731277
136,138,2,-0.158807739,7.894882,7.926503,0.978855081
137,138,5,-9.192715257,-2.238337,-3.991965,-8.055052437
138,138,6,-2.079110977,-4.529104,5.607275,-0.941448156
139,138,12,1.390679445,6.707979,8.747828,2.528342266
140,138,19,-9.431084534,-2.781302,-0.543674,-8.293421713
141,138,24,-0.004956008,3.957734,-0.070622,1.132706813
142,138,29,9.998837602,11.122268,7.258714,11.13650042
143,139,2,-0.22352546,3.920496,8.062719,0.823462752
144,139,5,-9.275135674,4.248812,-4.040762,-8.228147462
145,139,6,-1.961642845,-6.220276,5.523263,-0.914654633
146,139,12,1.837745316,4.780982,8.98842,2.884733527
147,139,19,-9.651493026,1.498515,-0.842045,-8.604504815
148,139,24,-0.979216624,2.200863,0.170473,0.067771588
149,139,25,9.54492672,15.708973,11.154874,10.59191493
150,139,29,10.47401678,3.989315,7.686853,11.52100499
151,140,2,-0.217520318,5.551947,8.063638,0.833488075
152,140,5,-9.216506444,0.106278,-4.194215,-8.165498051
153,140,6,-2.072185851,4.751661,5.376527,-1.021177458
154,140,12,1.798156983,5.928731,9.085907,2.849165376
155,140,19,-9.724888925,6.983081,-1.174589,-8.673880532
156,140,24,-0.75406081,-2.484566,0.31567,0.296947584
157,140,25,9.671062366,5.699445,11.448387,10.72207076
158,140,29,10.53765231,-1.300686,8.088541,11.5886607
159,141,2,-0.633401081,22.767961,8.071905,0.234975231
160,141,5,-9.400480871,9.246235,-4.340901,-8.532104558
161,141,6,-2.154512701,8.86023,5.275633,-1.286136389
162,141,12,1.209776587,25.178099,9.168799,2.078152899
163,141,19,-9.773544642,7.869026,-1.434221,-8.90516833
164,141,24,-1.308026137,16.937776,0.410129,-0.439649825
165,141,25,9.608687781,26.0914,11.699749,10.47706409
166,141,29,10.0884497,6.031664,8.415248,10.95682601
167,142,2,-0.440959997,-11.326355,8.051991,0.748001238
168,142,5,-9.349004304,-13.125158,-4.853439,-8.160043069
169,142,6,-2.036286809,-8.658123,5.154854,-0.847325573
170,142,12,1.401995367,-2.472007,9.271853,2.590956602
171,142,19,-9.584668952,-14.937636,-1.907962,-8.395707716
172,142,24,-1.58580569,-9.649634,0.38723,-0.396844455
173,142,25,9.914217459,31.248642,12.252689,11.10317869
174,142,29,10.19472807,21.252392,9.059364,11.3836893
175,143,2,-0.488640177,7.308135,7.881462,0.569461421
176,143,5,-9.584991733,1.384544,-4.931541,-8.526890135
177,143,6,-1.84573855,0.731224,4.951264,-0.787636952
178,143,12,1.337996473,6.385034,9.147862,2.396098071
179,143,19,-9.254230559,-2.697846,-2.128032,-8.19612896
180,143,24,-1.958027402,-2.299066,0.445285,-0.899925803
181,143,25,9.80756973,30.038402,12.254544,10.86567133
182,143,29,9.699771782,9.823403,9.199355,10.75787338
183,144,2,-1.509585427,24.475105,7.8471,0.235423124
184,144,5,-9.862940944,4.998885,-4.523845,-8.117932393
185,144,6,-2.467801253,13.32708,4.9157,-0.722792702
186,144,12,0.286657727,17.974689,9.061893,2.031666278
187,144,19,-8.841197029,1.200295,-1.92312,-7.096188478
188,144,24,-2.542185543,5.493587,0.578531,-0.797176992
189,144,25,6.49659902,25.110582,11.870514,8.241607571
190,144,29,7.749084382,15.858331,8.835833,9.494092933
191,145,2,-1.224450761,-5.38696,7.248885,0.525606543
192,145,5,-10.09108422,-10.036944,-4.474908,-8.341026915
193,145,6,-2.238846175,-7.124625,4.47507,-0.488788871
194,145,12,0.568049389,-0.020997,8.444077,2.318106692
195,145,19,-8.936573312,-3.659243,-2.055013,-7.186516008
196,145,24,-2.314173085,2.340237,0.527465,-0.564115781
197,145,25,7.243968749,6.300824,11.299764,8.994026053
198,145,29,8.488485413,-14.24034,8.547256,10.23854272
199,146,2,-0.00570448,1.873796,6.643497,1.17204057
200,146,5,-10.14731486,1.038875,-4.644889,-8.969569809
201,146,6,-0.982890995,1.648868,4.02633,0.194854055
202,146,12,1.577124217,51.534845,7.849889,2.754869267
203,146,19,-8.080945795,-4.040239,-2.317994,-6.903200746
204,146,24,-3.399336602,7.319904,0.411909,-2.221591552
205,146,25,9.794322644,-0.275977,10.921318,10.97206769
206,146,29,9.247253824,13.30925,8.458435,10.42499887
207,147,2,0.37904781,-9.283116,6.529355,1.906998471
208,147,5,-10.13167295,-18.652477,-4.713101,-8.603722291
209,147,6,-0.85474993,-4.538328,3.977964,0.673200731
210,147,12,1.958317062,25.905316,7.722683,3.486267722
211,147,19,-8.167144251,-2.405556,-2.328589,-6.63919359
212,147,24,-3.281792524,-9.512965,0.32897,-1.753841863
213,147,25,9.614270817,4.244719,10.844145,11.14222148
214,147,29,9.58736751,5.411744,8.410373,11.11531817
215,148,2,-0.230063821,2.052676,6.628716,1.016828832
216,148,5,-10.24506674,6.881253,-4.709292,-8.99817409
217,148,6,-1.165429255,1.146278,4.028456,0.081463398
218,148,12,1.481381709,28.525515,7.834037,2.728274362
219,148,19,-7.994508997,-16.308953,-2.338469,-6.747616344
220,148,24,-3.332185511,6.596541,0.368191,-2.085292858
221,148,25,9.540894015,2.702019,10.952247,10.78778667
222,148,29,8.878163401,21.09285,8.488498,10.12505605
223,149,2,-1.076807868,-2.716284,6.635893,0.534816396
224,149,5,-10.50520452,-7.867105,-4.545739,-8.893580259
225,149,6,-1.712748555,-7.620115,3.9771,-0.101124291
226,149,12,0.548351302,2.474064,7.847872,2.159975566
227,149,19,-7.590304167,-16.983004,-2.338256,-5.978679903
228,149,24,-3.510238862,11.859746,0.492167,-1.898614598
229,149,25,7.104462099,15.663173,10.872081,8.716086363
230,149,29,7.732212425,9.201484,8.444855,9.343836689
231,150,2,-0.213954402,-0.642404,6.459568,1.066169448
232,150,5,-10.59063332,-5.116872,-4.228163,-9.310509473
233,150,6,-0.840820453,-2.796611,3.668315,0.439303397
234,150,12,1.38385135,8.260287,7.718262,2.663975201
235,150,19,-7.311440657,4.578869,-2.502009,-6.031316806
236,150,24,-3.739005054,-2.864216,0.806602,-2.458881204
237,150,25,9.605907256,4.243297,10.621299,10.88603111
238,150,29,8.267590344,8.567567,8.404051,9.547714194
239,151,2,0.905187122,9.749399,6.148495,1.963839622
240,151,5,-11.15011215,3.20851,-4.257392,-10.09145965
241,151,6,0.648949494,6.601111,3.288356,1.707601994
242,151,12,1.869162024,17.669074,7.48296,2.927814524
243,151,19,-5.851942678,-6.003586,-2.852306,-4.793290177
244,151,24,-4.322789322,12.966085,0.962307,-3.264136821
245,151,25,9.206853677,4.825125,10.532069,10.26550618
246,151,29,8.529015581,2.781007,8.571368,9.587668081
247,152,2,-0.191291473,19.276242,6.213038,0.548027752
248,152,5,-11.32489132,-1.161127,-4.21674,-10.58557209
249,152,6,0.557007794,9.926194,3.413021,1.29632702
250,152,12,0.851210064,14.31801,7.501783,1.590529289
251,152,19,-5.046052724,11.631461,-2.684672,-4.306733499
252,152,24,-4.508637458,2.121124,0.877239,-3.769318232
253,152,25,7.96644308,17.949232,10.471526,8.705762305
254,152,29,6.965166426,12.134307,8.424561,7.704485651
255,153,2,-0.706529473,11.663676,6.553865,1.018725081
256,153,5,-11.54603977,-2.385591,-3.524805,-9.820785215
257,153,6,-0.419729956,3.48288,3.703609,1.305524598
258,153,12,0.61544725,9.538634,7.735451,2.340701804
259,153,19,-5.090116142,19.924424,-2.135176,-3.364861588
260,153,24,-5.095595711,5.049626,1.072915,-3.370341157
261,153,25,6.610914376,-4.209309,10.112554,8.33616893
262,153,29,6.405588822,20.946301,7.869479,8.130843376
263,154,2,0.123602757,9.228144,6.294325,1.448268624
264,154,5,-11.53494919,-6.431612,-2.555613,-10.21028333
265,154,6,0.227890048,10.868796,3.542157,1.552555915
266,154,12,1.375349532,14.508353,7.326013,2.700015399
267,154,19,-5.340024673,30.153127,-1.60316,-4.015358805
268,154,24,-4.914338155,1.352446,1.305582,-3.589672288
269,154,25,8.96107587,-0.583052,8.987008,10.28574174
270,154,29,7.269627694,-0.059318,6.835079,8.594293562
271,155,2,1.021637038,15.310423,5.811674,1.954570986
272,155,5,-11.63159198,8.135975,-1.533708,-10.69865804
273,155,6,1.39800103,7.551716,2.952567,2.330934978
274,155,12,1.874473962,10.749253,6.821023,2.807407909
275,155,19,-4.610274927,10.390087,-1.538012,-3.67734098
276,155,24,-5.102772231,0.711182,1.881082,-4.169838283
277,155,25,8.780217294,-1.457954,7.895713,9.713151241
278,155,29,7.689839932,12.324329,6.130046,8.62277388
279,156,2,-1.652965728,12.861511,5.852366,0.351084093
280,156,5,-11.49666961,1.354626,-1.412052,-9.492619786
281,156,6,-1.354564755,5.582888,3.014363,0.649485066
282,156,12,-0.143694072,24.604075,6.829206,1.860355749
283,156,19,-5.258489238,7.20919,-1.405495,-3.254439418
284,156,24,-4.966090112,-3.707414,1.879113,-2.962040291
285,156,25,4.837272743,12.25679,7.789929,6.841322564
286,156,29,5.068529989,14.818047,5.980726,7.07257981
287,157,2,0.772826074,0.823893,5.829824,2.065457609
288,157,5,-11.39342619,-2.108251,-1.398445,-10.10079465
289,157,6,0.719762983,-4.172424,3.036999,2.012394518
290,157,12,2.146635246,10.3278,6.783354,3.439266782
291,157,19,-5.585886997,9.584948,-1.338989,-4.293255461
292,157,24,-5.052055392,2.383664,1.827222,-3.759423857
293,157,25,9.335786538,-0.928251,7.717012,10.62841807
294,157,29,7.971907089,9.372731,5.889896,9.264538624
295,158,2,0.569173233,-10.533462,5.909079,1.671604501
296,158,5,-11.28917904,-11.941177,-1.247134,-10.18674777
297,158,6,0.798872251,-4.497349,2.953338,1.901303519
298,158,12,1.395593061,7.835934,6.918199,2.498024328
299,158,19,-5.540047029,-2.081989,-1.467949,-4.437615762
300,158,24,-4.88152892,-7.926816,2.0685,-3.779097653
301,158,25,8.3914945,-3.012586,7.802058,9.493925767
302,158,29,7.742645983,2.819277,6.038442,8.84507725
303,159,2,0.42837619,0.633293,6.260336,0.994397615
304,159,5,-11.80612182,-0.624212,-0.850054,-11.2401004
305,159,6,1.331292436,-2.359196,2.986214,1.89731386
306,159,12,1.60718414,7.821042,7.341918,2.173205564
307,159,19,-3.747100438,-8.386054,-1.523847,-3.181079014
308,159,24,-5.624771665,-2.309943,2.524978,-5.058750241
309,159,25,8.8505369,1.214595,7.996273,9.416558324
310,159,29,7.122089565,34.668945,6.225517,7.688110989
311,160,2,0.490105552,1.974683,6.480153,1.317928438
312,160,5,-11.8023214,-10.582612,-0.230988,-10.97449851
313,160,6,1.309560246,-1.914862,3.014158,2.137383132
314,160,12,1.859421978,-1.978344,7.554581,2.687244864
315,160,19,-3.843076921,16.525004,-1.335407,-3.015254034
316,160,24,-5.473600949,-2.759433,2.915541,-4.645778062
317,160,25,8.825822391,-1.900568,7.779799,9.653645278
318,160,29,7.1416534,-0.69158,5.994872,7.969476287
319,161,2,-0.774162522,-0.674155,6.509226,0.79107787
320,161,5,-11.82765945,-3.181848,0.154548,-10.26241906
321,161,6,0.349479655,0.649947,2.97879,1.914720047
322,161,12,0.790398022,8.381521,7.563278,2.355638414
323,161,19,-3.688497554,3.952201,-1.20244,-2.123257162
324,161,24,-5.80551434,-3.624939,3.111837,-4.240273948
325,161,25,5.998110487,6.500013,7.522142,7.563350879
326,161,29,5.814173721,4.009361,5.759773,7.379414114
327,162,2,-3.284080192,-2.859743,6.419557,0.688177531
328,162,5,-12.08202176,-0.180131,0.371585,-8.109764041
329,162,6,-1.922017741,-6.189413,2.962626,2.050239981
330,162,12,-2.316376195,3.333082,7.417224,1.655881527
331,162,19,-4.005634619,14.938017,-1.019886,-0.033376896
332,162,24,-6.633154509,-7.223043,3.102533,-2.660896786
333,162,25,0.963621435,0.106121,7.19762,4.935879157
334,162,29,1.434948195,18.242879,5.438674,5.407205917
335,163,2,-5.949803703,4.014925,6.244503,1.039308703
336,163,5,-13.1338833,-0.886695,0.226022,-6.144770891
337,163,6,-5.126010484,12.319264,3.175928,1.863101922
338,163,12,-4.779263885,15.472514,7.07808,2.209848521
339,163,19,-6.900674406,16.562928,-0.58143,0.088437999
340,163,24,-6.855572864,1.040951,2.584906,0.133539542
341,163,25,-2.801055205,4.994894,6.812884,4.188057201
342,163,29,-1.770285906,0.579123,4.890894,5.2188265
343,164,2,-0.003077819,2.766521,6.075457,1.431978189
344,164,5,-11.79853286,-0.502989,-0.141434,-10.36347685
345,164,6,1.065190869,-7.218943,3.296914,2.500246876
346,164,12,1.612484319,1.508068,6.824668,3.047540326
347,164,19,-4.135498349,30.486583,-0.428593,-2.700442342
348,164,24,-5.677385482,-6.91214,2.126695,-4.242329475
349,164,25,8.39474986,-2.288543,6.733151,9.829805867
350,164,29,6.850093237,7.06199,4.717868,8.285149244
351,165,2,0.774794774,4.75316,6.02174,1.694871902
352,165,5,-12.04261054,3.257972,-0.371927,-11.12253342
353,165,6,2.472783789,5.223798,3.299172,3.392860917
354,165,12,2.011387697,14.70392,6.777708,2.931464824
355,165,24,-5.773473071,4.857397,1.99224,-4.853395943
356,165,25,8.44728356,8.71807,6.847747,9.367360688
357,165,29,6.925193704,8.853287,4.830201,7.845270832
358,166,2,0.269363829,9.999227,6.064471,1.71868538
359,166,5,-11.90891408,-4.401477,-0.680289,-10.45959253
360,166,6,1.577971115,8.584137,3.328327,3.027292666
361,166,12,1.533773356,10.429319,6.86217,2.983094907
362,166,19,-4.169257883,8.409378,-0.674116,-2.719936332
363,166,24,-5.674521162,-1.078991,1.901489,-4.225199611
364,166,25,7.866438904,7.622307,7.1634,9.315760455
365,166,29,6.562301583,9.130833,5.130944,8.011623134
366,167,2,0.945258677,24.739451,6.137968,2.339248869
367,167,5,-11.94280715,6.156441,-1.007981,-10.54881696
368,167,6,1.961454424,1.2557,3.392145,3.355444616
369,167,12,2.267197018,15.290709,6.97402,3.661187211
370,167,19,-4.215233249,33.704407,-0.826032,-2.821243056
371,167,24,-5.728548364,8.411805,1.791802,-4.334558171
372,167,25,8.535474133,13.601679,7.510721,9.929464326
373,167,29,7.176016623,14.516034,5.440511,8.570006816
374,168,2,0.823952456,21.019368,6.171946,2.088161885
375,168,5,-11.9693982,2.0133,-1.209356,-10.70518878
376,168,6,2.254203707,-1.267217,3.384169,3.518413137
377,168,12,2.189023218,7.316323,7.051572,3.453232647
378,168,19,-3.71772718,12.162449,-0.987201,-2.453517751
379,168,24,-5.80871447,-0.860316,1.773976,-4.54450504
380,168,25,8.81875161,6.773209,7.755514,10.08296104
381,168,29,6.845850973,11.162554,5.695491,8.110060403
382,169,2,0.143110436,2.542694,6.269559,1.374249773
383,169,5,-11.87719788,0.452301,-1.419439,-10.64605854
384,169,6,1.596623489,3.276282,3.417257,2.827762826
385,169,12,1.750378755,4.935946,7.198007,2.981518092
386,169,19,-3.662972919,4.978215,-1.146197,-2.431833582
387,169,24,-5.559965642,-3.080939,1.767359,-4.328826306
388,169,25,8.379407134,2.091021,8.070365,9.610546471
389,169,29,6.815892422,1.417745,5.994845,8.047031759
390,170,2,-0.074720436,11.42402,6.197847,1.069570426
391,170,5,-11.9413687,-5.272587,-1.735906,-10.79707784
392,170,6,1.773277345,2.389093,3.391343,2.917568207
393,170,12,1.572367166,-1.326782,7.151125,2.716658028
394,170,19,-3.337761531,-5.133435,-1.301663,-2.193470669
395,170,24,-5.865567807,2.512729,1.623662,-4.721276945
396,170,25,8.30120955,3.285633,8.261003,9.445500412
397,170,29,6.668478619,0.429221,6.203953,7.812769481
398,171,2,0.523304772,4.747549,6.120389,1.630137647
399,171,5,-11.99513823,-5.076707,-2.083657,-10.88830535
400,171,6,2.1149507,5.040762,3.375218,3.221783575
401,171,12,2.162043588,5.888563,7.094914,3.268876463
402,171,19,-3.881499684,16.563731,-1.453289,-2.774666809
403,171,24,-5.689966388,-0.416623,1.451028,-4.583133513
404,171,25,8.802606274,6.113514,8.459523,9.909439149
405,171,29,7.173169445,-6.609564,6.414061,8.28000232
406,172,2,0.489432706,-2.121008,6.017498,1.569024863
407,172,5,-11.93399258,10.643232,-2.185514,-10.85440042
408,172,6,1.984156926,4.751357,3.305752,3.063749082
409,172,12,2.023353408,19.16112,6.999256,3.102945564
410,172,19,-3.813880055,4.78409,-1.528663,-2.734287899
411,172,24,-5.741171298,3.758914,1.39859,-4.661579141
412,172,25,8.834333402,14.906607,8.452998,9.913925558
413,172,29,7.085051113,3.231974,6.452956,8.16464327
414,173,2,0.238215138,21.207644,5.936657,1.629639866
415,173,5,-11.86544399,4.689838,-2.092291,-10.47401927
416,173,6,1.633756428,4.689362,3.211215,3.025181156
417,173,12,1.84180757,10.452314,6.92271,3.233232297
418,173,24,-5.742428298,3.833334,1.46407,-4.35100357
419,173,25,8.51912868,9.049272,8.335819,9.910553407
420,173,29,6.831134262,5.959402,6.397992,8.222558989
421,174,2,-0.213703478,-1.417238,5.930958,1.150863969
422,174,5,-11.90587032,-1.761139,-1.944,-10.54130287
423,174,6,1.420681604,4.008758,3.116322,2.785249051
424,174,12,1.411223112,13.009378,6.944965,2.775790558
425,174,24,-5.87835867,2.897946,1.627865,-4.513791223
426,174,25,8.15793694,12.244869,8.294838,9.522504387
427,174,29,6.652913487,12.380224,6.423089,8.017480934
428,175,2,0.526558351,6.522921,5.828785,1.621391335
429,175,5,-11.91626034,-3.646538,-1.94532,-10.82142735
430,175,6,2.037363875,-2.311788,3.112144,3.132196858
431,175,12,1.960012643,-3.357156,6.803085,3.054845627
432,175,19,-3.80660713,11.622464,-1.533349,-2.711774146
433,175,24,-5.79645689,-0.877098,1.521537,-4.701623906
434,175,25,8.813607687,0.908088,8.131069,9.908440671
435,175,29,6.818419936,-1.155802,6.256442,7.91325292
436,176,2,0.034654853,15.140217,5.690827,1.245717505
437,176,5,-11.69341698,5.966639,-1.956588,-10.48235433
438,176,6,0.439087549,11.386284,3.058353,1.650150201
439,176,12,1.509947817,16.545175,6.638299,2.721010468
440,176,19,-4.996411772,8.645445,-1.497297,-3.78534912
441,176,24,-5.281885335,0.04019,1.439395,-4.070822683
442,176,25,8.431740575,6.889687,7.969021,9.642803227
443,176,29,7.158018326,6.742424,6.125301,8.369080978
444,177,2,-1.603196098,4.543881,5.605063,1.213691466
445,177,5,-11.70558476,-8.056002,-1.892597,-8.888697198
446,177,6,-1.041835409,2.40498,2.640082,1.775052155
447,177,12,0.098224261,5.721785,6.729255,2.915111824
448,177,19,-5.129338046,-4.853653,-2.073175,-2.312450483
449,177,24,-5.350200639,5.239742,1.918464,-2.533313075
450,177,25,4.645214152,5.306989,8.211369,7.462101715
451,177,29,4.857986905,11.7547,6.662806,7.674874469
452,178,2,0.93063216,0.378645,5.324299,2.554961754
453,178,5,-11.50474863,-5.146581,-1.856641,-9.880419039
454,178,6,0.716862303,0.903449,2.308336,2.341191897
455,178,12,2.051994656,-1.198782,6.504217,3.67632425
456,178,19,-6.026944583,23.570765,-2.334509,-4.402614988
457,178,24,-5.021137112,-12.866769,2.065695,-3.396807518
458,178,25,8.854553325,-5.479275,8.063339,10.47888292
459,178,29,7.872091919,35.369502,6.73668,9.496421513
460,179,2,0.02040099,13.949056,5.095939,1.647005109
461,179,5,-11.33440248,-2.26957,-1.460609,-9.707798361
462,179,6,-0.315999498,3.524841,2.100125,1.310604621
463,179,12,1.43861965,9.503999,6.242064,3.065223768
464,179,24,-4.819891946,9.10185,2.218996,-3.193287827
465,179,25,8.868041135,15.508118,7.551715,10.49464525
466,179,29,7.716561291,6.39022,6.356012,9.34316541
467,180,2,0.38015444,0.717271,4.908934,1.928071351
468,180,5,-11.22600279,-0.389439,-0.759451,-9.678085881
469,180,6,0.183486224,-4.832433,1.879644,1.731403135
470,180,12,1.38477321,8.937394,6.006006,2.932690121
471,180,19,-6.440276135,22.994995,-2.021096,-4.892359224
472,180,24,-4.512669783,14.419476,2.528828,-2.964752872
473,180,25,7.95292191,1.121785,6.850514,9.500838821
474,180,29,7.378791069,11.714354,5.792488,8.926707981
475,181,2,-14.03445688,-2.085714,4.900172,0.074555558
476,181,5,-17.60028373,-10.094743,-0.051404,-3.49127129
477,181,6,-13.72885748,-1.031889,1.7508,0.380154962
478,181,12,-12.81516268,5.364403,5.971661,1.293849762
479,181,19,-15.44337414,11.219463,-1.821811,-1.334361701
480,181,24,-13.02572802,5.967053,2.910625,1.083284415
481,181,25,-11.78106586,-3.411798,6.342914,2.327946579
482,181,29,-12.13026178,10.566726,5.366603,1.978750662
483,182,2,-6.663462061,1.341596,5.350461,0.044601723
484,182,5,-11.80530661,-1.163509,0.557774,-5.097242823
485,182,6,-6.346805524,-1.317792,2.102512,0.36125826
486,182,12,-5.267593317,-3.541259,6.342063,1.440470466
487,182,24,-6.822193577,14.123315,3.1174,-0.114129794
488,182,25,-1.317154115,-5.467137,6.179213,5.390909668
489,182,29,-2.706499355,-2.549492,4.966738,4.001564428
490,183,2,-6.524589641,7.430253,4.967465,-0.957320283
491,183,5,-10.40576726,3.966171,0.524112,-4.838497903
492,183,6,-7.109583676,10.186767,2.125457,-1.542314318
493,183,12,-5.238694266,29.932858,5.795821,0.328575092
494,183,19,-9.841201365,19.621137,-0.935727,-4.273932007
495,183,24,-5.196917786,26.143544,2.665679,0.370351572
496,183,25,-0.824264923,9.784849,5.548877,4.743004435
497,183,29,-0.217243767,9.740062,4.298082,5.350025591
498,184,2,-4.212171921,1.511984,4.65772,-1.252177651
499,184,5,-9.449630145,-8.708251,0.717158,-6.489635875
500,184,6,-5.093486883,-7.286862,1.058314,-2.133492613
501,184,12,-3.055420339,2.685038,5.898939,-0.095426069
502,184,19,-10.40172344,29.860422,-2.299453,-7.44172917
503,184,24,-2.40719237,27.434107,3.803612,0.5528019
504,184,25,2.600085508,-3.435277,5.98984,5.560079778
505,184,29,3.744372638,7.683879,5.484808,6.704366908
506,185,2,-29.90226824,7.685182,4.279109,-1.155300968
507,185,5,-32.68730943,2.929599,0.565136,-3.940342161
508,185,6,-28.90892741,-0.910989,0.740411,-0.161960142
509,185,12,-27.73531702,28.700006,5.553674,1.011650252
510,185,19,-30.15068488,22.657223,-2.551136,-1.403717616
511,185,24,-26.94219437,14.456258,3.769893,1.804772893
512,185,25,-26.6373032,7.738547,5.831794,2.109664065
513,185,29,-27.64477323,13.617747,5.535307,1.102194036
514,186,2,-1.584391526,10.621551,4.221428,-0.55897215
515,186,5,-9.07445634,8.10773,0.779373,-8.049036964
516,186,6,-3.622940922,4.977228,0.70276,-2.597521546
517,186,12,0.090675327,24.80184,5.465675,1.116094703
518,186,19,-11.08636665,4.343437,-2.435807,-10.06094728
519,186,24,-0.842939383,18.890461,3.824205,0.182479993
520,186,25,7.863292365,26.710308,5.58599,8.888711741
521,186,29,9.824334764,3.700668,5.309524,10.84975414
522,187,2,-16.89109292,-16.185765,4.318396,-0.564994491
523,187,5,-20.5886953,-11.922339,0.82392,-4.262596875
524,187,6,-16.15591949,-15.540304,0.816709,0.170178933
525,187,12,-15.01341717,7.628112,5.536436,1.312681256
526,187,24,-14.2414919,8.015005,3.789994,2.084606531
527,187,25,-13.21504143,8.815637,5.588064,3.111057
528,187,29,-14.75508357,18.401953,5.234085,1.571014857
529,188,2,-15.998207,13.788609,4.724803,-1.841541526
530,188,5,-19.27882234,1.416558,0.987298,-5.122156858
531,188,6,-15.25147913,4.538342,0.955338,-1.094813653
532,188,12,-14.15198964,30.376299,6.014309,0.004675833
533,188,19,-16.70294731,35.511468,-2.380595,-2.546281836
534,188,24,-13.41562205,12.051645,4.09077,0.741043428
535,188,25,-12.33081661,10.307225,5.973276,1.825848866
536,188,29,-12.88124639,23.448467,5.539749,1.275419084
537,189,2,-0.642831441,1.468892,5.392725,1.007543137
538,189,5,-10.92479469,-7.74922,1.159157,-9.274420117
539,189,6,-1.367430257,-5.36661,1.229194,0.282944321
540,189,12,0.994844024,6.773238,6.787421,2.645218602
541,189,24,-4.12854461,9.283822,4.494391,-2.478170032
542,189,25,8.664831633,3.847234,6.643302,10.31520621
543,189,29,7.9303456,26.258516,6.047715,9.580720178
544,190,2,-2.882825296,-1.846674,5.239091,0.222701505
545,190,5,-11.00878662,-8.856511,0.032731,-7.90325982
546,190,6,-3.169577846,-3.858234,1.174113,-0.064051045
547,190,12,-1.284707317,7.531664,6.74123,1.820819484
548,190,19,-7.810388346,18.127773,-3.057859,-4.704861545
549,190,24,-4.280445822,15.159025,4.046376,-1.174919022
550,190,25,4.295013387,0.619507,7.446919,7.400540187
551,190,29,4.260875838,6.799835,6.899301,7.366402639
552,191,2,-1.790317177,6.062536,3.88093,0.485211377
553,191,5,-10.74468393,14.827109,-2.279089,-8.469155374
554,191,6,-2.491522136,-0.987799,0.16656,-0.215993581
555,191,12,-0.232882111,15.069912,5.651869,2.042646444
556,191,19,-8.543640518,25.153444,-4.751778,-6.268111963
557,191,24,-3.950983187,4.215407,3.197564,-1.675454632
558,191,25,6.315004395,11.627071,8.30464,8.59053295
559,191,29,6.535123212,2.115526,8.439712,8.810651766
560,192,2,-6.228033126,7.324286,3.10354,-1.080048513
561,192,5,-10.03644493,2.13942,-2.701107,-4.88846032
562,192,6,-6.747996151,1.28945,-0.640127,-1.600011538
563,192,12,-4.818381651,12.757553,5.037172,0.329602962
564,192,19,-9.616029775,53.603017,-5.586898,-4.468045162
565,192,24,-5.00505414,4.889591,3.299267,0.142930473
566,192,25,-0.266584851,-7.904729,8.238278,4.881399762
567,192,29,0.120721854,3.388291,8.914952,5.268706468
568,193,2,-0.750209871,-20.411932,2.385688,0.767523554
569,193,5,-10.34669754,-7.102225,-2.666725,-8.828964119
570,193,6,-2.073980533,-14.490237,-1.255375,-0.556247108
571,193,12,0.920154304,-7.052803,4.348349,2.437887729
572,193,24,-3.184619178,19.550564,3.356122,-1.666885753
573,193,25,9.436620493,-25.676661,7.663441,10.95435392
574,193,29,8.938305561,-18.858115,8.740451,10.45603899
575,194,2,-0.04860472,-10.094838,3.215822,1.673200645
576,194,5,-10.63844804,-2.134027,-2.144567,-8.916642671
577,194,6,-1.207985153,-14.57881,-0.542583,0.513820212
578,194,12,1.549802908,-0.701625,5.073637,3.271608273
579,194,19,-8.708059711,11.888766,-5.214467,-6.986254346
580,194,24,-3.855926732,20.995807,3.463036,-2.134121367
581,194,25,9.496345664,5.729454,7.828573,11.21815103
582,194,29,8.934632464,-10.962564,8.43235,10.65643783
583,195,2,-5.744506203,-5.851009,3.868296,-1.642479133
584,195,5,-12.17191636,-1.056712,-0.041332,-8.069889291
585,195,6,-5.068746902,-10.413327,-0.034147,-0.966719831
586,195,12,-4.389664261,-2.116173,5.461781,-0.287637191
587,195,24,-6.47586351,-15.678611,4.150059,-2.373836439
588,195,25,2.503051044,12.268064,6.51162,6.605078115
589,195,29,1.3687274,50.203782,6.752515,5.470754471
590,196,2,-8.805143106,-13.852223,5.278172,-1.82679099
591,196,5,-12.34144677,17.369022,4.09072,-5.363094656
592,196,6,-7.86566296,-20.482236,1.028087,-0.887310844
593,196,12,-7.583682701,-14.688769,6.372355,-0.605330585
594,196,19,-11.95239539,-5.533862,-1.012565,-4.974043273
595,196,24,-8.304637504,-21.552868,5.554076,-1.326285388
596,196,25,-2.438291826,-14.796901,4.071281,4.54006029
597,196,29,-4.231066793,61.485207,3.560195,2.747285323
598,197,2,0.126389234,-0.682844,5.885634,2.4199461
599,197,5,-10.22031278,6.97197,4.915223,-7.926755913
600,197,6,-1.663526335,-16.451424,1.553159,0.63003053
601,197,12,1.098618684,-5.546322,6.847999,3.39217555
602,197,19,-8.911095778,1.993025,-0.251228,-6.617538912
603,197,24,-3.099672695,20.227612,5.767131,-0.806115829
604,197,29,8.27084927,-7.620624,2.929195,10.56440614
605,198,2,-0.54821246,-7.403305,5.382873,1.45858494
606,198,5,-10.31231458,-11.289094,-0.442134,-8.305517183
607,198,6,-1.896187934,5.962893,1.294353,0.110609466
608,198,12,0.486171532,9.104968,6.93801,2.492968932
609,198,19,-8.86131409,15.704144,-3.270547,-6.85451669
610,198,24,-2.959838107,76.092399,3.877031,-0.953040708
611,198,25,7.847270889,4.222462,7.986137,9.854068289
612,198,29,7.504898089,0.167523,7.364736,9.511695489
613,199,2,-2.036085745,31.854325,6.189283,0.566015744
614,199,5,-10.88699399,10.553826,-0.11679,-8.284892499
615,199,6,-2.933702281,11.562227,1.441319,-0.331600792
616,199,12,-0.37528325,30.301083,7.953992,2.226818239
617,199,24,-3.773936087,16.100505,4.641754,-1.171834598
618,199,25,6.428693306,2.40383,8.885788,9.030794796
619,199,29,6.272901929,30.673764,8.197779,8.875003418
620,200,2,-13.43622743,-21.740651,6.246871,-0.874564464
621,200,5,-15.10774535,-16.072715,0.00119,-2.546082379
622,200,6,-13.97255643,-12.936185,1.368862,-1.410893458
623,200,12,-12.14055144,-0.926131,8.058777,0.421111535
624,200,24,-11.5586769,-11.331961,4.833954,1.002986068
625,200,25,-8.294703903,15.172482,8.954561,4.266959068
626,200,29,-10.48892995,48.743645,8.319067,2.07273302
627,201,2,-15.32554261,-19.917389,4.238021,-0.81173059
628,201,5,-17.86985097,-15.989539,-1.261668,-3.356038953
629,201,6,-15.71308708,-19.69526,0.350352,-1.199275061
630,201,12,-14.03230244,3.193311,5.927837,0.481509574
631,201,19,-17.42734666,48.662747,-4.209367,-2.913534642
632,201,24,-12.58839084,-0.803106,3.641005,1.925421178
633,201,25,-10.47034104,13.219791,7.806026,4.043470981
634,201,29,-12.89814071,21.238953,7.810453,1.615671304
635,202,2,-0.905369419,-13.301122,2.116419,0.315993031
636,202,5,-9.768377336,-19.105014,-3.718235,-8.547014887
637,202,6,-3.046462944,-8.94874,-0.489111,-1.825100495
638,202,12,0.697713768,-9.860562,3.688986,1.919076217
639,202,24,-1.895971143,-1.146225,1.714495,-0.674608693
640,202,25,9.432217738,-3.331644,7.337312,10.65358019
641,202,29,9.660425795,10.283212,7.8688,10.88178824
642,203,2,-12.44511061,1.315309,2.683674,0.320297802
643,203,5,-15.62840462,2.531668,-4.04335,-2.862996205
644,203,6,-11.85325426,-13.165358,0.06252,0.912154156
645,203,12,-11.65830243,-9.371581,4.233426,1.107105978
646,203,19,-14.7233841,-9.499342,-4.792324,-1.957975688
647,203,24,-10.9853869,4.892694,1.484814,1.78002151
648,203,25,-9.608526348,30.284422,7.986715,3.156882064
649,203,29,-11.24431451,0.814465,8.16055,1.521093904
650,204,2,-1.146307923,3.418879,3.702491,0.861026667
651,204,5,-9.952221345,-8.907564,-3.158546,-7.944886755
652,204,6,-2.699122456,-6.437101,0.527231,-0.691787866
653,204,12,0.081019426,10.350382,5.311338,2.088354016
654,204,19,-9.737867032,5.257626,-4.49164,-7.730532442
655,204,24,-2.363538543,14.33706,2.232654,-0.356203954
656,204,25,7.465673054,-12.574237,8.408514,9.473007644
657,204,29,7.772738287,26.085554,8.290128,9.780072877
658,205,2,-1.713204066,9.761626,4.070981,0.588816054
659,205,5,-10.17971104,9.607708,-2.839281,-7.877690916
660,205,6,-3.543359933,-1.749007,0.598781,-1.241339812
661,205,12,-0.170449267,11.511367,5.752118,2.131570854
662,205,19,-10.50610543,2.091664,-4.543741,-8.204085307
663,205,24,-2.58849171,5.237763,2.629045,-0.286471589
664,205,25,8.1800171,25.362612,8.664083,10.48203722
665,205,29,8.444016244,9.868325,8.508994,10.74603636
666,206,2,-2.222426272,5.324161,3.431519,0.827021953
667,206,5,-10.79120351,1.36823,-3.114607,-7.741755288
668,206,6,-3.185337486,-9.610727,0.231007,-0.135889262
669,206,12,-0.594637294,2.454615,5.080609,2.45481093
670,206,19,-9.220069195,12.603289,-4.69869,-6.170620971
671,206,24,-3.691636819,4.306855,2.346592,-0.642188595
672,206,25,6.601977761,47.851411,8.23164,9.651425986
673,206,29,5.827869245,7.008366,8.309734,8.877317469
674,207,2,-2.180537456,-6.544539,3.498336,0.713711943
675,207,5,-10.7292483,-23.278076,-2.905371,-7.834998905
676,207,6,-3.456173531,-5.966257,0.426041,-0.561924132
677,207,12,-0.599354217,2.355921,5.045236,2.294895182
678,207,19,-9.835379349,6.09662,-4.319496,-6.94112995
679,207,24,-3.171589193,14.303144,2.225174,-0.277339793
680,207,25,7.021146009,1.415932,7.951458,9.915395408
681,207,29,6.68033999,-9.91385,7.890009,9.574589389
682,208,2,-0.380204158,9.913581,3.088331,2.156276455
683,208,5,-10.1887572,-9.509155,-4.635416,-7.652276593
684,208,6,-2.601632076,-9.293721,0.344187,-0.065151463
685,208,12,0.97068719,4.778017,4.720582,3.507167802
686,208,19,-9.973082457,9.807947,-5.055806,-7.436601845
687,208,25,8.6466784,27.555721,8.886432,11.18315901
688,208,29,8.352144157,8.258966,8.893211,10.88862477
689,209,2,-3.597951023,2.365754,2.388245,0.195476909
690,209,5,-10.83246181,-0.843265,-5.313822,-7.039033881
691,209,6,-4.179894994,-3.925069,-0.146824,-0.386467063
692,209,12,-2.170879039,10.681253,4.077331,1.622548892
693,209,19,-9.596688838,4.15491,-5.588646,-5.803260907
694,209,24,-3.492616671,0.914279,1.035253,0.30081126
695,209,25,4.675063607,38.128956,8.839411,8.468491539
696,209,29,4.126156151,6.081592,9.172178,7.919584082
697,210,2,-2.60808533,4.109673,2.084108,0.023320103
698,210,5,-10.07009946,-3.648414,-5.341714,-7.438694026
699,210,6,-2.799621107,6.588392,-0.303897,-0.168215674
700,210,12,-1.418777355,9.928302,3.735225,1.212628079
701,210,19,-9.125241362,-0.097917,-5.573859,-6.493835929
702,210,25,6.180615784,27.530851,8.522978,8.812021217
703,210,29,5.694789369,4.347511,8.952556,8.326194802
704,211,2,-0.444364091,16.724916,2.123739,1.845430524
705,211,5,-10.23605145,13.863504,-4.960902,-7.946256838
706,211,6,-2.643207431,18.089565,-0.484049,-0.353412816
707,211,12,1.11172153,21.559522,3.839657,3.401516145
708,211,19,-10.03812031,2.123433,-5.692514,-7.748325698
709,211,24,-2.491876355,-24.039065,1.308979,-0.20208174
710,211,25,8.929470726,-0.702063,8.442336,11.21926534
711,211,29,8.7445853,7.516982,8.996042,11.03437992
712,212,2,-0.447347709,3.267746,2.3683,2.397479981
713,212,5,-10.20536442,-25.480234,-5.220218,-7.360536729
714,212,6,-2.662158299,-3.343065,-0.445841,0.182669391
715,212,12,1.076977547,7.366209,4.193453,3.921805237
716,212,19,-10.05594737,8.064176,-6.013458,-7.211119684
717,212,24,-2.475764297,-2.027754,1.4336,0.369063393
718,212,25,8.85616119,-16.979147,9.03872,11.70098888
719,212,29,8.337526492,4.663255,9.583616,11.18235418
720,213,2,-1.174141188,6.2879,3.054717,1.316266071
721,213,5,-10.76478006,-5.640843,-5.821775,-8.274372807
722,213,6,-2.788600126,-1.318248,0.216986,-0.298192868
723,213,12,0.366608321,10.176181,4.878059,2.857015579
724,213,19,-9.777090679,-7.69889,-5.919152,-7.286683421
725,213,29,8.064256365,16.322805,10.133788,10.55466362
726,214,2,-1.007316774,-9.431292,3.19132,1.052524151
727,214,5,-10.49359767,-5.166874,-5.983509,-8.433756742
728,214,6,-2.960462541,8.390303,0.512026,-0.900621617
729,214,12,0.515816536,6.839363,4.931696,2.57565746
730,214,19,-10.15090072,2.23033,-5.654449,-8.091059793
731,214,24,-2.875464621,-6.433573,0.795654,-0.815623696
732,214,25,9.45348263,62.826635,10.071545,11.51332355
733,214,29,8.595873145,-15.138265,9.992267,10.65571407
734,215,2,-2.137877631,-1.253373,2.996651,0.609494904
735,215,5,-10.9512029,-11.363279,-5.881371,-8.203830366
736,215,6,-3.624762491,-3.593614,0.350873,-0.877389956
737,215,12,-0.559141316,3.426593,4.730008,2.188231219
738,215,19,-9.97482927,8.717694,-5.676817,-7.227456734
739,215,24,-3.51194278,-9.079004,0.832884,-0.764570245
740,215,25,7.571777208,30.248896,9.82679,10.31914974
741,215,29,7.224898421,9.648963,9.850734,9.972270956
742,216,2,-0.644605199,-2.307946,2.849694,2.036868826
743,216,5,-10.49881104,-6.76708,-5.835739,-7.817337011
744,216,6,-2.772992997,-3.531473,0.189059,-0.091518972
745,216,12,0.897261233,7.897531,4.602576,3.578735258
746,216,19,-10.29233115,0.231417,-5.778548,-7.610857128
747,216,24,-3.011718309,-3.170864,0.90355,-0.330244284
748,216,25,9.285559372,14.389904,9.712267,11.9670334
749,216,29,8.555552447,6.859851,9.843519,11.23702647
750,217,2,-1.361084364,4.887466,2.831174,1.1546175
751,217,5,-10.45169714,-4.837431,-5.852337,-7.935995273
752,217,6,-3.396960384,3.646228,0.227389,-0.88125852
753,217,12,0.190330338,22.442083,4.556929,2.706032202
754,217,19,-10.42240518,9.251383,-5.707349,-7.906703321
755,217,24,-2.699154051,13.727642,0.82646,-0.183452187
756,217,25,8.977701084,-9.771959,9.65506,11.49340295
757,217,29,8.41273164,8.153171,9.758864,10.9284335
758,218,2,-0.525217109,-3.528418,2.922068,2.401265161
759,218,5,-10.75569963,-0.455947,-5.686656,-7.829217359
760,218,6,-2.506667681,-3.890676,0.351647,0.419814589
761,218,12,0.901001716,5.154783,4.597857,3.827483986
762,218,19,-9.978056221,6.192543,-5.493828,-7.051573951
763,218,24,-3.796301489,1.170702,0.809943,-0.869819219
764,218,25,9.091146208,10.968761,9.528258,12.01762848
765,218,29,8.405284152,-3.499089,9.54552,11.33176642
766,219,2,-2.113794855,2.611192,3.240749,0.295542364
767,219,5,-11.07781194,-8.72129,-5.021432,-8.668474724
768,219,6,-3.504206543,-1.288665,1.168204,-1.094869324
769,219,12,-0.523503807,5.439321,4.532165,1.885833412
770,219,19,-9.756972605,2.650917,-4.063195,-7.347635386
771,219,24,-3.382529616,4.913425,0.281311,-0.973192398
772,219,25,7.634184945,18.009713,8.606918,10.04352216
773,219,29,7.241456131,2.67058,8.045968,9.65079335
774,220,2,-1.545642677,-12.532035,3.180715,0.51790514
775,220,5,-10.25623543,-14.778324,-4.695379,-8.192687615
776,220,6,-3.709952546,-14.534906,1.17708,-1.646404729
777,220,12,0.006738643,-11.076201,4.403298,2.070286459
778,220,19,-10.72373761,-1.987585,-3.803798,-8.660189796
779,220,24,-2.134233585,-8.911188,0.308698,-0.070685768
780,220,25,8.821657803,5.621539,8.208955,10.88520562
781,220,29,8.572206537,8.657921,7.632458,10.63575435
782,221,2,-0.999002955,4.318662,2.760069,1.522136437
783,221,5,-10.5827951,-8.818365,-4.934502,-8.061655709
784,221,6,-3.056331028,-3.0468,0.365741,-0.535191635
785,221,12,0.484348463,2.909075,4.270097,3.005487855
786,221,19,-10.24065535,-8.518077,-4.883874,-7.719515955
787,221,24,-3.387298368,4.008381,0.855561,-0.866158975
788,221,25,9.376016309,25.804528,8.577398,11.8971557
789,221,29,8.533694316,3.854441,8.56242,11.05483371
790,222,2,-6.407401172,1.00115,2.726427,-0.874575641
791,222,5,-11.65292896,-3.007442,-4.716911,-6.120103426
792,222,6,-6.136403701,8.978657,0.318803,-0.60357817
793,222,12,-5.092608791,2.719014,4.22104,0.44021674
794,222,19,-10.54523338,-16.961685,-4.804737,-5.012407848
795,222,24,-6.975769896,-1.672343,0.949893,-1.442944365
796,223,2,-7.28046891,19.411887,3.142895,-0.50690432
797,223,5,-12.51920545,3.546825,-4.190829,-5.745640863
798,223,6,-6.991740113,6.193515,0.522459,-0.218175524
799,223,12,-6.046321154,23.727673,4.635595,0.727243435
800,223,19,-11.22239317,11.748707,-4.564629,-4.448828581
801,223,24,-7.861147049,10.516858,1.287724,-1.08758246
802,223,25,0.215217985,28.929671,8.392935,6.988782575
803,223,29,-1.780924418,-8.596864,8.271924,4.992640172
804,224,2,-0.862422423,37.427721,3.836753,2.082767945
805,224,5,-10.24701589,5.370458,-3.3634,-7.301825518
806,224,6,-3.306564145,15.256365,1.056855,-0.361373777
807,224,12,0.690646218,18.876953,5.229188,3.635836586
808,224,19,-10.41952919,17.112476,-3.868795,-7.474338823
809,224,24,-2.597556122,11.653113,1.578751,0.347634245
810,224,29,8.117524,-0.182734,7.771866,11.06271437
811,225,2,-7.38375532,-12.301133,4.604395,-0.575556068
812,225,5,-12.22349315,-27.989294,-2.160761,-5.415293897
813,225,6,-7.050547572,-11.708296,1.631712,-0.24234832
814,225,12,-6.149484721,3.612559,5.86131,0.658714531
815,225,19,-11.2457132,-14.590581,-2.960612,-4.437513944
816,225,24,-8.176983721,-10.131412,2.014193,-1.368784468
817,225,25,0.2670074,10.014216,7.864748,7.075206652
818,225,29,-1.767605325,30.904748,6.988152,5.040593927
819,226,2,-26.19294208,21.274236,4.990792,-1.045046753
820,226,5,-28.04065505,8.778575,-0.633287,-2.892759719
821,226,6,-24.56270249,14.249179,1.933398,0.585192834
822,226,12,-24.07796652,19.314264,6.064958,1.069928813
823,226,19,-27.0138131,6.380604,-1.952115,-1.865917769
824,226,24,-25.17436862,-0.830535,2.511445,-0.02647329
825,226,25,-23.92983412,35.634637,6.842114,1.218061212
826,226,29,-25.38265541,7.025862,5.738635,-0.234760086
827,227,2,-8.268635658,-2.781388,7.428804,0.373336567
828,227,5,-13.46294535,-2.859431,2.599269,-4.820973125
829,227,6,-7.415153752,-11.495897,3.957414,1.226818473
830,227,12,-7.5065007,14.37697,8.039095,1.135471525
831,227,19,-11.51692978,7.268272,0.924641,-2.874957554
832,227,24,-9.842531769,3.068156,3.448552,-1.200559544
833,227,25,-2.364881923,9.301503,5.915317,6.277090302
834,227,29,-5.983874564,4.560942,3.428785,2.658097661
835,228,2,-17.30672551,-12.439202,7.386781,0.510455289
836,228,5,-17.58581493,-9.573383,2.061854,0.231365865
837,228,6,-19.08488351,-4.243153,4.569344,-1.267702711
838,228,12,-16.39814104,4.798801,7.717165,1.419039756
839,228,19,-20.32161564,12.439192,1.67029,-2.504434845
840,228,24,-15.23513307,-5.991577,2.424445,2.582047723
841,228,25,-13.53405099,-0.792444,5.672021,4.283129802
842,228,29,-15.72392512,-2.526854,2.758633,2.093255677
843,229,2,-29.53703582,1.411579,5.501151,-1.135650805
844,229,5,-31.10069545,13.478477,1.452633,-2.699310441
845,229,6,-28.60720158,-0.502986,4.442094,-0.205816572
846,229,12,-28.31262717,7.442545,5.203636,0.088757841
847,229,19,-30.29784091,-4.574892,2.919689,-1.8964559
848,229,24,-28.43033961,4.850564,0.409281,-0.0289546
849,229,25,-28.52107774,17.599033,3.196592,-0.11969273
850,229,29,-28.66560474,-10.334009,0.288918,-0.264219724
851,230,2,-8.054212913,29.783028,6.880362,-1.115992064
852,230,5,-11.38020378,12.249258,3.241528,-4.441982931
853,230,6,-8.106060723,20.421462,4.629243,-1.167839874
854,230,12,-7.224323418,26.168446,6.836049,-0.286102569
855,230,19,-11.86202768,26.766089,2.935561,-4.923806834
856,230,24,-7.78355217,14.665801,2.187084,-0.845331321
857,230,25,-1.607948873,14.202652,3.724277,5.330271977
858,230,29,-2.633400361,-7.712593,0.715618,4.304820489
859,231,2,-5.344058793,-9.26252,10.548978,-1.116418263
860,231,5,-10.36626168,-14.608447,3.872087,-6.138621149
861,231,6,-6.153865334,-6.944782,3.711453,-1.926224804
862,231,12,-3.963614691,3.384264,12.412297,0.264025839
863,231,19,-9.756033154,-7.912666,-1.748578,-5.528392624
864,231,24,-4.67164558,-12.852687,7.456859,-0.44400505
865,231,25,2.160595632,8.279199,10.269732,6.388236162
866,231,29,2.057869847,21.342577,8.08823,6.285510376
867,232,2,-17.248607,6.887783,10.399898,-0.137431899
868,232,5,-18.13174194,-1.166716,3.758183,-1.020566838
869,232,6,-18.32069439,1.680027,3.339519,-1.209519293
870,232,12,-15.98276545,4.986316,12.41452,1.128409654
871,232,19,-19.73640929,3.572308,-2.288089,-2.625234195
872,232,24,-15.24608324,1.920991,7.750365,1.865091854
873,232,25,-12.78176321,-2.07706,10.517382,4.329411885
874,232,29,-14.88517481,5.330569,8.593943,2.226000293
875,233,2,-4.156358101,-2.74227,10.127776,-0.901381364
876,233,5,-9.438057417,-4.376626,4.029613,-6.183080679
877,233,6,-5.440405769,3.95438,3.157015,-2.185429032
878,233,12,-3.059900858,-4.37617,12.098248,0.19507588
879,233,19,-11.08863583,-10.669827,-2.173007,-7.833659092
880,233,24,-2.473159501,-2.552311,7.788818,0.781817237
881,233,25,3.950039789,21.102989,10.018872,7.205016526
882,233,29,4.622475703,-3.061976,8.203956,7.87745244
883,234,2,-2.769208831,2.979994,9.816646,-0.025156024
884,234,5,-9.839815948,-2.349966,4.14317,-7.095763141
885,234,6,-4.85920802,-3.009032,3.192882,-2.115155213
886,234,12,-1.286672525,11.943803,11.629075,1.457380282
887,234,19,-11.37867548,5.468421,-1.749192,-8.634622676
888,234,24,-2.10199734,7.116601,7.448336,0.642055466
889,234,25,6.203618962,19.277439,9.362834,8.947671769
890,234,29,7.526208036,5.395376,7.50268,10.27026084
891,235,2,-13.82854228,10.735377,9.74605,-1.995552967
892,235,5,-13.18154051,3.878891,4.338688,-1.348551193
893,235,6,-15.14551203,-9.207777,3.219707,-3.31252271
894,235,12,-13.05192944,8.879408,11.493665,-1.218940121
895,235,19,-14.95775489,1.421484,-1.52423,-3.12476557
896,235,24,-11.1844986,4.378974,7.399133,0.648490713
897,235,25,-9.406631411,53.488345,9.045972,2.426357906
898,235,29,-9.146577385,7.205969,7.157481,2.686411932
899,236,2,-57.91912046,5.02713,9.792229,-0.067191078
900,236,5,-56.93971268,6.134098,4.5598,0.912216703
901,236,6,-58.86942489,2.842063,3.319674,-1.017495507
902,236,12,-55.99990175,3.246548,11.480658,1.852027633
903,236,19,-59.12673947,-16.906531,-1.275389,-1.274810093
904,236,24,-55.30829616,7.415062,7.384688,2.543633221
905,236,25,-57.48338393,36.747632,8.82415,0.368545447
906,236,29,-55.97746124,12.499973,6.860686,1.874468139
907,237,2,-93.69907203,30.490139,9.411181,-0.600306267
908,237,5,-94.04566981,29.945385,4.106724,-0.946904045
909,237,6,-94.37644097,18.129626,3.184042,-1.277675207
910,237,12,-92.6628329,32.496706,11.069695,0.435932863
911,237,19,-94.23143462,-17.732151,-1.395553,-1.132668851
912,237,24,-91.08860106,34.757666,7.01483,2.01016471
913,237,29,-92.10505329,16.997674,6.854836,0.993712473
914,238,2,-65.53834337,44.681623,8.445765,1.447953334
915,238,5,-65.9598296,34.33149,3.026952,1.026467105
916,238,6,-66.67453714,29.086883,2.976599,0.311759559
917,238,12,-68.11421301,43.92173,9.946552,-1.12791631
918,238,19,-66.45633904,-5.255344,-1.434737,0.529957658
919,238,24,-67.05184957,42.793967,5.924426,-0.065552866
920,238,29,-69.13249671,3.020803,6.536276,-2.146200012
921,239,2,-44.26194339,22.323601,7.231015,-3.287093585
922,239,5,-44.99676326,26.776938,1.796941,-4.021913449
923,239,6,-41.25277974,35.876502,2.870864,-0.277929936
924,239,12,-43.10997857,31.929261,8.435119,-2.135128759
925,239,19,-43.16195752,-32.292773,-1.152351,-2.187107717
926,239,24,-41.25944651,32.924088,4.390476,-0.284596699
927,239,29,-40.54709934,5.305034,5.743949,0.427750467
928,240,2,-86.7533194,34.136063,6.470376,-0.110748024
929,240,5,-87.9132173,34.2725,0.969223,-1.27064592
930,240,6,-87.17788108,19.612033,2.659379,-0.535309696
931,240,12,-86.07514496,48.706535,7.572515,0.56742642
932,240,19,-87.9572668,-12.801236,-1.249815,-1.314695419
933,240,24,-84.57746292,45.294207,3.602163,2.065108466
934,240,29,-85.6128485,16.338036,5.557173,1.029722883
935,241,2,-92.30636135,21.088385,6.548015,-0.133737154
936,241,5,-92.19135867,14.574579,0.917978,-0.018734472
937,241,6,-93.48422057,36.399675,2.589405,-1.311596376
938,241,12,-91.51552334,28.609319,7.724932,0.657100849
939,241,19,-92.4096075,-21.952795,-1.470328,-0.236983305
940,241,24,-90.53832858,20.873853,3.757319,1.634295609
941,241,29,-91.30175383,16.963131,5.861523,0.870870361
942,242,2,-74.73570919,19.190341,6.583006,-0.241969704
943,242,5,-75.13373581,17.147141,0.950833,-0.63999632
944,242,6,-74.64014552,26.255248,2.546033,-0.146406032
945,242,12,-74.12976203,27.400999,7.793594,0.363977459
946,242,19,-75.68830949,5.857646,-1.557185,-1.194570003
947,242,24,-73.24388402,25.634801,3.859774,1.249855468
948,242,25,-74.40826098,47.343896,7.468073,0.085478513
949,242,29,-73.90602693,-19.787802,5.969308,0.587712556
950,243,2,-66.83568477,24.074894,6.460368,2.391364596
951,243,5,-67.41805445,10.697248,0.841427,1.808994909
952,243,6,-68.81713856,16.93779,2.477974,0.4099108
953,243,12,-69.19161689,22.478999,7.669842,0.035432477
954,243,19,-67.77901501,-22.401411,-1.615573,1.448034355
955,243,24,-68.45445558,13.276994,3.783591,0.772593784
956,243,25,-71.72977057,75.243905,7.432489,-2.502721205
957,243,29,-70.38722935,-8.605376,5.977921,-1.160179985
958,244,2,-67.58672023,-8.270435,6.436699,2.696777088
959,244,5,-67.80455236,-8.337793,0.805469,2.478944956
960,244,6,-69.39834745,15.406933,2.473373,0.885149869
961,244,12,-69.60374459,-9.193961,7.643081,0.679752731
962,244,19,-68.28764903,-42.550857,-1.621466,1.995848285
963,244,24,-69.46790572,-4.493313,3.751375,0.815591598
964,244,29,-71.37017732,-10.620646,5.978221,-1.086680006
965,245,2,-64.84420306,-4.782489,6.397314,2.867005042
966,245,5,-65.17886546,-7.375995,0.74656,2.532342643
967,245,6,-66.14338995,21.837751,2.459965,1.567818158
968,245,12,-67.16900497,-11.987684,7.601493,0.54220313
969,245,19,-65.92018163,-22.614762,-1.640114,1.791026469
970,245,24,-67.21142713,-3.453392,3.70688,0.499780975
971,245,25,-70.33179436,33.361081,7.431483,-2.620586261
972,245,29,-69.05169459,-35.829947,5.987791,-1.340486486
973,246,2,-73.6132207,-12.150517,6.368492,1.032193963
974,246,5,-75.37683191,-4.634639,0.693042,-0.731417247
975,246,6,-75.00907678,27.945965,2.45438,-0.363662115
976,246,12,-73.82353755,-9.748865,7.569953,0.821877117
977,246,19,-74.95444816,-23.9389,-1.652836,-0.309033495
978,246,24,-74.40065838,-5.117307,3.664907,0.24475629
979,246,25,-74.71669215,72.124229,7.437195,-0.071277487
980,246,29,-72.81001794,-29.246947,5.996825,1.835396725
981,247,2,-53.40315751,12.945423,6.362076,3.342980093
982,247,5,-55.02558524,9.355137,0.663931,1.720552369
983,247,6,-54.25261282,6.291754,2.460708,2.493524789
984,247,12,-56.1214967,15.312662,7.560799,0.624640907
985,247,19,-54.9450704,3.660052,-1.653254,1.801067204
986,247,24,-56.52479493,3.839854,3.638609,0.221342677
987,247,25,-59.19569707,32.115831,7.446247,-2.449559466
988,247,29,-58.40923866,3.25846,6.001298,-1.663101058
989,248,2,-29.33464793,-27.702696,6.372284,-1.580035803
990,248,5,-31.31422342,-22.85262,0.662221,-3.559611291
991,248,6,-28.90869917,13.345437,2.469766,-1.154087047
992,248,12,-27.80925105,-0.180409,7.570482,-0.05463892
993,248,19,-29.72609214,-5.607253,-1.649303,-1.971480014
994,248,24,-28.6510878,-14.797307,3.634966,-0.896475676
995,248,29,-26.12076354,-19.736046,6.004804,1.633848592
996,249,2,-103.2292926,-9.422596,6.390652,0.186648862
997,249,5,-104.2859133,-4.789286,0.670943,-0.869971787
998,249,6,-104.0261201,2.615841,2.480113,-0.610178576
999,249,12,-102.5049,12.009642,7.589784,0.9110415
1000,249,19,-104.5182929,-4.446215,-1.645035,-1.10235145
1001,249,24,-102.2907428,7.272763,3.64153,1.12519865
1002,249,29,-102.9559074,-3.228257,6.010657,0.460034035
1003,250,2,-99.55810921,24.228719,6.411974,0.09153033
1004,250,5,-100.7731156,4.448469,0.67665,-1.1234761
1005,250,6,-99.90250221,8.205125,2.493209,-0.252862666
1006,250,12,-99.20039746,14.992692,7.612111,0.449242085
1007,250,19,-100.2413468,3.153736,-1.640792,-0.591707267
1008,250,24,-99.25544974,12.685659,3.646585,0.3941898
1009,250,29,-99.41262846,-0.677443,6.019459,0.237011086
1010,251,2,-41.40769937,28.228388,6.433263,-0.723954413
1011,251,5,-41.26702119,0.240796,0.680848,-0.583276233
1012,251,6,-40.02110659,0.928277,2.505772,0.662638373
1013,251,12,-41.48914612,12.867461,7.634845,-0.805401165
1014,251,19,-40.39793556,5.152695,-1.638276,0.285809402
1015,251,24,-41.00760379,10.655626,3.651809,-0.323858826
1016,251,29,-43.02064684,-7.9441,6.030517,-2.336901882
1017,252,2,-83.15960931,24.394457,6.455446,1.148129081
1018,252,5,-84.75719201,8.062529,0.685392,-0.449453623
1019,252,6,-85.31129478,5.356975,2.518653,-1.003556393
1020,252,12,-83.14656883,11.572552,7.658628,1.161169561
1021,252,19,-84.47396134,9.006493,-1.635894,-0.166222948
1022,252,24,-83.52985942,8.981734,3.657648,0.777878972
1023,252,29,-83.11431023,-4.701056,6.042243,1.193428161
1024,253,2,-2.597218217,16.239078,6.486748,7.235767054
1025,253,5,-0.908274657,4.447703,0.701667,8.924710614
1026,253,6,-1.870481888,1.899265,2.535424,7.962503383
1027,253,12,-4.76881581,14.340864,7.691852,5.064169461
1028,253,19,-1.83932482,9.502128,-1.629051,7.993660451
1029,253,24,-9.400472206,12.938609,3.671687,0.432513065
1030,253,25,-10.8876511,89.667126,7.547728,-1.054665829
1031,253,29,-14.56439635,-26.995708,6.05219,-4.73141108
1032,254,2,-68.80549426,-3.32694,6.52916,0.566216897
1033,254,5,-69.95606776,4.154835,0.730591,-0.584356605
1034,254,6,-71.03699668,2.940446,2.555397,-1.665285519
1035,254,12,-68.75316357,15.863117,7.737594,0.618547588
1036,254,19,-70.06697364,7.664894,-1.62027,-0.695262486
1037,254,24,-67.91017847,2.83802,3.697201,1.461532691
1038,254,29,-68.55693757,-0.983426,6.06418,0.814773586
1039,255,2,-32.28752014,16.857761,6.57551,2.899126106
1040,255,5,-35.28231471,13.358473,0.762619,-0.095668466
1041,255,6,-33.26525,20.972141,2.575841,1.921396243
1042,255,12,-32.68946814,13.902937,7.78829,2.497178098
1043,255,19,-34.76408203,-0.853239,-1.6127,0.422564214
1044,255,24,-32.96640631,12.443438,3.727196,2.220239937
1045,255,29,-34.56565406,2.450538,6.079321,0.620992184
1046,256,2,-46.14735355,12.462581,6.624054,-0.051648142
1047,256,5,-46.31997624,6.170877,0.796191,-0.224270839
1048,256,6,-47.24839132,-2.944145,2.597382,-1.152685912
1049,256,12,-45.58677805,2.064469,7.841325,0.508927359
1050,256,19,-46.94350429,-5.067457,-1.60453,-0.847798885
1051,256,24,-44.63061434,-1.862325,3.75852,1.465091065
1052,256,25,-46.12228969,115.372115,7.631479,-0.02658428
1053,256,29,-45.04105688,2.056005,6.094913,1.054648521
1054,257,2,-17.09449614,8.676822,6.676986,1.598434029
1055,257,5,-17.73370284,-3.665966,0.83373,0.959227333
1056,257,6,-19.41300872,3.496561,2.621237,-0.720078548
1057,257,12,-16.06738421,-6.800306,7.898867,2.625545962
1058,257,19,-19.94061771,-12.193773,-1.594447,-1.247687538
1059,257,24,-16.62723584,1.897247,3.792646,2.065694336
1060,257,29,-16.11566487,9.236565,6.110389,2.577265303
1061,258,2,0.029225002,21.317348,6.732244,1.896954227
1062,258,5,-12.48034033,3.276862,0.873873,-10.6126111
1063,258,6,2.602297055,-7.826576,2.646224,4.470026279
1064,258,12,0.5782328,0.717301,7.958801,2.445962025
1065,258,19,-3.317885697,-5.228545,-1.583218,-1.450156472
1066,258,24,-7.267350152,5.039811,3.828533,-5.399620927
1067,258,29,4.26184108,8.608128,6.125523,6.129570305
1068,259,2,-36.22089272,15.983315,6.78821,3.254925126
1069,259,5,-39.13400244,-2.271124,0.914584,0.341815405
1070,259,6,-38.44925624,-5.875941,2.671449,1.026561611
1071,259,12,-38.16650911,-8.841241,8.019553,1.309308741
1072,259,19,-39.36655019,-5.066275,-1.571945,0.109267654
1073,259,24,-37.36625374,4.38306,3.865006,2.109564107
1074,259,25,-38.05070836,89.110124,7.726551,1.425109486
1075,259,29,-38.68497362,-0.045141,6.140948,0.790844228
1076,260,2,-29.48607547,23.94121,6.825714,2.743273716
1077,260,5,-31.29982179,-5.289587,0.9351,0.929527399
1078,260,6,-30.52524745,-9.205547,2.68446,1.704101742
1079,260,12,-29.792177,-7.839124,8.063103,2.437172188
1080,260,19,-32.33639518,-4.434558,-1.57485,-0.107045993
1081,260,24,-29.26817045,0.568318,3.891705,2.961178738
1082,260,25,-30.1451653,45.889267,7.758502,2.084183889
1083,260,29,-31.09364145,5.259608,6.164442,1.135707744
1084,261,2,-60.18391563,20.211564,6.838671,3.007749732
1085,261,5,-61.16005098,-2.541042,0.928424,2.03161438
1086,261,6,-62.21566746,-3.217658,2.681713,0.975997898
1087,261,12,-61.77770532,-2.967999,8.083544,1.413960043
1088,261,19,-61.7784922,-1.928015,-1.596006,1.413173157
1089,261,24,-62.61943222,4.895162,3.904679,0.572233137
1090,261,25,-64.59418897,56.637666,7.789963,-1.402523609
1091,261,29,-63.63143144,5.807567,6.198109,-0.439766075
1092,262,2,-65.32299527,-13.834205,6.849906,1.938732593
1093,262,5,-66.06679038,-9.966785,0.897539,1.194937488
1094,262,6,-68.72889213,12.061104,2.683438,-1.467164272
1095,262,12,-66.5325976,-15.247124,8.101809,0.729130266
1096,262,19,-66.74926392,-8.375057,-1.622111,0.512463944
1097,262,24,-66.57659045,-2.730819,3.902111,0.685137414
1098,262,25,-68.74952522,26.295005,7.835034,-1.487797358
1099,262,29,-67.23120338,-2.319255,6.242783,0.030524479
1100,263,2,-61.65245735,-1.944051,6.864889,-0.393689364
1101,263,5,-61.29939292,-5.580056,0.843873,-0.040624936
1102,263,6,-63.4855597,-7.033019,2.69413,-2.226791714
1103,263,12,-61.26770047,-21.194189,8.123011,-0.008932487
1104,263,19,-61.54372593,-11.06543,-1.650151,-0.284957943
1105,263,24,-60.32352296,-4.843257,3.884248,0.935245024
1106,263,25,-62.44637291,0.227305,7.896833,-1.187604926
1107,263,29,-61.06679099,1.382484,6.298642,0.191976997
1108,264,2,-35.32158603,-23.973113,6.874969,0.606813112
1109,264,5,-38.26499328,-7.470413,0.775569,-2.336594136
1110,264,6,-34.13207756,2.942363,2.70364,1.796321582
1111,264,12,-34.93419951,-16.693312,8.139518,0.99419963
1112,264,19,-36.43773305,-9.533047,-1.683924,-0.509333907
1113,264,24,-35.19759392,7.169268,3.858055,0.730805228
1114,264,25,-35.41444991,25.092601,7.964504,0.51394923
1115,264,29,-34.58533458,-5.694663,6.361382,1.343064569
1116,265,2,-75.63294159,9.939541,6.882404,0.540215167
1117,265,5,-76.25625746,-1.646164,0.68079,-0.083100696
1118,265,6,-75.60997921,18.211919,2.719442,0.563177555
1119,265,12,-75.1115426,15.207932,8.151774,1.061614164
1120,265,19,-76.53986416,-2.075848,-1.720067,-0.366707405
1121,265,24,-75.17990875,17.591743,3.812211,0.993248012
1122,265,25,-76.28980658,0.954576,8.044255,-0.116649819
1123,265,29,-75.25201795,7.82215,6.432367,0.921138808
1124,266,2,-10.08655566,29.018546,6.697871,-1.483610521
1125,266,5,-11.8351505,13.150748,0.512369,-3.23220536
1126,266,6,-10.70924677,7.32313,2.698154,-2.106301629
1127,266,12,-8.844569724,18.70833,7.921745,-0.241624582
1128,266,19,-11.99037725,1.083747,-1.675635,-3.387432109
1129,266,24,-9.219207193,4.872053,3.591379,-0.616262052
1130,266,25,-4.355510799,11.697323,7.906288,4.247434343
1131,266,29,-4.484327634,7.911056,6.304755,4.118617508
1132,267,2,-3.82234426,6.061855,6.412027,-0.333666038
1133,267,5,-10.77483109,-5.120556,0.468248,-7.286152864
1134,267,6,-4.772091599,1.572584,2.620858,-1.283413378
1135,267,12,-2.495203798,4.30365,7.565681,0.993474423
1136,267,19,-10.30637343,-0.687224,-1.554548,-6.817695208
1137,267,24,-3.749577864,0.822059,3.379264,-0.260899642
1138,267,25,4.37417891,10.890866,7.548992,7.862857132
1139,267,29,4.764948447,6.878341,5.989271,8.253626668
1140,268,2,-8.32668244,-1.786325,6.576387,0.402494017
1141,268,5,-13.19036062,0.440506,0.594978,-4.461184163
1142,268,6,-7.777928068,-0.357761,2.556223,0.951248388
1143,268,12,-8.293530013,11.164513,7.817866,0.435646443
1144,268,19,-11.7868162,18.905059,-1.746759,-3.057639742
1145,268,24,-10.11832654,1.194679,3.674379,-1.389150086
1146,268,25,-3.060331222,20.371799,7.782976,5.668845234
1147,268,29,-5.591055516,3.479158,6.272708,3.13812094
1148,269,2,-5.874392489,17.133825,6.638445,-1.002237354
1149,269,5,-11.31571199,4.541946,0.132106,-6.443556859
1150,269,6,-6.542087407,17.642411,2.52341,-1.669932272
1151,269,12,-4.314519559,16.169937,7.972659,0.557635576
1152,269,19,-8.575737243,-0.545657,-2.129456,-3.703582108
1153,269,24,-6.121695938,2.31219,3.62926,-1.249540803
1154,269,25,1.071400325,35.60297,8.328521,5.943555461
1155,269,29,0.985866988,4.569299,6.856544,5.858022123
1156,270,2,-4.964540924,-4.425863,6.399536,-0.723981038
1157,270,5,-10.99295803,-7.745269,-0.39733,-6.752398144
1158,270,6,-5.737607857,6.98961,2.445109,-1.497047971
1159,270,12,-3.61585222,15.658118,7.735327,0.624707666
1160,270,19,-9.77542863,-5.30598,-2.336533,-5.534868744
1161,270,24,-4.590508941,-5.143242,3.309305,-0.349949055
1162,270,25,3.00840143,13.300317,8.47611,7.248961316
1163,270,29,2.851794157,6.12839,7.062363,7.092354044
1164,271,2,-1.495284323,-6.52023,6.368317,1.407016153
1165,271,5,-10.53689035,-9.169177,-0.401545,-7.634589872
1166,271,6,-3.579657406,-2.679165,2.340808,-0.67735693
1167,271,12,0.299726789,-9.008755,7.7476,3.202027265
1168,271,19,-10.90997011,-10.719172,-2.48221,-8.007669639
1169,271,24,-3.224032795,-7.651914,3.410412,-0.321732319
1170,271,25,9.14255799,-3.340213,8.539153,12.04485847
1171,271,29,8.239715849,5.833375,7.197284,11.14201633
1172,272,2,-1.52726011,5.508493,6.309461,1.071165854
1173,272,5,-10.32471676,3.989935,-0.417729,-7.726290794
1174,272,6,-3.7550465,-5.997852,2.32401,-1.156620535
1175,272,12,0.39587551,3.197704,7.675282,2.994301474
1176,272,19,-10.91580267,24.821662,-2.463146,-8.317376707
1177,272,24,-2.81159499,1.036262,3.364058,-0.213169026
1178,272,25,8.473012443,33.592102,8.473258,11.07143841
1179,272,29,8.398403925,6.379368,7.140612,10.99682989
1180,273,2,-1.318182739,6.053269,6.200382,1.412212145
1181,273,5,-10.52289417,8.562288,-0.523385,-7.792499283
1182,273,6,-3.464008846,-2.185414,2.343865,-0.733613962
1183,273,12,0.425816955,13.769144,7.52216,3.156211839
1184,273,19,-10.6441279,11.686079,-2.38685,-7.913733016
1185,273,24,-3.300436743,6.563278,3.188307,-0.570041859
1186,273,25,8.631024075,18.900158,8.362496,11.36141896
1187,273,29,8.14324944,9.580545,7.013432,10.87364432
1188,274,2,-27.17637992,8.393098,5.923392,0.682613046
1189,274,5,-26.56266904,5.265075,-0.693259,1.296323923
1190,274,6,-28.50557469,5.542157,2.281459,-0.646581727
1191,274,12,-26.18510655,11.150716,7.183752,1.673886412
1192,274,19,-28.15710551,-7.747588,-2.322528,-0.298112541
1193,274,24,-24.46861068,4.615247,2.925395,3.390382287
1194,274,25,-25.1429194,39.703211,8.113827,2.716073565
1195,274,29,-27.00366831,3.632087,6.800395,0.855324653
1196,275,2,-9.732632266,-9.475799,5.140542,-2.017255739
1197,275,5,-11.17319461,-6.5878,-1.060185,-3.457818083
1198,275,6,-10.45923284,-3.00521,1.989473,-2.743856315
1199,275,12,-8.424995694,7.193988,6.277786,-0.709619167
1200,275,19,-11.5262518,-1.801819,-2.266085,-3.810875277
1201,275,24,-8.10618607,41.866628,2.374885,-0.390809543
1202,275,25,-3.756549667,0.235987,7.433417,3.958826861
1203,275,29,-3.701590648,-1.366289,6.299635,4.013785879
1204,276,2,-1.486480144,0.805647,4.32539,1.876763712
1205,276,5,-10.46785216,-2.986941,-1.555709,-7.104608302
1206,276,6,-3.633763448,-7.351662,1.546727,-0.270519592
1207,276,12,-0.132030215,10.04522,5.42097,3.231213641
1208,276,19,-10.28475301,1.291823,-2.503066,-6.921509154
1209,276,24,-2.552895974,62.336663,1.947113,0.810347882
1210,276,25,6.904026195,25.641647,6.971551,10.26727005
1211,276,29,6.939045856,3.344523,6.125966,10.30228971
1212,277,2,-1.964224513,15.481355,4.282517,0.942687116
1213,277,5,-10.23968168,3.750776,-1.716452,-7.332770049
1214,277,6,-3.953654262,9.885365,1.350331,-1.046742632
1215,277,12,-0.712460374,22.558109,5.482856,2.194451255
1216,277,19,-10.45982661,4.156605,-2.880999,-7.552914983
1217,277,24,-2.430835208,17.156079,2.106325,0.476076421
1218,277,25,6.651682968,29.377531,7.249689,9.558594598
1219,277,29,6.990780852,4.637336,6.544976,9.897692481
1220,278,2,-1.561009466,2.506935,4.462729,1.304187879
1221,278,5,-10.73070251,2.288692,-1.83751,-7.865505168
1222,278,6,-3.529834862,-6.133359,1.352169,-0.664637516
1223,278,12,0.078313677,6.094785,5.747848,2.943511023
1224,278,19,-10.74454758,-1.535293,-3.122103,-7.879350235
1225,278,24,-3.60161209,2.50267,2.249514,-0.736414744
1226,278,25,8.788140604,-2.631019,7.656351,11.65333795
1227,278,29,8.051730511,11.752406,6.962051,10.91692786
1228,279,2,-3.68901682,7.015742,4.413839,-0.637309788
1229,279,5,-10.42580325,-4.969556,-2.231005,-7.374096214
1230,279,6,-3.727922467,1.140848,1.263586,-0.676215435
1231,279,12,-2.416375001,4.245323,5.767806,0.635332031
1232,279,19,-9.547457244,5.495225,-3.450653,-6.495750212
1233,279,24,-4.262624131,3.606216,2.184778,-1.210917099
1234,279,25,4.989451875,-1.754843,8.013278,8.041158907
1235,279,29,4.54064477,5.794528,7.390421,7.592351802
1236,280,2,-1.759153224,14.783723,4.449422,0.850528476
1237,280,5,-10.43255586,7.031482,-2.504734,-7.822874156
1238,280,6,-3.921512403,1.609542,1.180976,-1.311830703
1239,280,12,-0.018973448,18.987722,5.890651,2.590708252
1240,280,19,-11.09012951,2.58314,-3.781185,-8.48044781
1241,280,24,-3.085526987,6.861222,2.238774,-0.475845287
1242,280,25,8.779887795,4.022437,8.400699,11.3895695
1243,280,29,8.324789275,15.447906,7.845557,10.93447098
1244,281,2,-1.414030461,-1.497136,4.553498,1.729347136
1245,281,5,-10.72414828,-1.950864,-2.687651,-7.580770683
1246,281,6,-3.519635636,-8.39736,1.102268,-0.376258039
1247,281,12,0.22080806,2.939888,6.098133,3.364185658
1248,281,19,-10.89669373,-12.70744,-4.11853,-7.753316129
1249,281,24,-3.719435298,-2.751747,2.388159,-0.576057701
1250,281,25,9.059337993,16.533487,8.81942,12.20271559
1251,281,29,7.923616307,15.271883,8.329756,11.0669939
1252,282,2,-1.572738433,5.736228,4.544585,1.597290171
1253,282,5,-10.66555845,-5.057388,-2.9448,-7.495529848
1254,282,6,-3.68893894,6.411906,1.050073,-0.518910337
1255,282,12,0.106239109,8.763345,6.140066,3.276267712
1256,282,19,-11.00610102,-6.914388,-4.34625,-7.836072417
1257,282,24,-3.582651164,2.25131,2.361407,-0.412622561
1258,282,25,9.018983306,6.000154,9.085191,12.18901191
1259,282,29,7.953731753,9.967051,8.639417,11.12376036
1260,283,2,-1.769901118,7.613212,4.513255,1.258211343
1261,283,5,-10.84953142,0.499404,-3.056799,-7.82141896
1262,283,6,-3.848298387,-3.821365,0.990802,-0.820185925
1263,283,12,-0.331303461,10.007009,6.138944,2.696809001
1264,283,19,-10.83455579,4.779563,-4.479847,-7.806443326
1265,283,24,-3.664997489,3.728585,2.368212,-0.636885028
1266,283,25,8.35610198,6.009328,9.193868,11.38421444
1267,283,29,7.917251802,7.020266,8.791723,10.94536426
1268,284,2,-1.458539778,5.002676,4.434812,1.43806301
1269,284,5,-10.65862481,-0.244827,-3.079615,-7.762022024
1270,284,6,-3.734766608,4.289642,0.933032,-0.83816382
1271,284,12,0.190603571,4.565166,6.06134,3.087206359
1272,284,19,-10.97676529,6.578258,-4.513791,-8.080162501
1273,284,24,-3.237147128,-4.971773,2.353529,-0.340544341
1274,284,29,8.068425636,0.409676,8.779527,10.96502842
1275,285,2,-1.361254248,11.002539,4.339737,2.033748395
1276,285,5,-10.75555612,2.297358,-3.180373,-7.360553481
1277,285,6,-3.679469969,-1.080632,0.915471,-0.284467325
1278,285,12,0.335022705,15.193174,5.94681,3.730025348
1279,285,19,-10.70424615,-5.94641,-4.510334,-7.309243503
1280,285,24,-3.389563827,0.365417,2.243409,0.005438816
1281,285,25,7.806682627,-18.705396,9.091198,11.20168527
1282,285,29,7.469332352,20.412441,8.738019,10.864335
1283,286,2,-2.799971769,8.968032,4.39736,0.472531164
1284,286,5,-11.25766236,1.640962,-3.299972,-7.985159429
1285,286,6,-4.403625214,7.750315,1.003206,-1.13112228
1286,286,12,-1.371909081,17.142887,5.992388,1.900593853
1287,286,19,-10.46010258,-3.581725,-4.490383,-7.187599645
1288,286,24,-3.846485286,8.120857,2.146874,-0.573982352
1289,286,25,6.595626108,35.433636,9.199187,9.868129042
1290,286,29,6.696189172,8.589842,8.790634,9.968692106
1291,287,2,-2.45014641,-3.333338,4.178268,0.562049365
1292,287,5,-10.96731305,-12.056993,-3.390643,-7.955117278
1293,287,6,-4.402579706,0.682182,0.931983,-1.390383931
1294,287,12,-1.005537664,0.055837,5.73108,2.006658111
1295,287,19,-10.894389,-1.077056,-4.450574,-7.882193225
1296,287,24,-3.432619215,-3.013958,1.982332,-0.420423441
1297,287,25,7.592060852,-8.136533,8.986534,10.60425663
1298,287,29,7.535036132,5.840789,8.621059,10.54723191
1299,288,2,-2.597859066,-5.936447,3.965851,0.537216862
1300,288,5,-11.08182159,-3.394288,-3.365427,-7.946745662
1301,288,6,-4.451138656,-1.743543,0.831007,-1.316062728
1302,288,12,-1.208595807,9.746724,5.483145,1.926480121
1303,288,19,-10.81432635,2.242745,-4.399151,-7.679250426
1304,288,24,-3.510317459,10.32816,1.901837,-0.375241531
1305,288,25,6.933090585,-3.00079,8.715444,10.06816651
1306,288,29,7.193413878,5.060447,8.410793,10.32848981
1307,289,2,-2.769053353,9.994409,3.724276,0.299830625
1308,289,5,-10.22586599,16.196765,-3.402435,-7.156982015
1309,289,6,-4.630141757,-3.282607,0.739406,-1.561257779
1310,289,12,-1.387677492,14.875744,5.19559,1.681206486
1311,289,19,-10.85778478,1.289242,-4.340241,-7.788900803
1312,289,24,-3.37783789,0.524059,1.758653,-0.308953912
1313,289,25,6.725617404,5.268582,8.439715,9.794501382
1314,289,29,7.133333051,13.152161,8.189907,10.20221703
1315,290,2,-3.893286965,-4.97749,3.275069,-0.221895027
1316,290,6,-5.258472474,-11.977862,0.506894,-1.587080537
1317,290,12,-2.73171778,4.038095,4.720574,0.939674157
1318,290,19,-11.04226006,0.436833,-4.476886,-7.370868119
1319,290,24,-3.138419667,-0.331796,1.494504,0.53297227
1320,290,25,4.26915102,-1.569213,8.208783,7.940542957
1321,290,29,4.828028461,9.4268,8.112071,8.499420398
1322,291,2,-2.363981602,-5.436382,2.870695,0.99265559
1323,291,5,-9.827355878,-9.971073,-3.062756,-6.470718687
1324,291,6,-4.432686705,2.870241,-0.127061,-1.076049514
1325,291,12,-0.610735309,1.905372,4.424893,2.745901882
1326,291,19,-11.51891904,-1.708091,-4.757442,-8.162281847
1327,291,25,7.937833361,10.372338,7.632587,11.29447055
1328,291,29,8.256487205,3.150029,7.943044,11.6131244
1329,292,2,-4.394001467,17.248521,2.826926,-0.952832034
1330,292,5,-10.8057518,2.438525,-2.44807,-7.364582368
1331,292,6,-4.503014495,16.645068,-0.36909,-1.061845062
1332,292,12,-3.293832821,12.356301,4.429971,0.147336611
1333,292,19,-9.391976634,2.274783,-4.759359,-5.950807202
1334,292,25,3.816733522,18.700897,7.280279,7.257902954
1335,292,29,3.519037152,7.679503,7.739779,6.960206584
1336,293,2,-9.579019405,-12.871443,3.434911,-3.542653271
1337,293,5,-11.02335323,8.969655,-2.467916,-4.986987093
1338,293,6,-10.4409526,-22.102737,0.314921,-4.40458647
1339,293,12,-8.370719499,-12.92037,4.918298,-2.334353365
1340,293,19,-11.73865538,-23.666443,-4.223335,-5.702289247
1341,293,25,-3.43607836,-0.042703,7.590222,2.600287774
1342,294,2,-3.636171154,-9.389256,2.087304,0.100724486
1343,294,5,-11.43622861,-15.422355,-3.314728,-7.699332972
1344,294,6,-4.372764871,-3.85091,-0.636504,-0.635869232
1345,294,12,-1.978236985,-0.126375,3.621166,1.758658655
1346,294,19,-9.775469173,-6.006036,-4.994664,-6.038573533
1347,294,25,5.182408749,9.323564,7.079307,8.919304389
1348,294,29,4.428092208,5.592539,7.720781,8.164987848
1349,295,2,-5.436228124,-17.762482,0.066198,-0.933600507
1350,295,5,-11.84498152,-37.357547,-5.526974,-7.342353906
1351,295,6,-5.433143988,-16.66854,-1.885062,-0.930516371
1352,295,12,-4.538421337,-18.990776,1.675891,-0.035793719
1353,295,19,-9.730598735,-15.978791,-6.403832,-5.227971118
1354,295,25,2.296823581,7.078303,6.944552,6.799451199
1355,295,29,1.400663637,29.7671,8.442306,5.903291255
1356,296,2,-2.744799189,-6.588453,0.258385,-0.170189782
1357,296,5,-11.44085594,-11.601566,-5.746388,-8.866246532
1358,296,6,-4.437288157,-11.372225,-1.546833,-1.862678751
1359,296,12,-1.332445384,-1.5273,1.785249,1.242164022
1360,296,19,-10.71735535,-8.142156,-6.156566,-8.142745948
1361,296,24,-3.779375078,1.139762,0.401462,-1.204765672
1362,296,25,6.798165367,9.784518,7.097824,9.372774773
1363,297,2,-1.732968901,-16.807013,0.498875,1.961130672
1364,297,5,-11.00797577,-19.905633,-5.489972,-7.313876194
1365,297,6,-3.805846134,-9.406129,-1.291427,-0.111746561
1366,297,12,-0.149710891,-7.323845,1.958687,3.544388682
1367,297,19,-11.12039108,-8.438687,-5.816275,-7.426291511
1368,297,24,-4.415274615,-9.582949,0.397892,-0.721175043
1369,297,25,8.388454352,9.655765,7.005369,12.08255392
1370,298,2,-2.776656011,0.780691,0.605833,0.415364134
1371,298,5,-11.19111045,-6.222394,-5.378849,-7.999090309
1372,298,6,-4.689671075,1.492589,-1.222939,-1.497650931
1373,298,12,-1.348083797,1.201799,2.059939,1.843936348
1374,298,19,-11.13750138,4.356987,-5.741637,-7.945481231
1375,298,24,-3.793251358,-7.129795,0.453857,-0.601231214
1376,298,25,6.918301287,15.955583,7.014609,10.11032143
1377,298,29,7.221654134,1.015796,8.068671,10.41367428
1378,299,2,-4.725963795,-1.239752,0.667106,-0.294395458
1379,299,5,-11.24263163,-6.173428,-5.191962,-6.811063291
1380,299,6,-5.770217617,-10.238982,-1.308178,-1.33864928
1381,299,12,-3.464380041,1.852872,2.172273,0.967188297
1382,299,19,-10.48093457,2.374312,-5.833639,-6.04936623
1383,299,24,-4.617519716,3.881293,0.689144,-0.185951378
1384,299,25,3.456817844,34.803424,7.044953,7.888386182
1385,299,29,3.017213,5.071484,8.155969,7.448781337
1386,300,2,-2.055618057,6.261025,-0.006098,1.433872073
1387,300,5,-10.66984202,-6.786329,-5.662149,-7.180351892
1388,300,6,-4.366034807,-0.424326,-1.900448,-0.876544677
1389,300,12,-0.272004555,-1.429629,1.59129,3.217485574
1390,300,19,-11.7311177,-10.902923,-6.440541,-8.241627571
1391,300,24,-3.751604931,-6.721546,0.616494,-0.262114801
1392,300,25,8.407202466,40.815271,6.954265,11.89669259
1393,300,29,8.102234734,13.490714,8.466563,11.59172486
1394,301,2,-5.824199368,6.886401,-0.884701,-0.903215326
1395,301,5,-11.43665654,12.222666,-6.126581,-6.5156725
1396,301,6,-5.877195896,3.657756,-2.807347,-0.956211854
1397,301,12,-4.844102544,24.471345,0.890536,0.076881498
1398,301,24,-6.7105371,4.459894,0.746889,-1.789553058
1399,301,25,1.911501944,47.312794,6.848531,6.832485986
1400,301,29,1.264073926,19.289265,8.973511,6.185057968
1401,302,2,-6.145570805,1.51369,-1.091515,-0.227694509
1402,302,5,-12.21173606,1.731399,-5.732442,-6.293859765
1403,302,6,-6.185571728,7.933496,-3.394525,-0.267695431
1404,302,12,-5.269214172,25.56895,0.876061,0.648662124
1405,302,24,-7.654860593,4.743171,1.432664,-1.736984297
1406,302,25,1.239100497,33.216533,6.782731,7.156976793
1407,302,29,0.000759918,10.697432,9.297758,5.918636214
1408,303,2,-2.835357756,10.423207,-1.087993,0.818794619
1409,303,5,-11.87623913,3.064103,-5.522539,-8.222086758
1410,303,6,-3.933173709,8.763018,-3.426094,-0.279021334
1411,303,12,-1.594175361,13.833549,0.876117,2.059977014
1412,303,24,-5.280228848,5.877966,1.546218,-1.626076473
1413,303,25,6.203163775,40.876798,6.638697,9.85731615
1414,303,29,5.600759868,2.805591,9.169599,9.254912243
1415,304,2,-1.846605374,-0.979461,-1.369412,1.498549745
1416,304,5,-11.23084284,-0.984872,-5.802284,-7.885687721
1417,304,6,-3.787554796,5.440826,-3.739117,-0.442399677
1418,304,12,-0.316941461,10.308409,0.676502,3.028213658
1419,304,24,-4.589486722,4.124101,1.574022,-1.244331602
1420,304,25,8.332256755,2.654977,6.742476,11.67741187
1421,304,29,7.259843907,-4.65875,9.489929,10.60499903
1422,305,2,-3.261228976,19.013623,-1.797645,0.332654247
1423,305,5,-10.93118822,5.308285,-6.007516,-7.337304992
1424,305,6,-4.821376252,13.742114,-3.769687,-1.227493029
1425,305,12,-1.743641972,35.189961,0.109938,1.850241251
1426,305,24,-4.255662032,22.788131,1.105872,-0.661778809
1427,305,25,5.765108471,16.72265,6.232891,9.358991694
1428,305,29,5.775413022,7.59225,8.990604,9.369296245
1429,306,2,-10.34646685,-13.838239,-2.015628,0.081678569
1430,306,5,-13.17472737,-17.705384,-5.981987,-2.746581954
1431,306,6,-9.992880222,-6.826584,-3.820962,0.435265196
1432,306,12,-10.6382314,3.944164,-0.17261,-0.210085985
1433,306,19,-13.10992241,59.412742,-7.874822,-2.681776991
1434,306,24,-11.32900013,34.208984,0.957158,-0.900854707
1435,306,25,-7.477306553,14.152115,5.897869,2.950838864
1436,306,29,-9.520582031,0.877844,8.681833,0.907563387
1437,307,2,-8.759195298,8.299135,-1.868387,-0.283051517
1438,307,5,-12.27199733,14.193107,-5.788292,-3.795853547
1439,307,6,-8.630323008,1.503173,-3.799908,-0.154179227
1440,307,12,-9.074726865,13.910263,0.003082,-0.598583084
1441,307,24,-10.78142371,10.763086,1.144275,-2.305279931
1442,307,25,-3.794406358,-6.394942,5.953585,4.681737423
1443,307,29,-5.559514397,7.752227,8.72319,2.916629384
1444,308,2,-17.68839937,8.23136,-1.163686,-0.946933011
1445,308,5,-18.91770011,-6.461471,-5.092185,-2.176233753
1446,308,6,-15.34852443,1.441122,-3.502307,1.392941927
1447,308,12,-18.10605958,7.335581,0.763949,-1.364593225
1448,308,19,-18.33401398,2.384051,-7.650273,-1.592547627
1449,308,24,-19.47262209,18.156887,1.707315,-2.731155732
1450,308,25,-16.79550461,3.072597,6.214673,-0.054038254
1451,308,29,-18.65178688,14.083888,8.783386,-1.910320524
1452,309,2,-2.620386756,14.522654,-0.503347,0.837611002
1453,309,5,-11.5455542,-3.522001,-4.419869,-8.087556441
1454,309,6,-4.4950056,4.003069,-3.145418,-1.037007842
1455,309,12,-1.232923621,11.842426,1.432883,2.225074137
1456,309,19,-11.05504221,2.12219,-7.303977,-7.597044449
1457,309,24,-4.419772655,15.95014,2.139125,-0.961774897
1458,309,25,7.415961606,20.200251,6.358915,10.87395936
1459,309,29,6.910772031,1.357559,8.683932,10.36876979
1460,310,2,-8.563015956,-5.297656,-0.271374,-0.515136166
1461,310,5,-12.27518225,-20.770102,-4.328562,-4.227302464
1462,310,6,-8.166447811,-6.885734,-2.948361,-0.118568022
1463,310,12,-8.672984762,-12.874408,1.643113,-0.625104973
1464,310,19,-11.85650137,3.329128,-7.148181,-3.808621584
1465,310,24,-10.26486053,-0.108179,2.148501,-2.216980739
1466,310,25,-3.022849252,-5.585426,6.459047,5.025030538
1467,310,29,-4.720684516,-2.17191,8.653265,3.327195274
1468,311,2,-8.80571363,11.052661,-0.010958,-0.427023337
1469,311,5,-11.90375286,3.535312,-3.981367,-3.525062564
1470,311,6,-9.854061883,1.677312,-2.806951,-1.47537159
1471,311,12,-7.285948113,13.533386,1.898218,1.09274218
1472,311,19,-11.53085965,0.190477,-6.962822,-3.152169353
1473,311,24,-8.353578238,3.343268,2.344489,0.025112055
1474,311,25,-2.420143692,28.93754,6.443776,5.9585466
1475,311,29,-3.095373507,13.581142,8.538642,5.283316786
1476,312,2,-15.40110532,9.871272,-0.726387,-0.464821947
1477,312,5,-15.40420486,-0.04812,-4.028662,-0.467921488
1478,312,6,-15.73430701,-3.15585,-2.961415,-0.798023644
1479,312,12,-14.6565147,10.408068,0.978852,0.279768667
1480,312,19,-17.25330974,-2.223026,-6.556653,-2.317026373
1481,312,24,-14.97022207,0.234425,1.797275,-0.033938702
1482,312,25,-11.16640929,20.743347,5.445319,3.769874082
1483,312,29,-13.12663637,19.069668,7.619878,1.809647003
1484,313,2,-4.485526674,-4.058977,-2.26287,0.123556946
1485,313,5,-11.73968036,-12.739029,-4.831966,-7.130596738
1486,313,6,-5.403407897,-4.782754,-4.264814,-0.794324276
1487,313,12,-2.955718252,-3.979836,-0.399538,1.653365369
1488,313,19,-10.28230796,2.769285,-7.703449,-5.673224335
1489,313,24,-5.078565204,-6.820621,1.662753,-0.469481583
1490,313,25,3.954696363,4.067837,4.949128,8.563779983
1491,313,29,3.128178485,4.764839,7.997343,7.737262106
1492,314,2,-1.987133226,-0.937018,-2.736343,2.130491586
1493,314,5,-10.87791471,-13.129163,-4.925721,-6.7602899
1494,314,6,-4.375545667,-3.146053,-4.964522,-0.257920855
1495,314,12,-0.494795986,4.328375,-0.678326,3.622828827
1496,314,19,-11.36980955,32.408655,-8.461177,-7.252184733
1497,314,24,-4.253132341,-4.044071,2.06232,-0.135507529
1498,314,25,6.750246603,-0.732899,4.980108,10.86787141
1499,314,29,6.739944963,-4.550109,8.500694,10.85756977
1500,315,2,-6.03290641,10.525139,-2.921844,-0.366543222
1501,315,5,-12.4381937,4.412108,-5.068752,-6.77183051
1502,315,6,-6.105505171,2.080021,-5.060679,-0.439141983
1503,315,12,-5.396677832,18.596784,-0.873867,0.269685356
1504,315,24,-7.650662612,8.968037,1.950688,-1.984299424
1505,315,29,0.109432993,25.233864,8.479392,5.775796181
1506,316,2,-2.255715458,16.798961,-2.860789,1.408519223
1507,316,5,-11.64657766,2.024703,-4.979814,-7.982342975
1508,316,6,-4.109714529,8.110185,-5.038686,-0.445479848
1509,316,12,-0.891383713,13.87223,-0.809081,2.772850968
1510,316,19,-10.92581851,48.646029,-8.495997,-7.261583832
1511,316,24,-5.122021251,7.250628,2.01374,-1.45778657
1512,316,25,8.082147258,-24.265257,4.895474,11.74638194
1513,316,29,6.811268412,1.462728,8.465056,10.47550309
1514,317,2,-1.856028309,-7.820367,-2.860093,2.227817668
1515,317,5,-11.10262743,-0.445211,-4.925308,-7.018781454
1516,317,6,-4.065272638,-4.127535,-5.02809,0.018573339
1517,317,12,-0.249188781,0.101939,-0.819695,3.834657196
1518,317,19,-11.43607682,43.050425,-8.447495,-7.352230846
1519,317,24,-4.850167208,-10.380162,2.018529,-0.76632123
1520,317,25,7.73238865,4.111197,4.837239,11.81623463
1521,317,29,6.989297234,-3.580033,8.397846,11.07314321
1522,318,2,-5.170166107,7.542492,-2.954607,-0.565805958
1523,318,5,-11.49884777,-0.696859,-5.068465,-6.894487621
1524,318,6,-5.342145662,6.258052,-5.080354,-0.737785512
1525,318,12,-4.437637027,13.450913,-0.910992,0.166723122
1526,318,24,-6.134022431,0.404378,1.942602,-1.529662281
1527,318,25,2.665287917,-5.671098,4.857675,7.269648066
1528,318,29,1.795696425,9.06662,8.456083,6.400056574
1529,319,2,-1.932924986,15.366363,-2.940595,1.7960019
1530,319,5,-11.15622715,10.037206,-5.111133,-7.427300265
1531,319,6,-4.208024545,5.810844,-5.104457,-0.479097658
1532,319,12,-0.25437487,25.205749,-0.87459,3.474552016
1533,319,24,-4.716612217,14.256912,1.974147,-0.987685331
1534,319,25,7.475450697,44.017457,4.943404,11.20437758
1535,319,29,7.012662869,14.060855,8.560975,10.74158976
1536,320,2,-9.597702398,-1.839962,-2.657519,-0.356408607
1537,320,5,-12.93937641,7.697039,-4.813626,-3.698082623
1538,320,6,-8.890472351,-3.400952,-4.889918,0.35082144
1539,320,12,-9.832889603,4.05944,-0.621844,-0.591595812
1540,320,19,-12.07737183,12.018243,-8.349359,-2.836078043
1541,320,24,-11.74035378,-4.638788,2.081447,-2.499059991
1542,320,25,-4.403779399,53.437731,4.931731,4.837514392
1543,320,29,-6.958034993,14.771811,8.401171,2.283258797
1544,321,2,-2.2906852,-5.744628,-2.002209,1.42359797
1545,321,5,-10.78330039,19.593243,-4.179112,-7.069017222
1546,321,6,-4.51866229,-7.688221,-4.269263,-0.80437912
1547,321,12,-0.545037945,-2.015922,-0.097925,3.169245225
1548,321,19,-11.95229052,21.936884,-7.582871,-8.238007348
1549,321,24,-3.974928102,-5.715998,2.149706,-0.260644932
1550,321,25,7.927651334,-2.390166,4.820478,11.6419345
1551,321,29,7.311466138,-1.760942,7.861929,11.02574931
1552,322,2,-3.313243609,-19.756628,-1.863461,0.2666115
1553,322,5,-10.5623688,17.452464,-4.086885,-6.982513688
1554,322,6,-5.29713728,-17.247009,-4.165912,-1.717282171
1555,322,12,-1.497016316,-14.000072,0.031987,2.082838793
1556,322,19,-12.0397059,-4.601368,-7.491818,-8.459850793
1557,322,24,-3.680480032,6.558027,2.186602,-0.100624923
1558,322,25,6.778370459,18.767202,4.863159,10.35822557
1559,322,29,7.250964018,-9.29652,7.835143,10.83081913
1560,323,2,-7.07738337,-19.7238,-2.106352,-1.627652667
1561,323,5,-10.65119588,-4.57201,-4.237178,-5.201465175
1562,323,6,-7.008514059,-15.435508,-4.50507,-1.558783357
1563,323,12,-6.31864398,-18.860385,-0.111814,-0.868913278
1564,323,19,-10.71518747,-18.891613,-7.907384,-5.265456769
1565,323,24,-6.970734314,13.121894,2.331923,-1.521003611
1566,323,25,0.07906487,-25.359887,4.946431,5.528795573
1567,323,29,0.034400783,-7.118882,8.150383,5.484131486
1568,324,2,-8.86097196,-14.786461,-2.147409,-1.342723514
1569,324,5,-11.52206015,33.679793,-3.915884,-4.003811701
1570,324,6,-10.41178096,-20.094508,-4.675462,-2.893532516
1571,324,12,-7.380421591,-6.196412,-0.1084,0.137826855
1572,324,19,-11.50538026,-13.933028,-7.962548,-3.987131818
1573,324,24,-7.631923911,57.016909,2.619488,-0.113675465
1574,324,25,-2.288185725,-17.944068,4.779772,5.230062721
1575,324,29,-2.757678178,-20.149427,8.0895,4.760570268
1576,325,2,-3.647456578,-30.56098,-2.573974,0.151295521
1577,325,5,-10.57866343,-18.187842,-3.71253,-6.77991133
1578,325,6,-5.538299431,-26.00549,-4.966621,-1.739547332
1579,325,12,-1.698964364,-28.322732,-0.570682,2.099787736
1580,325,19,-12.27296922,-30.434547,-7.914625,-8.474217125
1581,325,24,-3.26719031,31.108349,2.632579,0.531561789
1582,325,25,5.986394178,-12.718513,4.195036,9.785146277
1583,325,29,6.960360866,-6.817036,7.683173,10.75911297
1584,326,2,-5.083913654,-18.736002,-3.173865,-0.575922177
1585,326,5,-10.04673945,16.437554,-2.750974,-5.538747969
1586,326,6,-6.716221756,-21.413582,-5.814373,-2.208230279
1587,326,12,-3.704637276,-11.445189,-1.047061,0.803354201
1588,326,19,-12.28626368,-10.747008,-8.178432,-7.7782722
1589,326,24,-2.733057244,76.642439,3.449425,1.774934233
1590,326,25,3.009355983,-24.842185,3.254782,7.51734746
1591,326,29,4.302910794,-20.59823,7.274703,8.810902272
1592,327,2,-8.196383869,-9.860188,-4.235029,-1.332987286
1593,327,6,-9.800629288,-5.374646,-7.016501,-2.937232706
1594,327,12,-6.728523128,1.057748,-1.900438,0.134873454
1595,327,19,-11.49346043,-12.631793,-9.069668,-4.630063852
1596,327,24,-7.099341555,45.748064,3.983039,-0.235944973
1597,327,25,-1.501780872,-4.545937,2.637526,5.36161571
1598,327,29,-2.04608214,-8.448746,7.446955,4.817314442
1599,328,2,-14.16375162,4.511535,-5.117862,-5.356739966
1600,328,6,-15.41782018,5.915032,-8.194944,-6.610808518
1601,328,12,-12.77878431,5.964356,-2.535085,-3.971772656
1602,328,19,-15.93700362,1.545299,-9.972201,-7.129991963
1603,328,25,-8.636004308,5.867786,2.115222,0.171007351
1604,329,2,-47.81133573,-41.983388,-6.163609,-2.134234537
1605,329,5,-44.93186058,24.969462,-2.411452,0.745240619
1606,329,6,-49.30546255,-38.609775,-9.126933,-3.628361354
1607,329,12,-46.07795971,-35.497387,-3.488234,-0.400858516
1608,329,19,-47.39250874,-44.472869,-10.582373,-1.715407539
1609,329,25,-47.25541149,-2.277615,1.460591,-1.578310287
1610,329,29,-46.52679017,-28.796556,7.653671,-0.849688976
1611,330,2,-51.76302428,-41.517682,-7.670928,-1.566076997
1612,330,5,-48.46453546,-26.122491,-1.300811,1.732411819
1613,330,6,-52.40612442,-35.662921,-10.739485,-2.20917714
1614,330,12,-50.27616486,-28.646472,-4.838739,-0.07921758
1615,330,19,-49.16207902,-18.358659,-11.149341,1.034868263
1616,330,24,-49.46194629,59.656465,5.791937,0.73500099
1617,330,25,-51.99606678,-17.267808,-0.320683,-1.799119496
1618,330,29,-51.484283,-7.809307,6.893487,-1.287335716
1619,331,2,-54.32861038,-32.41998,-13.110517,-1.083148809
1620,331,5,-51.95810274,-15.000729,-2.722323,1.287358826
1621,331,6,-55.25375262,-40.33669,-15.787542,-2.00829105
1622,331,12,-53.15442479,-30.129269,-9.617403,0.091036777
1623,331,19,-53.39748844,-12.077163,-15.092835,-0.152026868
1624,331,25,-54.12422438,-9.002481,-2.861636,-0.878762815
1625,332,2,-17.90820889,-38.860908,-15.282749,-3.959490121
1626,332,5,-10.36578038,-19.114153,-3.348715,3.582938395
1627,332,6,-20.21626374,-54.628627,-17.745184,-6.267544962
1628,332,12,-15.72256124,-29.661606,-11.55104,-1.773842466
1629,332,19,-13.72492846,-17.930291,-16.604906,0.223790314
1630,332,25,-18.90960605,-13.369449,-3.888727,-4.960887273
1631,333,2,-51.05425429,-37.15952,-15.561915,1.747474367
1632,333,5,-50.79094871,13.849993,-3.147404,2.010779946
1633,333,6,-50.81738638,-67.990804,-18.072222,1.984342278
1634,333,12,-51.5956101,-45.24657,-11.784058,1.206118559
1635,333,19,-50.6577427,-33.095572,-16.758685,2.143985952
1636,333,24,-51.49548198,89.961991,6.734815,1.306246671
1637,333,25,-53.58357651,-38.623497,-4.185554,-0.781847852
1638,334,2,-48.25341613,-46.306825,-15.126705,0.203024182
1639,334,5,-45.45685931,3.223951,-4.131704,2.999581007
1640,334,6,-47.08720928,-48.436213,-17.275306,1.369231033
1641,334,12,-49.61509839,-34.222875,-11.511175,-1.158658081
1642,334,19,-46.02531654,-31.228698,-16.433726,2.431123775
1643,334,25,-51.82948859,-27.260029,-3.451631,-3.373048275
1644,335,2,-76.76880682,-72.272572,-13.975168,-0.818424015
1645,335,5,-73.37230025,-31.967027,-4.793435,2.578082557
1646,335,6,-76.42041547,-71.44178,-16.100272,-0.470032669
1647,335,12,-75.94326366,-52.052041,-10.466281,0.007119142
1648,335,19,-73.53540775,-32.030134,-15.985431,2.414975048
1649,335,25,-78.82548485,-29.408121,-2.193825,-2.875102043
1650,335,29,-77.54418369,40.48515,8.625479,-1.593800886
1651,336,2,-62.58194014,-116.683565,-13.576777,-1.503916811
1652,336,5,-58.79090646,-65.124006,-5.077625,2.287116872
1653,336,6,-63.30188969,-83.473453,-15.957259,-2.223866354
1654,336,12,-60.7058974,-79.035965,-9.955947,0.372125932
1655,336,19,-59.29597207,-57.457443,-16.298965,1.782051263
1656,336,25,-63.39683463,-42.472645,-1.429734,-2.318811299
1657,337,2,-48.42230645,-61.326253,-13.606084,-1.873984428
1658,337,5,-44.87451857,-9.25603,-5.164548,1.673803449
1659,337,6,-49.26860502,-48.770433,-15.970189,-2.720282995
1660,337,12,-46.68110374,-44.653009,-9.981495,-0.132781712
1661,337,19,-47.10884383,-18.106594,-16.342471,-0.560521809
1662,337,25,-47.96620411,-40.62133,-1.391366,-1.417882087
1663,337,29,-46.94615889,-8.440602,9.365414,-0.397836868
1664,338,2,-41.35864092,-88.174409,-13.619138,-0.720414044
1665,338,5,-39.75140648,-39.486711,-5.183248,0.886820401
1666,338,6,-42.2092935,-87.571549,-15.981189,-1.571066623
1667,338,12,-40.57131317,-64.634069,-9.991593,0.066913713
1668,338,19,-41.17650466,-60.709419,-16.358545,-0.53827778
1669,338,25,-41.12411864,-25.64602,-1.386788,-0.485891761
1670,339,2,-35.00026583,-64.740947,-13.648301,-0.550647494
1671,339,5,-33.11954216,-70.008253,-5.196621,1.330076179
1672,339,6,-36.4742807,-60.165461,-16.007204,-2.024662362
1673,339,12,-33.9831548,-47.555324,-10.016697,0.466463539
1674,339,19,-35.34305633,-34.587789,-16.380818,-0.893437987
1675,339,24,-32.61656657,11.529286,5.313425,1.833051767
1676,339,25,-34.61708966,2.75193,-1.397948,-0.167471321
1677,339,29,-34.03305415,13.8862,9.38371,0.41656419
1678,340,2,-49.85191367,-47.109526,-13.687795,-0.931181835
1679,340,5,-47.73471753,-33.75468,-5.268275,1.186014311
1680,340,6,-50.96141726,-51.435702,-16.026376,-2.040685425
1681,340,12,-48.54951236,-31.507268,-10.054673,0.371219479
1682,340,19,-49.50845443,-28.323704,-16.415905,-0.587722594
1683,340,25,-49.53851986,-7.629732,-1.383388,-0.617788026
1684,340,29,-49.31926305,9.541781,9.412572,-0.398531214
1685,341,2,-62.34954048,-74.56248,-13.748514,-2.499023789
1686,341,5,-58.76082693,-46.112072,-5.457682,1.089689761
1687,341,6,-62.16071096,-77.535663,-16.035288,-2.31019427
1688,341,12,-61.25899137,-54.55136,-10.117261,-1.408474681
1689,341,19,-59.91995572,-50.571092,-16.482474,-0.069439036
1690,341,25,-62.39163677,-26.496541,-1.313673,-2.541120084
1691,341,29,-61.65484434,29.424069,9.493161,-1.804327652
1692,342,2,-59.69442153,-77.110503,-13.674847,-2.302538244
1693,342,5,-56.48401188,-37.397644,-5.505486,0.907871404
1694,342,6,-59.74322372,-82.598505,-15.954217,-2.35134044
1695,342,12,-58.3760862,-60.537262,-10.052802,-0.984202923
1696,342,19,-57.78479585,-39.407634,-16.446851,-0.392912571
1697,342,25,-59.74151013,-34.232538,-1.236138,-2.349626846
1698,342,29,-58.7906372,-14.46404,9.518947,-1.398753922
1699,343,2,-55.67284381,-53.520993,-13.57637,-1.242228309
1700,343,5,-53.22985206,-27.403013,-5.492434,1.200763444
1701,343,6,-56.20960894,-60.329193,-15.862142,-1.778993442
1702,343,12,-54.44249254,-52.419312,-9.965046,-0.011877045
1703,343,19,-54.44615416,-33.836375,-16.381323,-0.01553866
1704,343,25,-55.73723997,-22.754235,-1.181201,-1.306624476
1705,343,29,-55.06182914,12.798913,9.513137,-0.631213643
1706,344,2,-49.88445082,-96.511103,-13.525558,-1.259643557
1707,344,5,-47.55794563,-47.943619,-5.557326,1.066861629
1708,344,6,-51.08754967,-101.891865,-15.788961,-2.462742413
1709,344,12,-48.55191438,-80.597752,-9.926959,0.072892883
1710,344,19,-49.50524994,-65.410539,-16.346738,-0.880442679
1711,344,25,-49.6582921,-38.849437,-1.11901,-1.03348484
1712,344,29,-49.17962946,11.307141,9.52887,-0.554822196
1713,345,2,-35.60208753,-98.544785,-13.438529,-1.525156022
1714,345,6,-37.08524623,-102.753375,-15.679511,-3.00831472
1715,345,12,-34.46722001,-82.856167,-9.857235,-0.390288497
1716,345,19,-35.94245071,-76.000116,-16.290003,-1.865519203
1717,345,24,-33.27266032,2.113729,4.96846,0.804271191
1718,345,25,-35.49780562,-49.069269,-1.030195,-1.420874112
1719,346,2,-44.82027418,-105.380349,-13.32255,-0.753208364
1720,346,5,-43.06480905,-8.74091,-5.713661,1.002256761
1721,346,6,-46.45421087,-117.695576,-15.548878,-2.387145051
1722,346,12,-43.67154611,-91.130728,-9.756839,0.39551971
1723,346,19,-45.11093172,-92.5478,-16.235873,-1.0438659
1724,346,25,-45.13905578,-35.905601,-0.900863,-1.07198996
1725,346,29,-44.51242246,-38.480394,9.594099,-0.445356646
1726,347,2,-35.25133133,-96.161379,-13.247268,-1.050729323
1727,347,6,-37.00882786,-105.45307,-15.462117,-2.808225854
1728,347,12,-34.26595792,-80.988522,-9.691944,-0.065355917
1729,347,19,-35.87702997,-69.873166,-16.201848,-1.676427958
1730,347,25,-35.42619951,-29.45261,-0.812889,-1.225597507
1731,347,29,-34.29579993,-13.975813,9.627182,-0.095197925
1732,348,2,-44.1168091,-45.608626,-13.32695,-1.325809816
1733,348,5,-41.55533965,-42.202305,-5.750954,1.235659639
1734,348,6,-45.56632712,-50.36674,-15.534356,-2.775327834
1735,348,12,-42.63034604,-20.257092,-9.766765,0.160653245
1736,348,19,-44.02710962,-36.697519,-16.228573,-1.236110334
1737,348,25,-44.06957391,13.819728,-0.894462,-1.278574622
1738,348,29,-42.8918513,7.237653,9.59154,-0.100852008
1739,349,2,-8.497641319,-94.056111,-13.378518,0.372331112
1740,349,6,-8.706385224,-101.1376,-15.577688,0.163587207
1741,349,12,-8.032804303,-71.74564,-9.816409,0.837168128
1742,349,19,-11.60982336,-75.829471,-16.243197,-2.739850929
1743,349,25,-6.357061535,-30.197324,-0.946778,2.512910896
1744,349,29,-2.676145302,-10.244991,9.566752,6.193827129
1745,350,2,-45.74487093,-38.243152,-13.287811,-1.345716412
1746,350,5,-43.01781734,-52.00254,-5.810654,1.381337178
1747,350,6,-46.43034255,-51.483643,-15.470103,-2.03118804
1748,350,12,-44.6686615,-19.580104,-9.740533,-0.269506982
1749,350,19,-45.1846923,-32.360314,-16.194118,-0.785537784
1750,350,25,-45.75661818,0.083706,-0.848436,-1.357463667
1751,350,29,-46.0780298,3.189246,9.596708,-1.678875284
1752,351,2,-63.76980531,-71.765647,-13.23556,-2.837579934
1753,351,5,-59.53013194,-98.107434,-5.858876,1.402093439
1754,351,6,-63.55771749,-70.498189,-15.401685,-2.62549211
1755,351,12,-62.74104972,-57.997912,-9.699577,-1.808824338
1756,351,19,-60.89954657,-42.944743,-16.159144,0.032678814
1757,351,24,-61.73232002,20.577963,4.747422,-0.800094645
1758,351,25,-64.1254406,-6.222283,-0.793216,-3.193215221
1759,351,29,-63.39702415,25.591495,9.608338,-2.464798769
1760,352,2,-45.03784497,-75.150612,-13.18656,-0.945532736
1761,352,5,-42.77130588,-93.890594,-5.905803,1.321006358
1762,352,6,-45.95771959,-73.404288,-15.334778,-1.865407355
1763,352,12,-43.92563979,-59.101576,-9.662524,0.166672442
1764,352,19,-44.73796637,-48.344178,-16.122787,-0.645654136
1765,352,25,-44.97005351,-36.92406,-0.742998,-0.87774127
1766,352,29,-45.2064408,51.584221,9.615862,-1.114128566
1767,353,2,-54.19258333,-47.009652,-13.138023,-1.884372321
1768,353,5,-51.35881322,-59.302027,-5.952446,0.949397787
1769,353,6,-54.83706019,-58.550355,-15.267813,-2.528849187
1770,353,12,-52.55535399,-39.508608,-9.626214,-0.247142991
1771,353,19,-53.02414916,-30.62878,-16.085732,-0.715938153
1772,353,24,-51.43944446,30.262691,4.644397,0.868766549
1773,353,25,-53.78378272,-17.216678,-0.693883,-1.475571719
1774,353,29,-53.02497133,60.555186,9.622237,-0.716760321
1775,354,2,-35.87142966,-57.486138,-13.089715,-0.477507682
1776,354,5,-33.53814454,-47.112869,-5.999378,1.855777431
1777,354,6,-35.76502389,-69.097284,-15.20047,-0.371101917
1778,354,12,-35.11597248,-51.668209,-9.59044,0.277949491
1779,354,19,-34.17421108,-45.155457,-16.048017,1.219710896
1780,354,25,-36.9851256,-24.727818,-0.645319,-1.591203623
1781,354,29,-38.47161014,65.135965,9.627826,-3.077688161
1782,355,2,-60.79144039,-41.114738,-13.043218,-2.221797097
1783,355,5,-57.00329938,-34.373619,-6.048871,1.566343913
1784,355,6,-60.47673123,-43.47436,-15.133824,-1.907087937
1785,355,12,-59.79533708,-32.80358,-9.556639,-1.22569378
1786,355,19,-58.3450373,-21.044733,-16.011222,0.224605994
1787,355,25,-61.25352429,-10.162658,-0.596866,-2.683880994
1788,355,29,-60.67546259,10.902082,9.633845,-2.1058193
1789,356,2,-55.27977992,-64.555698,-13.004201,-1.90652034
1790,356,5,-51.72048286,-69.206408,-6.098057,1.652776718
1791,356,6,-55.24529131,-55.528671,-15.074006,-1.872031726
1792,356,12,-54.21217462,-41.180202,-9.529701,-0.838915038
1793,356,19,-53.35405491,-38.802539,-15.978342,0.01920467
1794,356,25,-55.57498578,-39.629062,-0.554014,-2.201726203
1795,356,29,-55.52019018,75.170382,9.638721,-2.146930602
1796,357,2,-52.12879933,-67.088351,-12.972142,-1.073074305
1797,357,5,-48.54680553,-62.679094,-6.144119,2.508919491
1798,357,6,-51.37930046,-66.127769,-15.023312,-0.323575435
1799,357,12,-51.66850424,-58.063947,-9.507885,-0.612779223
1800,357,19,-48.9802685,-37.942773,-15.952028,2.07545652
1801,357,25,-53.83162251,-36.782444,-0.515854,-2.77589749
1802,357,29,-54.94514408,65.680652,9.644856,-3.889419061
1803,358,2,-42.64921722,-42.443621,-12.943462,-0.667573222
1804,358,5,-40.31971323,-50.790082,-6.189099,1.661930766
1805,358,6,-42.72356791,-50.411238,-14.978472,-0.741923913
1806,358,12,-41.85437127,-53.487433,-9.487752,0.127272732
1807,358,19,-41.35741889,-24.519464,-15.931522,0.62422511
1808,358,25,-43.01167765,-33.416742,-0.478078,-1.030033649
1809,358,29,-44.35511423,81.638747,9.654508,-2.373470234
1810,359,2,-6.046128229,-46.632979,-12.932844,1.40970341
1811,359,5,-13.61689719,-45.25361,-6.224178,-6.161065548
1812,359,6,-5.017991051,-48.550004,-14.953065,2.437840588
