0,121,5,-25.44252061,-46.207707,-35.156219,-0.167834283
1,121,10,-22.22121585,28.823236,3.697131,3.053470474
2,121,13,-26.41239172,-53.79745,-53.915414,-1.137705394
3,121,15,-25.30878351,-62.718311,-60.913527,-0.034097182
4,121,18,-23.7258034,-49.194647,-22.089861,1.54888293
5,121,20,-22.596756,-47.683357,-22.273252,2.677930324
6,121,25,-22.20655306,-1.557109,-26.600651,3.06813327
7,121,26,-23.75915078,42.93501,7.521582,1.515535546
8,121,29,-23.82233489,-56.032809,-61.674234,1.452351436
9,122,5,-35.65654973,-3.110565,-30.301235,2.453108808
10,122,10,-37.93693952,33.408455,-0.709896,0.172719024
11,122,13,-38.0811017,-4.101767,-46.222536,0.028556839
12,122,15,-41.16618302,-2.208173,-54.754384,-3.056524478
13,122,18,-40.07229219,-1.106252,-26.682077,-1.962633643
14,122,20,-41.44570847,3.56452,-26.411485,-3.336049929
15,122,26,-40.40579466,-1.322268,0.250927,-2.296136114
16,122,29,-40.54553584,-0.432055,-59.455215,-2.4358773
17,123,5,-30.27606469,-4.950305,-26.615045,3.623491893
18,123,10,-34.46804769,46.245452,-3.647864,-0.568491113
19,123,13,-31.74492392,-0.450417,-39.759699,2.154632663
20,123,15,-34.59787573,0.642906,-49.071546,-0.698319153
21,123,18,-34.95093931,0.877399,-30.216557,-1.051382729
22,123,20,-36.97084944,-1.325551,-29.029001,-3.071292865
23,123,26,-35.4880849,-4.437893,-5.682918,-1.588528322
24,123,29,-33.72278741,2.914972,-57.095013,0.176769171
25,124,5,-28.42030004,-9.796303,-25.171951,3.924106259
26,124,10,-33.05009248,57.192884,-4.262093,-0.705686181
27,124,13,-29.33514144,2.204363,-36.845378,3.009264855
28,124,15,-30.63283199,-2.129908,-46.039557,1.71157431
29,124,18,-31.37941279,-8.200271,-31.101633,0.96499351
30,124,20,-33.10118913,3.175858,-29.211934,-0.756782835
31,124,26,-32.99518699,-5.002273,-7.840552,-0.650780693
32,124,29,-29.64850065,-0.786073,-55.296476,2.695905651
33,125,5,-6.554086752,-6.619648,-25.082695,2.639368834
34,125,10,-5.941972511,35.888931,-4.18315,3.251483075
35,125,13,1.812148094,-7.246212,-36.669488,11.00560368
36,125,15,1.993231689,-2.885445,-45.780278,11.18668728
37,125,18,-13.40108068,-8.540671,-30.94031,-4.207625091
38,125,20,-7.064268972,-0.032081,-29.010275,2.129186614
39,125,26,-17.21703734,3.750914,-7.799731,-8.023581757
40,125,29,-2.645450327,-1.857177,-54.999402,6.548005259
41,126,5,-15.69123594,-10.263746,-25.013384,0.452964242
42,126,10,-16.90392649,41.656519,-4.109916,-0.759726311
43,126,13,-17.96413834,-23.889032,-36.54651,-1.819938158
44,126,15,-18.41469913,0.910994,-45.587193,-2.270498951
45,126,18,-16.44001043,-16.311938,-30.776967,-0.295810249
46,126,20,-15.92414615,-4.111308,-28.827568,0.220054034
47,126,26,-16.15362561,-5.501853,-7.729603,-0.00942543
48,126,29,-17.22736437,-8.021517,-54.750471,-1.083164185
49,127,5,-5.516414202,-10.574879,-24.930851,1.958331973
50,127,10,-5.44224953,34.882964,-4.062616,2.032496645
51,127,13,3.334093707,-7.869789,-36.435601,10.80883988
52,127,15,3.647068493,-4.913953,-45.425681,11.12181467
53,127,18,-13.13877845,-11.205378,-30.609072,-5.664032278
54,127,20,-6.794494,1.408002,-28.669835,0.680252175
55,127,26,-16.95040195,1.093224,-7.645835,-9.475655779
56,127,29,-2.411353312,-5.499843,-54.518832,5.063392863
57,128,5,-54.17359622,-8.137417,-24.85801,0.096018422
58,128,10,-51.65051216,25.177371,-4.023034,2.619102479
59,128,13,-53.58711632,-37.13066,-36.345723,0.682498323
60,128,15,-57.08025094,-9.213054,-45.294013,-2.810636298
61,128,18,-55.2471723,-17.124906,-30.45556,-0.977557658
62,128,20,-53.87076954,2.758852,-28.532009,0.3988451
63,128,26,-53.72681757,-10.631644,-7.562872,0.542797065
64,128,29,-55.17234648,-11.373539,-54.318476,-0.90273184
65,129,5,-39.25310708,-6.459366,-24.829048,1.902840056
66,129,10,-39.19421149,19.834673,-3.967378,1.961735641
67,129,13,-39.17740881,-32.429795,-36.298027,1.978538322
68,129,15,-39.66957082,-2.638759,-45.201058,1.486376308
69,129,18,-40.0655891,-10.92555,-30.340905,1.090358034
70,129,20,-39.10170598,3.00326,-28.409963,2.054241151
71,129,26,-41.64213025,-7.319215,-7.494562,-0.48618312
72,129,29,-38.34020724,-6.057828,-54.175921,2.815739895
73,130,5,-15.38164637,-8.053243,-24.833427,-2.861238032
74,130,10,-12.62314274,29.517374,-3.865361,-0.10273441
75,130,13,-20.22599435,-17.866371,-36.21126,-7.705586015
76,130,15,-14.83404937,-8.044528,-45.030655,-2.313641036
77,130,18,-14.60716396,-11.004969,-30.284503,-2.08675563
78,130,20,-14.00877993,-2.43751,-28.262766,-1.488371595
79,130,26,-15.21214302,-13.932209,-7.502997,-2.69173469
80,130,29,-17.05574265,-10.969133,-54.020106,-4.535334313
81,131,5,-16.55441229,-14.264557,-24.835977,-1.82446323
82,131,10,-8.846014296,64.277037,-3.816169,5.883934767
83,131,13,-14.86806501,-19.372244,-36.178362,-0.138115949
84,131,15,-13.82626384,-16.311252,-44.958818,0.903685221
85,131,18,-13.32412476,-16.923023,-30.251796,1.405824307
86,131,20,-11.4550884,-5.024081,-28.1905,3.274860666
87,131,26,-13.09773959,-11.459424,-7.497561,1.632209474
88,131,29,-12.91320974,-15.1451,-53.947689,1.816739321
89,132,5,-42.82359221,-17.905597,-24.784211,-1.113104128
90,132,10,-42.02913252,37.774842,-3.796278,-0.318644435
91,132,13,-43.81904836,-9.692887,-36.101397,-2.10856028
92,132,15,-45.04881172,-26.863058,-44.854908,-3.338323634
93,132,18,-41.70566528,-20.300231,-30.17786,0.004822806
94,132,20,-41.57448631,-6.290504,-28.112954,0.136001774
95,132,26,-39.92655949,3.381124,-7.474536,1.783928595
96,132,29,-43.63021008,-22.229389,-53.819111,-1.919722001
97,133,5,-81.34834028,-9.876503,-24.68133,0.59970878
98,133,10,-79.23251215,38.24919,-3.768343,2.715536909
99,133,13,-82.73565075,-12.359885,-35.942153,-0.787601696
100,133,15,-82.72103252,-17.075525,-44.649046,-0.772983468
101,133,18,-79.69934034,-13.205985,-30.051435,2.248708719
102,133,20,-80.12876806,-4.290842,-27.979806,1.819280994
103,133,26,-79.38876027,-12.748503,-7.448559,2.559288785
104,133,29,-80.27283507,-15.566077,-53.578941,1.675213989
105,134,5,-53.22765819,-6.878494,-24.572408,-1.696698799
106,134,10,-52.51626775,29.233207,-3.747803,-0.985308363
107,134,13,-54.71800163,-9.017836,-35.804937,-3.187042239
108,134,15,-57.83559332,-15.949814,-44.474362,-6.30463393
109,134,18,-52.88781942,-3.941823,-29.892949,-1.35686003
110,134,20,-53.49922483,-5.845202,-27.844028,-1.96826544
111,134,26,-49.48925533,1.404293,-7.382536,2.041704062
112,134,29,-56.1761143,-12.181665,-53.339959,-4.645154915
113,135,5,-96.60836809,-6.470292,-24.316528,0.808075971
114,135,10,-95.17985362,31.415541,-3.736783,2.236590438
115,135,13,-99.3492251,-6.822477,-35.472621,-1.932781038
116,135,15,-97.97578819,-13.265014,-44.07718,-0.559344127
117,135,18,-96.93808843,-6.266972,-29.590717,0.478355633
118,135,20,-96.67590683,1.080111,-27.593329,0.740537227
119,135,26,-95.94168908,-17.091895,-7.288865,1.474754976
120,135,29,-96.59462428,-10.549272,-52.834132,0.821819782
121,136,5,-40.4428302,-2.403211,-24.161951,0.029682531
122,136,10,-39.9436812,76.246166,-3.716842,0.528831535
123,136,13,-43.22918068,4.645552,-35.267593,-2.756667943
124,136,15,-41.75691051,-10.852878,-43.823288,-1.284397773
125,136,18,-39.66694815,-1.370456,-29.392332,0.805564583
126,136,20,-39.6022265,3.519664,-27.42004,0.870286236
127,136,26,-38.05187837,-12.535663,-7.222358,2.420634368
128,136,29,-40.50329405,-0.513356,-52.508176,-0.030781318
129,137,5,-39.38797411,-4.533571,-24.051947,0.740823732
130,137,10,-45.18009509,48.94619,-3.52639,-5.051297251
131,137,13,-42.71730466,3.576022,-34.868716,-2.588506817
132,137,15,-47.35992845,-13.174133,-43.226467,-7.231130609
133,137,18,-44.76708267,-8.960976,-29.252649,-4.638284828
134,137,20,-47.49199247,9.037935,-27.064994,-7.363194624
135,137,26,-41.34339929,-22.943594,-7.328155,-1.214601449
136,137,29,-47.3878489,-2.113803,-51.984446,-7.259051061
137,138,5,-72.70961888,-0.682404,-23.834446,0.321733271
138,138,10,-69.89231078,34.847087,-3.353245,3.139041373
139,138,13,-73.43958018,9.931428,-34.340086,-0.408228027
140,138,15,-73.83303936,-5.961264,-42.48902,-0.80168721
141,138,18,-69.97425929,4.087213,-29.010157,3.057092867
142,138,20,-70.63484056,-1.064141,-26.64015,2.396511597
143,138,26,-69.73371446,-22.043823,-7.407795,3.297637694
144,138,29,-70.85866486,-0.199154,-51.282418,2.17268729
145,139,5,-69.80545115,-9.31242,-23.722229,0.636480913
146,139,10,-70.27505294,54.749817,-3.340151,0.166879124
147,139,13,-71.0695918,7.045717,-34.203572,-0.627659734
148,139,15,-73.39511141,-17.566467,-42.320124,-2.95317935
149,139,18,-69.10202291,3.144711,-28.85482,1.339909155
150,139,20,-69.37426191,-5.71698,-26.513066,1.067670156
151,139,26,-66.4723785,-19.044401,-7.343118,3.969553562
152,139,29,-70.10835711,-12.314553,-51.048999,0.333574949
153,140,5,-28.99601289,-0.106974,-23.605697,-2.177132623
154,140,10,-31.30411179,34.059492,-3.327773,-4.485231528
155,140,13,-28.14132009,-0.241138,-34.060343,-1.322439829
156,140,15,-29.44154731,-7.172889,-42.143815,-2.622667043
157,140,18,-30.36244942,3.842943,-28.697279,-3.54356916
158,140,20,-33.05046061,2.354181,-26.383731,-6.231580349
159,140,26,-29.65131453,-9.059693,-7.279825,-2.832434265
160,140,29,-33.10211095,-0.649864,-50.808401,-6.283230685
161,141,5,-19.12599445,0.116909,-23.490069,1.552453344
162,141,10,-20.91172998,44.855996,-3.315923,-0.233282186
163,141,13,-18.09488572,-7.598751,-33.91792,2.583562078
164,141,15,-19.12579565,-13.595298,-41.9688,1.552652145
165,141,18,-20.1238699,-2.348549,-28.542152,0.554577895
166,141,20,-21.64493181,-10.26847,-26.256293,-0.966484012
167,141,26,-20.35408338,-5.739071,-7.218151,0.324364416
168,141,29,-18.64018408,-9.088832,-50.570367,2.038263714
169,142,5,-4.454143806,-8.288371,-23.377096,4.707745004
170,142,10,-11.48924147,34.477875,-3.30599,-2.327352665
171,142,13,2.988118157,-2.929266,-33.781856,12.15000697
172,142,15,-0.236465344,-15.498532,-41.802552,8.925423465
173,142,18,-12.88979194,-8.780224,-28.389767,-3.727903126
174,142,20,-11.15280411,-11.768098,-26.133721,-1.990915305
175,142,26,-17.08941903,-5.444507,-7.155384,-7.927530222
176,142,29,-3.769758493,-11.54343,-50.340607,5.392130317
177,143,5,-14.52442194,-12.77161,-23.278551,2.717527156
178,143,10,-18.07546286,46.009974,-3.294699,-0.83351376
179,143,13,-13.74188935,-3.696731,-33.664361,3.500059746
180,143,15,-15.12319007,-13.220853,-41.657187,2.118759025
181,143,18,-15.20881774,-2.033445,-28.251407,2.03313136
182,143,20,-18.18343397,-10.57615,-26.02185,-0.941484877
183,143,26,-17.14741034,-0.398397,-7.095601,0.094538755
184,143,29,-14.47522959,-12.51567,-50.136337,2.766719507
185,144,5,-14.42442405,-8.252633,-23.182125,1.562445279
186,144,10,-17.43352072,44.080276,-3.294765,-1.446651393
187,144,13,-13.24012613,3.275655,-33.56669,2.7467432
188,144,15,-15.02694184,-11.855369,-41.542794,0.959927484
189,144,18,-17.09107068,-1.26547,-28.114462,-1.104201354
190,144,20,-18.02079318,-15.991088,-25.926592,-2.033923848
191,144,26,-18.83885935,-4.10463,-7.025479,-2.85199002
192,144,29,-16.2680368,-10.833267,-49.955049,-0.281167471
193,145,5,-13.66929028,-0.271206,-23.074346,1.699577208
194,145,13,-11.62056119,3.461661,-33.470953,3.748306296
195,145,15,-12.61214803,-16.978765,-41.438846,2.756719456
196,145,18,-15.09096298,-0.660124,-27.965371,0.277904509
197,145,20,-14.40478517,-5.390892,-25.837051,0.964082314
198,145,26,-17.62197307,-0.850841,-6.942187,-2.253105587
199,145,29,-13.45390782,-12.337285,-49.771981,1.914959662
200,146,5,-42.61035294,3.479038,-22.955296,1.365711609
201,146,10,-48.00468736,52.870091,-3.321891,-4.028622809
202,146,13,-46.46440823,2.95318,-33.363082,-2.488343685
203,146,15,-50.98162535,-1.488906,-41.322651,-7.005560805
204,146,18,-47.32878225,6.503079,-27.805571,-3.352717705
205,146,20,-49.29599376,0.04154,-25.741665,-5.31992921
206,146,26,-44.08270072,2.908059,-6.85533,-0.106636172
207,146,29,-49.72440905,3.461294,-49.572087,-5.748344503
208,147,5,-87.61071628,2.362654,-22.819337,1.328798021
209,147,13,-89.61059294,3.504917,-33.245115,-0.671078641
210,147,15,-89.7201498,-2.59325,-41.201148,-0.780635503
211,147,16,-87.91089203,43.638459,10.200537,1.028622272
212,147,18,-86.0781979,17.187899,-27.629017,2.861316399
213,147,20,-85.79262295,2.695613,-25.644227,3.146891348
214,147,26,-85.51347232,0.800246,-6.757718,3.426041979
215,147,29,-86.65167053,1.435554,-49.355701,2.287843766
216,148,5,-87.9527499,-3.256122,-22.673089,2.166742365
217,148,13,-90.36588895,6.406965,-33.123301,-0.246396681
218,148,15,-92.33876907,-5.852046,-41.080242,-2.219276809
219,148,18,-89.14533008,7.15734,-27.442353,0.974162183
220,148,20,-88.52753374,1.999663,-25.547746,1.591958522
221,148,26,-86.89300616,1.01622,-6.652252,3.226486104
222,148,29,-88.97115683,-0.928637,-49.132055,1.14833543
223,149,5,-83.33801311,4.030045,-22.515669,1.80701784
224,149,13,-85.61440108,9.870828,-32.997553,-0.469370128
225,149,15,-88.55307645,0.787756,-40.960289,-3.408045499
226,149,18,-84.66699954,8.83231,-27.244419,0.478031407
227,149,20,-84.30668366,-1.386035,-25.452247,0.838347289
228,149,26,-81.97526406,-13.514033,-6.537884,3.169766888
229,149,29,-85.07486128,2.666747,-48.900569,0.070169673
230,150,5,-40.00630456,-5.168812,-22.314813,0.686461024
231,150,13,-42.53592829,-5.02354,-32.850137,-1.843162707
232,150,15,-46.66219011,-10.317901,-40.834198,-5.969424528
233,150,18,-43.8285359,2.404952,-27.004968,-3.135770319
234,150,20,-45.61102866,-10.814432,-25.356792,-4.918263075
235,150,26,-40.02814669,-13.45946,-6.394562,0.66461889
236,150,29,-45.82335349,-13.571417,-48.632913,-5.130587902
237,151,5,-95.81069614,-6.33132,-22.069863,2.026275681
238,151,13,-99.27469532,7.866792,-32.682913,-1.437723495
239,151,15,-97.176297,-1.738775,-40.705418,0.660674819
240,151,18,-98.03973949,3.383263,-26.723143,-0.202767671
241,151,20,-96.66013977,-18.209319,-25.263179,1.176832057
242,151,26,-98.28183379,0.881271,-6.220364,-0.444861965
243,151,29,-96.46401517,-9.548054,-48.330931,1.372956654
244,152,5,-36.91230506,-39.344175,-21.819524,-0.904644087
245,152,10,-38.15225741,-1.637766,-3.694157,-2.14459644
246,152,13,-38.21727939,-25.862453,-32.515881,-2.209618423
247,152,15,-40.53635215,-23.546091,-40.582371,-4.528691182
248,152,18,-38.24413028,-21.791496,-26.441038,-2.236469311
249,152,20,-36.87100075,-33.223995,-25.177016,-0.863339782
250,152,25,-38.13010686,70.017974,-22.557103,-2.122445888
251,152,26,-35.52320333,-21.835093,-6.044761,0.484457639
252,152,29,-39.46640515,-37.720513,-48.032156,-3.458744183
253,153,5,-46.08411683,-15.718003,-21.684039,-2.539016921
254,153,13,-48.58585723,-8.403281,-32.390622,-5.040757323
255,153,15,-50.89186156,-14.239831,-40.439161,-7.346761653
256,153,18,-46.4595712,-8.952415,-26.236589,-2.914471295
257,153,20,-45.49543801,-21.304196,-25.045584,-1.950338097
258,153,25,-46.75651736,86.488546,-22.486031,-3.211417456
259,153,26,-43.68177853,-28.152233,-5.929325,-0.136678622
260,153,29,-50.33910672,-20.120129,-47.783857,-6.79400681
261,154,5,-49.07918031,-4.019001,-21.634105,-2.264426064
262,154,10,-47.794151,-11.526436,-3.639176,-0.97939675
263,154,13,-51.10066047,-5.619676,-32.32042,-4.285906218
264,154,15,-53.98157019,-7.903173,-40.317822,-7.166815937
265,154,16,-49.41425342,14.722738,10.728065,-2.599499168
266,154,18,-48.90890657,1.273643,-26.082898,-2.094152316
267,154,20,-48.84275913,1.748468,-24.895395,-2.028004875
268,154,26,-46.02083851,-3.600866,-5.838659,0.79391574
269,154,29,-53.05090819,-8.471433,-47.59471,-6.236153943
270,155,5,-31.47656982,-13.01297,-21.561284,0.268271967
271,155,10,-33.62429234,60.456856,-3.602268,-1.879450558
272,155,13,-33.61461785,-4.113773,-32.261635,-1.869776062
273,155,15,-36.20841362,-8.514298,-40.225377,-4.463571834
274,155,18,-36.15314281,0.096872,-25.891549,-4.408301023
275,155,20,-36.09907135,-3.702599,-24.750776,-4.354229569
276,155,26,-34.03009345,-8.492989,-5.706406,-2.285251665
277,155,29,-36.87843201,-12.472054,-47.399439,-5.133590221
278,156,5,-11.99837363,0.071107,-21.556309,3.142375968
279,156,10,-12.82175893,42.71,-3.501247,2.318990673
280,156,13,-14.43715573,3.82497,-32.247896,0.703593876
281,156,15,-15.33745299,-5.373619,-40.143142,-0.196703391
282,156,18,-14.24450521,-1.528433,-25.713151,0.896244387
283,156,20,-14.52575975,4.177355,-24.566018,0.614989856
284,156,26,-15.07885065,-7.006277,-5.571085,0.061898947
285,156,29,-13.69858448,-3.156796,-47.229215,1.44216512
286,157,5,-47.48343801,-4.198074,-21.650462,2.022041681
287,157,10,-45.65782419,14.853273,-3.310362,3.847655501
288,157,13,-48.84328943,-3.850359,-32.298802,0.662190263
289,157,15,-48.44345636,-7.034878,-40.076886,1.062023324
290,157,18,-48.44484939,-5.804357,-25.562452,1.060630296
291,157,20,-46.77333194,2.799553,-24.330027,2.732147751
292,157,25,-46.57562598,73.547677,-21.95618,2.929853706
293,157,26,-48.36824551,-7.345163,-5.43898,1.137234176
294,157,29,-46.39829297,-4.950375,-47.101656,3.107186715
295,158,5,-15.34435683,-8.972158,-21.646548,-7.471538561
296,158,10,1.489414399,35.953726,-3.231926,9.362232664
297,158,13,-13.96926375,-15.389957,-32.415145,-6.096445482
298,158,15,-9.889658561,-9.250886,-40.164646,-2.016840295
299,158,18,-6.829304774,-5.514282,-25.259486,1.043513491
300,158,20,-3.242634263,-0.944851,-24.141642,4.630184002
301,158,26,-5.356682534,-6.18676,-5.126128,2.516135732
302,158,29,-9.788081791,-8.202019,-46.974816,-1.915263526
303,159,5,-84.86114476,-9.629356,-20.729924,2.826876956
304,159,10,-83.83393793,61.104982,-3.703431,3.854083794
305,159,13,-87.24981775,-9.566641,-31.729737,0.438203968
306,159,15,-88.62835711,-9.131115,-39.678931,-0.940335388
307,159,18,-85.97346085,-6.792986,-24.447102,1.714560871
308,159,20,-84.5159706,5.144582,-23.990283,3.172051123
309,159,26,-86.97441179,-10.876135,-4.703497,0.713609927
310,159,29,-85.38184846,-8.205913,-45.998752,2.306173261
311,160,5,-57.75268513,-12.408179,-18.918771,-0.076564007
312,160,10,-52.10015088,25.998745,-4.195707,5.575970239
313,160,13,-59.76055836,-13.363996,-29.699504,-2.084437235
314,160,15,-59.59192811,-11.145568,-37.627365,-1.915806984
315,160,18,-55.59674682,-3.479926,-22.887925,2.079374306
316,160,20,-54.03471424,-5.883972,-23.125499,3.641406877
317,160,25,-54.576089,54.558841,-21.546535,3.100032117
318,160,26,-56.26792737,2.190923,-4.310169,1.408193752
319,160,29,-55.47670803,-5.081306,-43.330914,2.199413095
320,161,5,-23.51518749,-11.577602,-15.694301,-4.377739005
321,161,10,-11.35188785,57.012278,-5.820823,7.785560635
322,161,13,-22.36938971,-12.912799,-27.29315,-3.231941224
323,161,15,-19.00375518,-7.193697,-35.904062,0.133693303
324,161,18,-16.97082181,-3.630265,-19.937614,2.166626676
325,161,20,-14.37624757,-4.855403,-22.523893,4.76120092
326,161,25,-14.8125686,4.20065,-22.151937,4.324879887
327,161,26,-15.50613527,-8.892368,-2.746846,3.631313214
328,161,29,-18.37245626,-6.461987,-39.836843,0.764992225
329,162,5,-11.54235332,-8.776546,-13.267488,-1.460027725
330,162,10,-9.192889414,51.826323,-6.93185,0.88943618
331,162,13,-16.03686181,-12.202485,-25.337624,-5.954536214
332,162,15,-17.15322847,-15.078576,-34.362113,-7.070902878
333,162,16,-4.480036231,-2.418102,13.550586,5.602289362
334,162,18,-9.227576101,-7.298026,-17.694947,0.854749492
335,162,20,-11.43254142,-2.03011,-21.917471,-1.350215827
336,162,25,-13.7865028,-6.491709,-22.391868,-3.704177206
337,162,26,-6.302699837,-2.565914,-1.639421,3.779625756
338,162,29,-14.45523703,-10.750463,-37.021779,-4.372911433
339,163,5,-10.37049456,0.336991,-12.993895,0.517083993
340,163,10,-11.67938477,32.685871,-7.153906,-0.791806218
341,163,13,-15.24518115,-8.092036,-25.415902,-4.357602589
342,163,15,-16.68977415,-4.629831,-34.608135,-5.802195594
343,163,18,-10.04265978,-0.159059,-17.239436,0.844918777
344,163,20,-13.67161586,-3.123743,-21.92107,-2.784037307
345,163,25,-15.43296257,-9.900119,-22.707897,-4.545384017
346,163,26,-8.577439817,-2.576065,-1.173949,2.31013874
347,163,29,-14.60969565,-5.784831,-36.876367,-3.722117094
348,164,5,-12.85445032,-5.252966,-11.171765,2.598757207
349,164,10,-16.0344479,-2.09987,-7.283946,-0.581240373
350,164,13,-15.29755939,-10.037116,-22.769973,0.155648135
351,164,15,-17.55250966,-10.308318,-31.586955,-2.099302138
352,164,18,-14.18090416,-8.587488,-15.76623,1.272303368
353,164,20,-16.96441943,-6.496423,-20.596333,-1.511211904
354,164,25,-19.27945807,-4.986434,-21.365711,-3.826250541
355,164,26,-14.75505918,5.891994,-1.216781,0.698148343
356,164,29,-15.71437809,-10.200999,-33.578432,-0.26117056
357,165,5,-20.42046175,-2.308146,-10.31352,1.850831308
358,165,10,-21.14269895,-4.33828,-7.543924,1.128594107
359,165,13,-20.67987692,2.210191,-21.249311,1.591416137
360,165,15,-22.94974813,-3.092678,-29.964807,-0.678455076
361,165,18,-20.36590422,-4.463496,-15.808911,1.905388839
362,165,20,-21.43610651,1.117198,-20.434949,0.835186546
363,165,25,-24.75316872,-11.092808,-20.785835,-2.481875662
364,165,26,-21.21413357,2.19214,-1.991898,1.057159487
365,165,29,-21.49591874,-7.610204,-32.337268,0.775374312
366,166,5,-7.392854629,-3.304419,-9.814997,2.330901088
367,166,10,-12.39538445,3.564146,-7.883663,-2.671628729
368,166,13,-12.24673347,1.707583,-21.015274,-2.522977752
369,166,15,-14.34113947,-2.415771,-29.920952,-4.617383758
370,166,18,-8.003598836,12.107866,-15.34289,1.72015688
371,166,20,-13.60163464,4.677314,-20.45558,-3.877878926
372,166,25,-16.0476823,4.688328,-21.061773,-6.323926581
373,166,26,-7.282333101,4.225535,-1.66063,2.441422615
374,166,29,-12.51005955,4.506763,-31.949336,-2.786303838
375,167,5,-16.41485171,3.84338,-9.729417,2.132176668
376,167,10,-18.60570485,-3.914694,-7.896042,-0.058676476
377,167,13,-17.43575204,-3.555204,-20.94572,1.11127634
378,167,15,-19.53197172,-8.833113,-29.848655,-0.984943347
379,167,16,-13.85083131,51.255328,12.50691,4.696197066
380,167,18,-17.50661382,-3.929292,-15.218749,1.040414558
381,167,20,-19.87622312,-0.609441,-20.386487,-1.329194747
382,167,25,-22.72115416,-1.789896,-21.035215,-4.174125787
383,167,26,-18.12828955,1.78484,-1.586688,0.418738826
384,167,29,-18.21507309,-0.404614,-31.810373,0.331955283
385,168,5,-28.05958451,6.089766,-9.663842,0.457467093
386,168,10,-28.45177472,-3.52837,-7.86796,0.065276881
387,168,13,-28.71823051,-2.042343,-20.827421,-0.201178911
388,168,15,-29.60019099,-0.592835,-29.691239,-1.083139393
389,168,16,-24.61648045,-0.001811,12.442273,3.900571153
390,168,18,-27.12570893,-1.75946,-15.138834,1.391342668
391,168,20,-28.92245978,1.877902,-20.288221,-0.405408174
392,168,25,-30.28132733,-3.397425,-20.931187,-1.764275725
393,168,26,-28.00107354,0.993176,-1.581322,0.515978062
394,168,29,-28.4606578,-2.411997,-31.641326,0.056393797
395,169,5,-30.21187329,2.91188,-9.711533,0.246066651
396,169,10,-30.47089802,-5.446177,-7.745112,-0.012958086
397,169,13,-30.81727146,3.590048,-20.691223,-0.359331517
398,169,15,-31.70953781,-1.0861,-29.447388,-1.251597869
399,169,18,-29.3752602,3.402209,-15.225775,1.08267974
400,169,20,-30.83372698,0.503804,-20.178756,-0.375787039
401,169,25,-31.95502604,1.677553,-20.69936,-1.497086102
402,169,26,-30.1194286,0.153878,-1.742791,0.338511337
403,169,29,-30.87822626,2.392916,-31.529713,-0.420286316
404,170,5,-27.69747046,6.291361,-9.637888,0.283601998
405,170,10,-27.49876449,-3.948901,-7.749876,0.482307972
406,170,13,-28.58990669,-3.134457,-20.103299,-0.608834226
407,170,15,-29.06501185,-7.538961,-28.749723,-1.083939389
408,170,18,-26.73328433,3.088037,-15.799305,1.247788134
409,170,20,-27.57667125,4.357219,-20.297303,0.404401212
410,170,25,-29.0750465,-2.827693,-20.341541,-1.093974041
411,170,26,-27.49291233,4.930609,-2.540809,0.488160132
412,170,29,-27.89797562,-0.634334,-31.378781,0.083096841
413,171,5,-31.17636343,-1.746478,-8.231134,-0.610310226
414,171,10,-29.66269535,1.823831,-7.422136,0.903357854
415,171,13,-31.66469004,-2.173537,-17.418244,-1.098636838
416,171,15,-32.42646392,2.381987,-25.371603,-1.860410723
417,171,16,-27.28682997,7.803698,9.657047,3.279223232
418,171,18,-29.49341086,5.879835,-14.690275,1.072642337
419,171,20,-29.74505329,4.653725,-18.71886,0.820999912
420,171,25,-30.79195512,-0.006718,-18.427015,-0.225901917
421,171,26,-30.22293541,3.722984,-2.981672,0.343117787
422,171,29,-31.1864029,0.980765,-28.111942,-0.620349699
423,172,5,-23.69247832,-3.313224,-5.721529,1.368466993
424,172,10,-24.08956855,10.46533,-7.629484,0.97137677
425,172,13,-24.59870893,-1.496813,-14.566492,0.462236383
426,172,15,-25.9317472,1.344783,-22.176703,-0.870801888
427,172,18,-23.30755661,2.918046,-11.667533,1.753388702
428,172,20,-24.60388329,-0.230071,-16.660326,0.457062024
429,172,25,-26.82547766,-2.665568,-17.112123,-1.764532346
430,172,26,-24.20994475,4.85407,-1.770367,0.851000571
431,172,29,-24.31806366,0.860354,-23.644593,0.742881659
432,173,5,-19.98166095,2.445136,-4.045993,1.705634725
433,173,10,-22.45344923,1.232361,-7.176704,-0.766153554
434,173,13,-20.81242706,-3.993562,-11.389364,0.874868619
435,173,15,-22.65081107,-6.261815,-18.137737,-0.963515389
436,173,18,-21.10495478,-5.823705,-10.197548,0.582340895
437,173,20,-23.20913926,-4.343955,-14.657523,-1.521843582
438,173,25,-25.29857651,-0.775739,-14.778042,-3.611280827
439,173,26,-21.69384449,-4.141557,-2.163298,-0.006548813
440,173,29,-21.4861894,-4.839981,-19.651471,0.201106279
441,174,5,-10.67062551,3.1676,-3.366108,3.118177152
442,174,10,-15.68795966,-1.25236,-7.80433,-1.899157002
443,174,13,-13.26200147,0.890686,-10.905776,0.526801194
444,174,15,-16.04886187,-1.753985,-17.987832,-2.260059209
445,174,18,-13.10784423,8.446572,-10.082603,0.680958428
446,174,20,-16.7617268,-0.538552,-15.044085,-2.972924139
447,174,25,-18.08611808,-5.900856,-15.242575,-4.297315419
448,174,26,-13.99286637,1.463535,-2.227871,-0.204063713
449,174,29,-14.27158237,1.502363,-19.38001,-0.482779713
450,175,5,-16.66191846,1.148315,-3.2235,2.381528273
451,175,10,-21.11886428,-0.561683,-7.771969,-2.075417556
452,175,13,-17.60336293,-3.999549,-10.583142,1.4400838
453,175,15,-20.94503349,-5.743966,-17.585566,-1.901586758
454,175,18,-19.63247921,-0.262536,-10.040073,-0.589032482
455,175,20,-21.949165,-3.065219,-14.904225,-2.905718274
456,175,25,-24.18684066,-0.22675,-15.015832,-5.143393927
457,175,26,-20.57456164,0.374168,-2.359806,-1.531114912
458,175,29,-19.89560586,-2.475092,-19.050202,-0.852159132
459,176,5,-18.65280193,2.237291,-2.573394,1.772361238
460,176,10,-23.62892463,-0.983336,-8.200612,-3.203761461
461,176,13,-18.95550025,-3.296606,-9.991255,1.469662917
462,176,15,-22.89048704,-8.253261,-17.176342,-2.465323867
463,176,18,-22.1330337,-2.019589,-9.775018,-1.707870531
464,176,20,-24.54389123,-7.186093,-15.005785,-4.118728057
465,176,25,-26.72299761,-7.730352,-15.187025,-6.297834444
466,176,26,-23.3301009,11.970785,-2.374818,-2.904937734
467,176,29,-22.11729958,0.360053,-18.50784,-1.692136408
468,177,5,-3.119210559,8.02771,-2.191058,4.524828233
469,177,10,-14.53163263,-7.54275,-8.443994,-6.887593833
470,177,13,-7.820798401,-5.888089,-9.587692,-0.176759608
471,177,15,-12.0990951,-3.718263,-16.863651,-4.455056303
472,177,18,-8.192034062,1.598382,-9.67627,-0.54799527
473,177,20,-15.35550037,-2.443096,-15.069619,-7.711461574
474,177,25,-18.48268569,-3.668692,-15.242384,-10.8386469
475,177,26,-9.632787608,10.834487,-2.46324,-1.988748815
476,177,29,-11.38904036,-2.034538,-18.173479,-3.745001572
477,178,5,0.156546224,-4.793708,-2.089464,6.916214031
478,178,10,-14.5707803,-4.914314,-8.303194,-7.811112495
479,178,13,-6.433934248,-1.97902,-9.374155,0.32573356
480,178,15,-10.95638482,-4.771696,-16.520471,-4.196717012
481,178,16,-3.134488071,6.754226,7.58148,3.625179736
482,178,18,-7.520135441,-3.995251,-9.402308,-0.760467633
483,178,20,-15.00267562,-5.539388,-14.748457,-8.243007814
484,178,25,-18.27253641,-9.992104,-14.958426,-11.51286861
485,178,26,-9.299779743,1.384879,-2.35231,-2.540111936
486,178,29,-10.47327881,-7.440054,-17.749442,-3.713611001
487,179,5,-0.364358753,14.760131,-2.28196,6.332392635
488,179,10,-13.9052435,-10.754493,-7.870252,-7.208492115
489,179,13,-6.546220419,2.958658,-9.437053,0.150530969
490,179,15,-10.61604141,0.953693,-16.309337,-3.91929002
491,179,18,-6.870118265,-3.266813,-9.052304,-0.173366877
492,179,20,-14.1266276,3.943622,-14.198518,-7.429876209
493,179,25,-17.29585845,2.336603,-14.491024,-10.59910706
494,179,26,-7.623806514,2.120994,-2.072391,-0.927055126
495,179,29,-9.869310839,3.836869,-17.413274,-3.172559451
496,180,5,-6.024817213,-7.98654,-2.255882,4.43028045
497,180,10,-15.07342357,7.013265,-7.953276,-4.618325906
498,180,13,-8.90836275,2.768558,-9.589416,1.546734913
499,180,15,-13.32671739,2.652814,-16.546465,-2.871619723
500,180,16,-4.91737244,12.808509,7.794704,5.537725223
501,180,18,-9.733463766,7.869323,-8.93824,0.721633897
502,180,20,-15.89109475,3.03346,-14.260877,-5.435997082
503,180,25,-18.80688303,1.060495,-14.679324,-8.351785365
504,180,26,-10.9123081,6.687448,-1.885721,-0.45721044
505,180,29,-12.37775814,6.829463,-17.508611,-1.92266048
506,181,5,-7.955002916,5.469415,-2.268969,2.734312888
507,181,10,-14.54259135,-2.279598,-7.804627,-3.853275543
508,181,13,-11.35441799,3.092752,-9.625713,-0.665102182
509,181,15,-14.38808553,-2.011153,-16.493539,-3.698769731
510,181,16,-4.816277214,4.391377,7.90511,5.87303859
511,181,18,-10.22851075,6.99272,-8.649256,0.460805052
512,181,20,-15.60214874,1.711392,-13.994083,-4.912832936
513,181,25,-17.77630917,-3.880602,-14.531806,-7.086993362
514,181,26,-10.61444194,6.771629,-1.635551,0.074873864
515,181,29,-12.80504982,4.003444,-17.296871,-2.115734012
516,182,5,-7.868259068,4.741751,-2.893199,2.336142051
517,182,10,-13.42063554,-9.054706,-6.891004,-3.216234424
518,182,13,-12.50666091,-2.69112,-10.211289,-2.302259796
519,182,15,-14.97700927,-7.509742,-16.582961,-4.772608149
520,182,16,-4.746186432,0.873546,8.141703,5.458214687
521,182,18,-9.255905862,-2.203084,-7.936633,0.948495257
522,182,20,-14.70289887,-1.31678,-12.971553,-4.49849775
523,182,25,-16.61983522,0.727013,-13.810402,-6.415434098
524,182,26,-8.925770561,4.39022,-0.835539,1.278630558
525,182,29,-13.20014668,0.213372,-17.011165,-2.995745559
526,183,5,-9.255686364,-6.898124,-3.449045,1.018241366
527,183,10,-12.42674746,-16.935155,-5.781456,-2.152819729
528,183,13,-14.01528735,-2.780972,-10.577171,-3.741359625
529,183,15,-16.02319507,-0.586801,-16.285157,-5.749267338
530,183,16,-5.488080006,1.305354,8.241027,4.785847724
531,183,18,-9.534504758,5.780555,-6.945353,0.739422972
532,183,20,-14.0612541,-0.264646,-11.57406,-3.787326375
533,183,25,-15.54881079,7.048816,-12.739505,-5.274883062
534,183,26,-8.568754031,6.042283,0.070728,1.705173699
535,183,29,-14.27402641,-0.782709,-16.270763,-4.000098683
536,184,5,-9.274328339,-1.388975,-3.638235,0.12873128
537,184,10,-11.11571956,-1.920544,-4.972522,-1.712659945
538,184,13,-14.07823019,-2.659349,-10.55971,-4.675170574
539,184,15,-15.41255034,-4.534086,-15.735356,-6.00949072
540,184,16,-3.955976136,7.043499,8.256309,5.447083483
541,184,18,-8.258121249,-5.753809,-5.978514,1.144938371
542,184,20,-12.59249686,2.817516,-10.358868,-3.189437242
543,184,25,-14.26271651,3.401369,-11.802638,-4.859656888
544,184,26,-6.805509408,3.730457,0.799862,2.597550211
545,184,29,-13.67955047,0.247389,-15.315906,-4.276490854
546,185,5,-5.971657302,3.63837,-3.605475,0.638539356
547,185,10,-7.698556635,-12.339453,-4.659928,-1.088359977
548,185,13,-11.13389337,-3.296375,-10.457913,-4.523696715
549,185,15,-12.76260249,-2.681959,-15.41302,-6.152405832
550,185,16,1.38794596,11.549131,8.308982,7.998142618
551,185,18,-4.540474823,20.816538,-5.428398,2.069721835
552,185,20,-9.385118852,3.29033,-9.777502,-2.774922194
553,185,25,-12.77723909,4.210554,-11.391095,-6.16704243
554,185,26,-3.065040843,2.217497,1.187015,3.545155815
555,185,29,-10.37933509,1.828222,-14.746813,-3.769138433
556,186,5,-4.161210131,5.726951,-3.37748,1.31824824
557,186,10,-6.861191414,1.395683,-4.636894,-1.381733043
558,186,13,-9.729914672,1.930439,-10.119488,-4.250456301
559,186,15,-12.61049101,-2.558372,-15.001074,-7.131032634
560,186,16,3.808363925,3.301859,8.192649,9.287822296
561,186,18,-2.733879631,8.468205,-5.179072,2.74557874
562,186,20,-7.56043161,2.733099,-9.542222,-2.080973239
563,186,25,-12.24744193,-4.639576,-11.175276,-6.767983555
564,186,26,-0.909187197,0.407542,1.228942,4.570271174
565,186,29,-8.531761964,2.535932,-14.271529,-3.052303592
566,187,5,-3.303621292,3.505325,-2.953292,2.210916259
567,187,10,-6.777718388,-0.11675,-4.883705,-1.263180837
568,187,13,-9.034033904,-4.525311,-9.793541,-3.519496353
569,187,15,-12.4602901,-2.706135,-14.785463,-6.94575255
570,187,16,4.886501153,37.746992,8.34762,10.4010387
571,187,18,-1.774649204,6.332382,-4.864267,3.739888347
572,187,20,-7.21981245,1.787962,-9.526428,-1.705274899
573,187,25,-12.2657463,0.032388,-11.289454,-6.751208752
574,187,26,-0.109190579,6.773509,1.36889,5.405346971
575,187,29,-7.60463733,2.894013,-13.868453,-2.090099779
576,188,5,-0.65064439,7.264229,-2.601412,4.280725531
577,188,10,-7.004993523,11.114342,-5.086214,-2.073623602
578,188,13,-7.500620052,-4.77893,-9.451743,-2.569250131
579,188,15,-12.16305737,-7.100889,-14.519612,-7.231687446
580,188,16,6.914358734,16.765519,8.354346,11.84572865
581,188,18,0.660219581,4.715946,-4.692612,5.591589502
582,188,20,-7.347985149,2.915467,-9.534829,-2.416615228
583,188,25,-12.60815845,0.290141,-11.336804,-7.676788525
584,188,26,1.581809965,1.738852,1.370234,6.513179886
585,188,29,-5.587870403,0.655973,-13.527504,-0.656500482
586,189,5,-2.008087715,6.346566,-2.445115,2.744988027
587,189,10,-6.898691221,3.991939,-5.409959,-2.145615479
588,189,13,-7.982086954,-2.162468,-9.428898,-3.229011211
589,189,15,-12.46725417,-0.074674,-14.707202,-7.714178427
590,189,16,6.082204697,0.12733,8.453982,10.83528044
591,189,18,-0.367399333,1.013926,-4.891662,4.38567641
592,189,20,-7.287111376,6.299303,-9.921355,-2.534035634
593,189,25,-12.29822797,-5.786184,-11.699041,-7.545152227
594,189,26,1.049982537,7.429988,1.226172,5.803058279
595,189,29,-6.275031917,4.11778,-13.762031,-1.521956175
596,190,5,-2.528946968,7.57412,-2.563309,2.368913507
597,190,10,-6.869276167,-14.754955,-5.171846,-1.971415692
598,190,13,-8.444294597,-3.507366,-9.110507,-3.546434122
599,190,15,-12.47167573,-0.34537,-14.167555,-7.573815251
600,190,16,5.491482917,-8.82136,7.793571,10.38934339
601,190,18,-1.087634615,-0.40537,-5.196964,3.81022586
602,190,20,-7.2899093,4.076444,-9.762305,-2.392048825
603,190,25,-11.98433226,2.362614,-11.219139,-7.086471784
604,190,26,0.479508568,9.650526,0.767159,5.377369043
605,190,29,-6.956261864,1.779668,-13.583196,-2.05840139
606,191,5,-3.163259513,-4.914269,-2.487941,1.774426737
607,191,10,-6.88402913,0.349199,-4.420647,-1.94634288
608,191,13,-9.275130861,-3.340326,-8.099879,-4.337444611
609,191,15,-12.71732185,-5.523152,-12.47381,-7.779635595
610,191,16,4.700079791,-7.094131,6.60247,9.637766041
611,191,18,-1.851155341,-2.212187,-4.882923,3.086530909
612,191,20,-7.359109594,-1.528801,-8.642848,-2.421423344
613,191,25,-12.13653628,-5.631138,-9.752678,-7.19885003
614,191,26,-0.060239547,6.451825,0.430239,4.877446703
615,191,29,-7.718541767,-4.644135,-12.179667,-2.780855517
616,192,5,-9.393627614,0.27183,-2.486046,0.115491583
617,192,10,-11.33745189,2.176125,-3.904313,-1.828332694
618,192,13,-14.11257266,-5.746839,-7.455601,-4.603453462
619,192,15,-15.4345005,-10.645174,-11.368137,-5.925381299
620,192,18,-8.425385811,-7.442225,-4.744056,1.083733386
621,192,20,-12.79215685,-0.571025,-7.924362,-3.283037656
622,192,25,-14.41969461,-8.343714,-8.770578,-4.910575412
623,192,26,-6.967853988,0.885207,0.157163,2.541265209
624,192,29,-13.75251031,-6.881144,-11.310349,-4.243391118
625,193,5,-10.17433479,6.227824,-2.570454,-0.059627383
626,193,10,-11.80961598,-4.729955,-3.693068,-1.694908576
627,193,13,-14.92459573,-3.332396,-7.350868,-4.809888321
628,193,15,-16.29946047,-2.57947,-11.103206,-6.184753064
629,193,16,-5.870838392,16.386244,5.530816,4.243869017
630,193,18,-9.326934723,2.827426,-4.723584,0.787772686
631,193,20,-13.37921261,0.389109,-7.6914,-3.264505197
632,193,25,-14.84319108,-0.736279,-8.458621,-4.728483668
633,193,26,-7.807307031,5.137247,0.094482,2.307400377
634,193,29,-14.58957364,2.175252,-11.121792,-4.474866234
635,194,5,-22.31707438,-4.630643,-2.660644,0.64297617
636,194,10,-22.71323567,2.596774,-3.266116,0.246814875
637,194,13,-22.91227907,-3.691347,-6.818908,0.047771476
638,194,15,-24.66843126,-7.27031,-10.186214,-1.70838071
639,194,16,-20.61249451,22.62602,4.659554,2.34755604
640,194,18,-23.07351641,3.996881,-4.870088,-0.113465862
641,194,20,-23.61027713,-0.034981,-7.223766,-0.650226589
642,194,25,-22.42093032,1.623456,-7.636518,0.539120227
643,194,26,-23.94397727,-4.045159,-0.358667,-0.983926729
644,194,29,-22.70951774,-3.276729,-10.572998,0.250532808
645,195,5,-28.82897769,5.038864,-2.234462,0.366745338
646,195,10,-29.09884671,2.46129,-3.004091,0.096876317
647,195,13,-29.45554147,-4.081268,-5.664241,-0.259818447
648,195,15,-30.40267793,2.349237,-8.647943,-1.206954903
649,195,16,-26.64532671,-5.767044,3.664344,2.550396319
650,195,18,-28.88925288,13.068367,-4.668628,0.306470143
651,195,20,-29.46314919,6.861214,-6.568355,-0.267426159
652,195,25,-28.52628809,4.431475,-6.663104,0.669434941
653,195,26,-29.67248366,2.130609,-0.804479,-0.476760635
654,195,29,-28.7493561,5.991507,-9.29988,0.446366928
655,196,5,-30.77936531,0.738484,-1.564307,0.066994717
656,196,10,-30.82824109,0.835647,-2.636619,0.01811893
657,196,13,-31.31084514,-3.705383,-4.009947,-0.464485121
658,196,15,-32.29155333,-0.142737,-6.451332,-1.44519331
659,196,16,-28.34374748,-0.078915,2.355161,2.502612546
660,196,18,-30.57228303,18.136123,-4.223528,0.274076987
661,196,20,-31.19628958,-2.571497,-5.561334,-0.349929555
662,196,25,-30.11378378,-9.228354,-5.284904,0.732576243
663,196,26,-31.25443377,17.795729,-1.30571,-0.40807375
664,196,29,-30.49354918,0.090265,-7.376936,0.352810844
665,197,5,-21.94676512,2.466908,-1.137102,0.737865832
666,197,10,-22.95062554,-2.893163,-2.919704,-0.265994587
667,197,13,-22.67523805,-1.314839,-3.775689,0.009392901
668,197,15,-24.64202037,-2.145826,-6.369177,-1.957389424
669,197,16,-20.49931573,3.561277,2.656629,2.185315215
670,197,18,-23.15673763,4.793174,-3.846905,-0.472106679
671,197,20,-23.91681014,2.764499,-5.574584,-1.232179193
672,197,25,-22.19460671,3.195916,-5.499284,0.490024244
673,197,26,-23.94857147,2.590991,-1.061023,-1.263940519
674,197,29,-22.49293273,1.789981,-7.030822,0.191698223
675,198,5,-19.3390606,1.879404,-0.953789,1.432183233
676,198,10,-21.19339664,-1.905989,-3.050514,-0.422152805
677,198,13,-20.21356642,-9.590351,-3.698034,0.557677411
678,198,15,-22.28984303,0.454188,-6.367423,-1.518599193
679,198,16,-18.59063955,32.529653,2.819579,2.180604284
680,198,18,-21.05922438,17.926412,-3.673606,-0.287980547
681,198,20,-22.48816574,0.618131,-5.589338,-1.716921904
682,198,25,-21.22130853,1.568524,-5.615609,-0.4500647
683,198,26,-21.80934011,-23.100365,-0.933232,-1.038096272
684,198,29,-20.24519387,2.355456,-6.899235,0.526049959
685,199,5,-22.07799641,2.834185,-0.958023,1.189299824
686,199,10,-24.25443165,0.363137,-2.98225,-0.987135421
687,199,13,-22.71385298,-4.290906,-3.551856,0.553443253
688,199,15,-24.78711868,1.179353,-6.147723,-1.519822453
689,199,16,-21.23187833,-1.800038,2.594173,2.035417902
690,199,18,-23.69701771,-4.505793,-3.748718,-0.429721479
691,199,20,-25.01481992,2.042368,-5.522575,-1.747523691
692,199,25,-24.11247428,2.434595,-5.44581,-0.845178054
693,199,26,-24.48057327,-6.785384,-1.082172,-1.21327704
694,199,29,-22.89966388,2.140707,-6.789885,0.367632348
695,200,5,-13.2892731,-0.613708,-0.926522,2.132678694
696,200,10,-17.27197935,-6.529168,-2.911796,-1.850027549
697,200,13,-15.76031901,4.835631,-3.375173,-0.338367216
698,200,15,-17.97143704,-1.352642,-5.891375,-2.549485243
699,200,16,-12.72539064,7.400206,2.389233,2.696561153
700,200,18,-16.54082073,-4.073929,-3.757369,-1.118868935
701,200,20,-18.14793122,-2.941935,-5.413339,-2.725979427
702,200,25,-18.58513634,-0.400589,-5.258423,-3.163184542
703,200,26,-17.02535842,6.987943,-1.188974,-1.60340662
704,200,29,-16.22171986,-1.832541,-6.608991,-0.799768067
705,201,5,-11.05212587,-3.633167,-0.486129,3.962598735
706,201,10,-19.99717017,2.801508,-3.27037,-4.982445567
707,201,13,-12.64861555,-5.309223,-2.879336,2.366109058
708,201,15,-16.9112722,-3.463064,-5.544165,-1.896547591
709,201,16,-12.83926029,2.649411,2.226146,2.175464321
710,201,18,-18.0658608,0.46033,-3.828649,-3.051136194
711,201,20,-22.58936106,-0.339386,-5.640447,-7.574636449
712,201,25,-22.63908042,-5.251614,-5.393151,-7.624355809
713,201,26,-19.28769396,3.376794,-1.458837,-4.272969349
714,201,29,-16.93625979,-4.671152,-6.346929,-1.921535182
715,202,5,-15.74274473,-3.888467,-0.199204,3.431190895
716,202,10,-24.24724917,0.85718,-3.510258,-5.073313552
717,202,13,-16.78711152,1.195617,-2.354756,2.386824097
718,202,15,-21.56043773,-1.321875,-5.079748,-2.386502107
719,202,16,-18.78689507,4.339175,1.76828,0.387040556
720,202,18,-23.2772032,3.105781,-4.151388,-4.103267579
721,202,20,-26.31241586,1.889694,-5.872206,-7.138480234
722,202,25,-26.61907036,-0.016579,-5.359757,-7.445134737
723,202,26,-23.41898345,-0.886045,-1.977753,-4.245047824
724,202,29,-21.87937442,-1.05495,-6.175743,-2.705438799
725,203,5,-13.27048194,9.07601,-0.127877,2.133720496
726,203,10,-20.93814367,2.887407,-3.046586,-5.533941232
727,203,13,-11.61545183,3.81916,-1.637724,3.788750609
728,203,15,-15.61671043,4.721524,-3.922553,-0.212507992
729,203,18,-17.14153316,9.577954,-4.007088,-1.737330721
730,203,20,-21.05849754,10.370853,-5.18003,-5.6542951
731,203,25,-20.76211812,7.25687,-4.39866,-5.35791568
732,203,26,-17.06069053,3.575056,-2.276202,-1.656488093
733,203,29,-15.56178005,8.714396,-5.255156,-0.157577612
734,204,5,-11.36169949,5.962754,0.710193,2.366246707
735,204,10,-17.91534698,-13.881879,-3.054964,-4.187400787
736,204,13,-9.570275755,3.346382,0.00993,4.157670437
737,204,15,-13.08143957,8.563912,-1.981851,0.646506618
738,204,18,-14.94188383,3.369091,-3.783615,-1.213937642
739,204,20,-19.11449091,0.980869,-4.627483,-5.386544712
740,204,25,-16.1825841,1.983157,-3.462793,-2.454637904
741,204,26,-16.36770297,2.237459,-2.920447,-2.639756778
742,204,29,-12.7097545,4.25965,-3.626334,1.01819169
743,205,5,-10.26528764,7.861138,0.985977,2.813316184
744,205,10,-17.47354799,0.214251,-3.085751,-4.394944164
745,205,13,-8.806052885,14.184596,0.422357,4.272550937
746,205,15,-12.45042768,4.026984,-1.517074,0.628176144
747,205,18,-13.7505624,3.032634,-3.593458,-0.671958577
748,205,20,-18.18539507,1.36136,-4.450635,-5.106791245
749,205,25,-15.25765747,-3.188134,-3.267694,-2.179053645
750,205,26,-14.83928144,-4.987373,-2.961508,-1.760677615
751,205,29,-12.04441888,4.502233,-3.142898,1.034184947
752,206,5,-10.14745494,12.355389,1.19099,1.952684323
753,206,10,-17.18120282,-0.784972,-3.177901,-5.081063559
754,206,13,-8.651205821,-1.310886,0.539593,3.448933441
755,206,15,-12.24308668,-0.461954,-1.443719,-0.142947415
756,206,18,-13.52284979,5.765153,-3.335511,-1.42271053
757,206,20,-18.39622765,5.282172,-4.378388,-6.296088384
758,206,25,-15.23211141,1.48914,-3.319529,-3.131972143
759,206,26,-14.63967421,0.518151,-2.785311,-2.539534952
760,206,29,-11.78317966,6.01896,-2.906127,0.316959607
761,207,5,-4.434262679,8.730878,1.149737,4.532295536
762,207,10,-14.99745445,2.833441,-3.048007,-6.030896237
763,207,13,-5.759321917,6.479394,0.416343,3.207236299
764,207,15,-10.11134913,7.717336,-1.506536,-1.144790919
765,207,16,-13.735773,5.093673,-0.051162,-4.769214779
766,207,18,-10.71574017,9.58078,-3.045647,-1.749181959
767,207,20,-17.04436499,4.590032,-4.152974,-8.077806776
768,207,25,-13.85307583,1.382029,-3.248357,-4.88651761
769,207,26,-11.28241104,0.896321,-2.486535,-2.315852827
770,207,29,-9.802534916,5.765442,-2.779565,-0.835976701
771,208,5,-8.456059388,3.914994,0.376403,2.670963589
772,208,10,-16.2626091,8.291038,-2.345577,-5.135586125
773,208,13,-8.214410933,-5.944455,-0.236757,2.912612044
774,208,15,-11.00963432,-2.175879,-1.807767,0.117388653
775,208,16,-15.47465141,12.412309,-0.104856,-4.347628432
776,208,18,-12.66557454,7.451273,-3.070296,-1.538551565
777,208,20,-17.16205091,2.196828,-3.699367,-6.035027932
778,208,25,-14.29541314,-1.163694,-2.790012,-3.16839016
779,208,26,-13.13457663,3.438859,-2.263544,-2.007553651
780,208,29,-11.65583698,1.088268,-3.111563,-0.528813998
781,209,5,-9.771806131,4.297512,-0.137931,3.288017248
782,209,10,-16.91474247,2.706866,-1.679928,-3.854919089
783,209,13,-7.716695321,-3.380363,-0.367028,5.343128057
784,209,15,-11.13521286,-0.18366,-1.51474,1.924610514
785,209,16,-15.69566418,3.196663,-0.558456,-2.635840802
786,209,18,-13.36759588,4.283529,-3.108309,-0.307772503
787,209,20,-16.80660936,1.7402,-3.142545,-3.746785986
788,209,25,-14.62838387,1.143683,-2.071867,-1.568560492
789,209,26,-15.51270833,-0.754114,-2.313936,-2.452884953
790,209,29,-10.93224202,-4.456554,-2.993976,2.12758136
791,210,5,-13.13342036,-1.747549,-0.376799,2.638543968
792,210,10,-20.77906938,-2.789681,-1.040527,-5.007105056
793,210,13,-10.90443912,3.309399,-0.47052,4.867525209
794,210,15,-14.29930839,-2.196728,-1.218154,1.472655938
795,210,18,-16.03861496,3.346014,-2.441844,-0.266650636
796,210,20,-20.57169708,-2.19651,-2.262424,-4.799732756
797,210,25,-18.1718029,1.486675,-1.400597,-2.399838571
798,210,26,-18.17011941,-1.943306,-1.760007,-2.398155087
799,210,29,-14.29371812,-5.56394,-2.40738,1.478246204
800,211,5,-4.82462118,5.52841,-0.783557,4.634669456
801,211,10,-14.42472099,0.97181,-0.488502,-4.965430349
802,211,13,0.715355328,4.96677,-0.837224,10.17464596
803,211,15,-3.528168977,8.473606,-1.28722,5.931121659
804,211,18,-11.9377014,10.155669,-2.077545,-2.478410763
805,211,20,-13.92959766,6.270651,-1.680524,-4.470307022
806,211,25,-11.0993111,2.284816,-0.972385,-1.640020459
807,211,26,-16.55357026,2.287393,-1.324271,-7.094279622
808,211,29,-6.861361356,7.843626,-2.287658,2.597929281
809,212,5,-11.42348584,3.421784,-1.008289,2.120639478
810,212,10,-12.57815958,0.06056,-0.187657,0.965965738
811,212,13,-7.660286611,0.975423,-0.689841,5.883838705
812,212,15,-8.166560089,2.667925,-0.906797,5.377565227
813,212,16,-19.61370009,-7.540363,-0.950716,-6.069574771
814,212,18,-13.44327558,1.474007,-2.343294,0.100849733
815,212,20,-12.85345991,0.149717,-1.492254,0.690665402
816,212,25,-9.546146097,1.86877,-0.516779,3.997979219
817,212,26,-17.67504556,-6.220238,-1.668844,-4.130920244
818,212,29,-10.34847688,-7.359023,-2.207916,3.195648432
819,213,5,-7.704037729,2.352024,-1.442464,0.487494649
820,213,10,-6.07768917,-3.256599,0.416734,2.113843207
821,213,13,-1.270632849,10.728725,-0.526273,6.920899529
822,213,15,-0.445589203,5.324806,-0.302797,7.745943175
823,213,16,-18.61694204,-1.239844,-1.783322,-10.42540966
824,213,18,-12.71565192,3.067498,-2.653393,-4.524119542
825,213,20,-6.697827268,5.501948,-1.042441,1.493705109
826,213,25,-2.055510974,-1.846772,0.311298,6.136021403
827,213,26,-15.20779416,0.149604,-2.098093,-7.016261784
828,213,29,-4.725116984,1.417751,-2.023003,3.466415394
829,214,5,-7.135774872,-0.550509,-2.102238,2.13308574
830,214,10,-5.485646395,-19.011326,1.484893,3.783214217
831,214,13,-7.701850445,2.738539,-0.363154,1.567010167
832,214,15,-7.132445123,3.199344,0.608336,2.136415489
833,214,16,-16.65163074,-1.612874,-2.818547,-7.38277013
834,214,18,-11.38232965,-2.010815,-2.727504,-2.113469036
835,214,20,-8.697953904,5.655132,-0.053353,0.570906708
836,214,25,-5.408386324,4.415894,1.679993,3.860474288
837,214,26,-11.91106764,-0.661405,-2.378761,-2.642207026
838,214,29,-9.014941005,0.500232,-1.504241,0.253919607
839,215,5,-11.83468086,1.314513,-2.650739,-5.295903589
840,215,10,-0.680726866,10.110697,2.415644,5.8580504
841,215,13,-2.022375905,4.879711,-0.346881,4.516401361
842,215,15,0.01945397,6.670265,1.249689,6.558231237
843,215,16,-18.38481783,2.198942,-3.449373,-11.84604057
844,215,18,-11.15499988,5.021579,-2.551324,-4.61622261
845,215,20,-2.463716325,1.928736,0.890173,4.075060941
846,215,25,2.452637154,0.610165,2.788977,8.991414421
847,215,26,-12.64179539,-0.283494,-2.348791,-6.103018127
848,215,29,-5.160202353,4.902839,-1.010141,1.378574913
849,216,5,-11.75929138,-3.033625,-2.770651,-4.554793907
850,216,10,-0.990598758,18.070639,2.746959,6.213898719
851,216,13,-1.570339088,-7.450694,0.134081,5.634158388
852,216,15,0.366892483,0.935327,2.047072,7.571389959
853,216,16,-18.53247099,-1.826502,-4.343939,-11.32797352
854,216,18,-11.32328095,-0.497033,-2.896001,-4.118783473
855,216,20,-2.938374481,5.314992,1.159668,4.266122996
856,216,25,2.296519361,6.99691,3.478461,9.501016838
857,216,26,-12.80695472,-3.268248,-2.935737,-5.602457239
858,216,29,-4.980554928,4.956262,-0.666055,2.223942549
859,217,5,-12.06865867,4.498381,-2.900345,-4.75256271
860,217,10,-0.481849046,1.822048,3.00275,6.834246918
861,217,13,-2.790047299,-7.547054,0.577458,4.526048665
862,217,15,-1.001253227,19.805146,2.751337,6.314842737
863,217,16,-17.66716167,-7.518853,-5.234949,-10.3510657
864,217,18,-10.64222351,2.943585,-3.363206,-3.326127544
865,217,20,-2.688611402,5.803728,1.290428,4.627484562
866,217,25,1.695531202,6.271414,4.062372,9.011627166
867,217,26,-11.69515434,0.249851,-3.60102,-4.379058373
868,217,29,-5.727804482,9.946701,-0.464003,1.588291482
869,218,5,-11.47012239,-6.417442,-3.070969,-4.064479586
870,218,10,-1.577066996,17.013618,3.55232,5.82857581
871,218,13,-3.105313278,8.626167,1.106888,4.300329527
872,218,15,-1.79733398,-0.027889,3.749629,5.608308826
873,218,16,-17.41352545,0.123679,-6.196686,-10.00788265
874,218,18,-10.91994569,1.704221,-3.501423,-3.514302883
875,218,20,-4.035706566,4.086431,1.873017,3.36993624
876,218,25,0.273675169,4.059387,5.030329,7.679317975
877,218,26,-11.78453796,0.261247,-4.059544,-4.378895156
878,218,29,-6.232302942,0.582245,0.143393,1.173339863
879,219,5,-11.76768473,-2.187271,-3.409591,-4.525273493
880,219,10,-1.276633763,13.057954,4.058872,5.96577747
881,219,13,-3.276344862,1.833396,1.255473,3.966066371
882,219,15,-2.126870136,3.194105,4.269275,5.115541097
883,219,16,-17.25415967,-7.751553,-6.863764,-10.01174844
884,219,18,-10.67585437,-4.554578,-3.70406,-3.433443132
885,219,20,-3.655893724,-2.740273,2.280709,3.586517509
886,219,25,0.681010493,2.689007,5.729861,7.923421726
887,219,26,-11.49288526,-4.907862,-4.374452,-4.250474024
888,219,29,-6.394733419,-1.786703,0.34858,0.847677814
889,220,5,-12.07196001,-3.584871,-3.567597,-4.53181052
890,220,10,-0.866348577,10.889329,4.364486,6.67380091
891,220,13,-2.180838399,8.079199,1.404488,5.359311088
892,220,15,-0.420572985,-2.683168,4.652503,7.119576502
893,220,16,-18.10929074,-10.56291,-7.275465,-10.56914125
894,220,18,-10.89108742,-4.009384,-3.7715,-3.350937932
895,220,20,-2.505112592,0.113714,2.569378,5.035036895
896,220,25,2.367171802,7.590746,6.1844,9.907321288
897,220,26,-12.16591058,-5.287609,-4.546684,-4.625761088
898,220,29,-5.334824522,0.720827,0.562445,2.205324965
899,221,5,-11.7966591,-0.455041,-3.487752,-4.018270357
900,221,10,-0.747532419,5.885791,4.378188,7.030856319
901,221,13,-2.240358443,4.634297,1.589467,5.538030295
902,221,15,-0.963114882,2.992763,4.881152,6.815273857
903,221,16,-17.53135421,-8.683249,-7.427122,-9.752965472
904,221,18,-10.58024513,-5.192772,-3.759267,-2.801856396
905,221,20,-3.025564418,2.254807,2.638498,4.75282432
906,221,25,1.153892078,2.333382,6.308789,8.932280816
907,221,26,-11.79001383,-5.261087,-4.631695,-4.011625093
908,221,29,-5.719346529,2.106388,0.745347,2.059042209
909,222,5,-12.09371816,-6.278808,-3.488837,-4.685099217
910,222,10,-0.441184536,-1.192978,4.393055,6.967434411
911,222,13,-2.284778622,18.976445,1.691592,5.123840325
912,222,15,-0.318450303,6.034923,5.014442,7.090168644
913,222,16,-18.17611415,-9.546608,-7.599131,-10.7674952
914,222,18,-10.91791312,-10.106633,-3.868453,-3.509294175
915,222,20,-2.555551662,0.182704,2.627419,4.853067284
916,222,25,2.321265403,-3.006823,6.392464,9.72988435
917,222,26,-12.1857195,-10.151671,-4.780508,-4.777100554
918,222,29,-5.318143057,-2.340741,0.775807,2.09047589
919,223,5,-10.26232846,-4.91586,-3.619095,-3.882195762
920,223,10,-0.988302404,2.399614,4.48461,5.391830293
921,223,13,-1.992102358,-6.798569,1.651649,4.388030339
922,223,15,0.151132459,16.627182,5.031625,6.531265157
923,223,16,-17.37022837,-8.848845,-7.745346,-10.99009568
924,223,18,-11.02782678,0.226658,-4.016097,-4.647694081
925,223,20,-2.661663958,8.726938,2.629254,3.71846874
926,223,25,2.005390486,14.452409,6.487078,8.385523183
927,223,26,-11.50915978,-3.962887,-4.899773,-5.129027083
928,223,29,-5.297592142,4.526017,0.683384,1.082540555
929,224,5,-12.00295264,0.858895,-3.799968,-4.629749241
930,224,10,-0.740054207,3.718845,4.46828,6.633149192
931,224,13,-2.172484163,16.020758,1.51901,5.200719236
932,224,15,-0.486118634,3.239737,4.870357,6.887084765
933,224,16,-17.79897284,-5.134615,-7.893784,-10.42576944
934,224,18,-10.71882196,5.119193,-4.393159,-3.345618558
935,224,20,-2.644282257,14.100741,2.396094,4.728921142
936,224,25,2.031823921,10.982927,6.41104,9.40502732
937,224,26,-11.92480985,0.664309,-5.158617,-4.551606456
938,224,29,-5.376660599,9.677875,0.317397,1.9965428
939,225,5,-10.74986511,-5.610362,-3.647482,-4.117137998
940,225,10,-0.922907364,3.079232,4.177931,5.709819744
941,225,13,-2.637365961,22.100908,1.320811,3.995361148
942,225,15,-0.334778742,15.354857,4.438984,6.297948367
943,225,16,-17.16655471,-7.632951,-7.401827,-10.53382761
944,225,18,-10.82726122,-0.870504,-4.248912,-4.194534114
945,225,20,-2.278323949,4.642756,2.145065,4.354403159
946,225,25,1.889966261,9.57207,5.945515,8.52269337
947,225,26,-11.23858866,-3.951209,-4.895413,-4.605861553
948,225,29,-5.675099925,2.540538,0.118536,0.957627183
949,226,5,-12.4224866,0.43317,-3.589106,-5.129692477
950,226,10,-0.030679954,10.15873,4.12798,7.262114165
951,226,13,-3.135528681,-7.598844,0.997439,4.157265438
952,226,15,-1.283629894,4.195395,4.01491,6.009164225
953,226,16,-17.44634774,-4.46377,-6.750892,-10.15355362
954,226,18,-10.24492694,1.936466,-3.752518,-2.952132818
955,226,20,-1.912481179,6.787506,2.250174,5.38031294
956,226,25,2.26791309,3.752159,5.675956,9.56070721
957,226,26,-11.45478462,-1.931816,-4.290462,-4.161990502
958,226,29,-5.841129051,1.545752,0.126995,1.451665069
959,227,5,-13.86724662,-6.028728,-3.433998,-6.494403668
960,227,10,0.437333323,12.354386,4.201066,7.810176272
961,227,13,-5.008221693,7.847354,0.990919,2.364621256
962,227,15,-2.468084437,6.882311,4.047033,4.904758512
963,227,16,-16.60057439,-12.724787,-6.383734,-9.227731445
964,227,18,-9.867403917,-4.851782,-3.159316,-2.494560968
965,227,20,-1.683347012,-0.545831,2.601531,5.689495937
966,227,25,2.428551385,9.35211,5.731052,9.801394334
967,227,26,-10.79598757,-7.931252,-3.777925,-3.423144622
968,227,29,-7.404199796,1.27186,0.532563,-0.031356847
969,228,5,-14.77612104,-1.602936,-3.296977,-5.62072935
970,228,10,-2.228653914,4.756727,4.065112,6.926737771
971,228,13,-8.330204861,-4.900904,0.906087,0.825186824
972,228,15,-4.803213272,0.44584,3.851686,4.352178413
973,228,16,-16.03920878,-7.364895,-6.033594,-6.883817095
974,228,18,-10.31931777,-0.88519,-2.913769,-1.163926086
975,228,20,-3.822875469,6.005816,2.572013,5.332516216
976,228,25,-0.227085546,6.096686,5.509165,8.928306139
977,228,26,-11.5255715,-3.445014,-3.503176,-2.370179817
978,228,29,-9.32273102,-2.167975,0.561467,-0.167339335
979,229,5,-16.77938903,-3.562496,-3.577803,-3.83871433
980,229,10,-6.711305582,15.422616,4.220011,6.229369114
981,229,13,-13.71502812,3.60374,0.624057,-0.774353427
982,229,15,-10.87805363,3.931212,3.62449,2.062621063
983,229,16,-16.52995571,-5.301501,-6.031558,-3.58928101
984,229,18,-12.16504684,-4.016464,-3.0558,0.775627852
985,229,20,-9.346257255,2.68247,2.568482,3.594417441
986,229,25,-5.290584138,3.559614,5.538781,7.650090558
987,229,26,-12.98857418,-3.756461,-3.501473,-0.047899488
988,229,29,-13.15706083,5.68523,0.278574,-0.21638613
989,230,5,-15.791554,-7.814995,-3.862682,-4.579794915
990,230,10,-4.813435197,5.681825,4.473854,6.398323887
991,230,13,-11.38073993,-5.668995,0.597086,-0.168980849
992,230,15,-8.277567765,-2.265982,3.768563,2.934191319
993,230,16,-16.48277084,-6.792206,-6.425506,-5.271011755
994,230,18,-11.19762736,-6.192157,-3.355672,0.014131726
995,230,20,-6.695030825,-0.002881,2.649388,4.516728259
996,230,25,-3.11351566,9.348402,5.841971,8.098243424
997,230,26,-12.39044299,-5.818921,-3.779899,-1.17868391
998,230,29,-11.88596493,-9.421168,0.164807,-0.674205842
999,231,5,-16.41918584,-2.783355,-3.86305,-4.105544753
1000,231,10,-6.058888756,4.242894,4.516914,6.254752334
1001,231,13,-12.57880709,4.847157,0.744201,-0.265165998
1002,231,15,-9.960541414,1.104742,3.974206,2.353099676
1003,231,16,-16.59975278,-7.385,-6.658609,-4.286111692
1004,231,18,-11.76732664,-1.401369,-3.468164,0.546314446
1005,231,20,-8.572453812,4.121656,2.674895,3.741187278
1006,231,25,-4.374820221,-16.857231,5.985627,7.938820869
1007,231,26,-12.84580516,-2.171206,-3.958008,-0.532164073
1008,231,29,-12.63336547,-9.078481,0.245272,-0.319724384
1009,232,5,-14.82018571,-4.670473,-3.799268,-3.978979522
1010,232,10,-4.818270709,8.845381,4.510459,6.022935481
1011,232,13,-9.906080078,-3.692455,0.880465,0.935126113
1012,232,15,-6.803383436,2.99511,4.132003,4.037822754
1013,232,16,-16.60933553,-16.828579,-6.769527,-5.768129337
1014,232,18,-11.17967831,-2.272273,-3.476385,-0.338472122
1015,232,20,-6.07239315,7.495299,2.702279,4.768813041
1016,232,25,-2.853094741,7.451954,6.058746,7.98811145
1017,232,26,-12.20360728,-2.077136,-4.033537,-1.362401088
1018,232,29,-10.81303086,-11.577799,0.363086,0.028175335
1019,233,5,-14.98903563,1.668901,-3.581754,-4.030820245
1020,233,10,-5.442008659,2.165167,4.250354,5.516206726
1021,233,13,-10.23744111,1.566549,1.000381,0.720774273
1022,233,15,-7.558324425,10.423874,4.100396,3.39989096
1023,233,16,-16.73480653,-20.680899,-6.679848,-5.776591147
1024,233,18,-11.50170395,-0.256987,-3.504967,-0.543488562
1025,233,20,-6.845137105,9.069246,2.482688,4.11307828
1026,233,25,-3.683935429,8.017736,5.821477,7.274279956
1027,233,26,-12.38121518,-0.843844,-4.087665,-1.4229998
1028,233,29,-11.37370592,9.181783,0.352344,-0.415490534
1029,234,5,-13.61828158,0.463885,-3.250382,-4.121521359
1030,234,10,-3.529713484,4.015145,3.681557,5.967046735
1031,234,13,-6.908930466,-1.670183,0.83012,2.587829753
1032,234,15,-4.788199621,7.339058,3.515527,4.708560598
1033,234,16,-16.73421532,-7.161859,-6.026212,-7.237455101
1034,234,18,-10.73187534,1.832982,-3.414173,-1.235115118
1035,234,20,-4.583518607,3.537626,1.958159,4.913241612
1036,234,25,-1.129828695,21.5339,5.042458,8.366931524
1037,234,26,-11.56590641,-3.305887,-3.851823,-2.069146194
1038,234,29,-8.910450764,1.783033,0.032332,0.586309455
1039,235,5,-12.47881287,0.152799,-2.863201,-5.055262737
1040,235,10,-0.287676984,-0.991068,3.036828,7.135873146
1041,235,13,-3.214329065,4.98999,0.508278,4.209221065
1042,235,15,-1.091696788,-0.020206,2.696238,6.331853342
1043,235,16,-17.22385234,-5.861932,-5.037524,-9.800302206
1044,235,18,-10.17124966,-0.77804,-3.108727,-2.747699528
1045,235,20,-2.14792,4.346891,1.426041,5.27563013
1046,235,25,2.173751833,4.633562,4.073847,9.597301963
1047,235,26,-11.3743665,2.406954,-3.342014,-3.950816368
1048,235,29,-5.923786911,1.014174,-0.318391,1.499763219
1049,236,5,-7.955069031,-1.490616,-2.847664,0.789430796
1050,236,10,-6.9555112,-4.215028,2.980558,1.788988627
1051,236,13,-8.79977972,-1.2536,0.478378,-0.055279893
1052,236,15,-8.420596308,6.991663,2.623854,0.323903519
1053,236,16,-14.5075336,-0.33438,-4.986292,-5.76303377
1054,236,18,-9.893426273,1.169038,-3.132617,-1.148926447
1055,236,20,-8.31831352,5.338184,1.354768,0.426186307
1056,236,25,-6.152831513,14.967296,3.992076,2.591668313
1057,236,26,-10.48712256,0.132572,-3.340435,-1.742622733
1058,236,29,-10.53588034,2.482238,-0.38141,-1.791380518
1059,237,5,-13.05830585,5.56909,-2.620629,-3.293773685
1060,237,10,-3.853340145,12.741028,2.707774,5.911192018
1061,237,13,-6.320106562,1.768571,0.384235,3.444425602
1062,237,15,-4.868099189,-4.696769,2.324973,4.896432975
1063,237,16,-16.90560154,-1.47007,-4.512009,-7.141069377
1064,237,18,-11.0541235,1.712121,-2.87685,-1.28959134
1065,237,20,-5.190410166,4.885179,1.202134,4.574121997
1066,237,25,-1.868947498,3.665139,3.600381,7.895584665
1067,237,26,-11.74961864,3.224208,-3.035671,-1.985086477
1068,237,29,-9.014763922,4.196173,-0.410322,0.749768242
1069,238,5,-8.502773447,-10.311124,-2.493756,0.36434971
1070,238,10,-3.003662988,77.50504,2.472339,5.863460168
1071,238,13,-4.972532356,17.353389,0.215849,3.8945908
1072,238,15,-4.813190002,-6.926873,1.965215,4.053933155
1073,238,16,-13.91467644,-6.098196,-4.092677,-5.047553279
1074,238,18,-8.755264154,-9.983297,-2.740534,0.111859002
1075,238,20,-5.819048174,-4.125738,1.005904,3.048074983
1076,238,25,-3.091601466,1.829764,3.216399,5.77552169
1077,238,26,-8.898296388,-5.79454,-2.801782,-0.031173231
1078,238,29,-8.351864898,-0.904138,-0.568157,0.515258259
1079,239,5,-15.18707714,-1.100622,-2.471142,-2.780712851
1080,239,10,-6.804622817,66.399284,2.42761,5.601741473
1081,239,13,-11.17901956,7.643559,0.225933,1.227344728
1082,239,15,-8.837591623,3.320992,1.948072,3.568772667
1083,239,16,-17.0166533,-6.029047,-4.089929,-4.610289007
1084,239,18,-12.1400062,0.261177,-2.774517,0.266358085
1085,239,20,-8.463874129,1.805662,0.951286,3.94249016
1086,239,25,-5.119334583,2.170707,3.171899,7.287029706
1087,239,26,-12.75382195,0.85285,-2.830941,-0.347457665
1088,239,29,-12.1001395,2.747253,-0.597111,0.306224788
1089,240,5,-11.81418011,-5.032007,-2.474244,2.55324505
1090,240,13,-14.31431901,0.774576,0.137898,0.053106147
1091,240,15,-13.73692526,-4.848488,1.788868,0.630499899
1092,240,16,-15.63971326,-7.313789,-3.991177,-1.272288108
1093,240,18,-12.65089617,-5.960279,-2.827919,1.716528984
1094,240,20,-12.72406514,-0.129339,0.824873,1.643360013
1095,240,26,-12.67351877,0.385816,-2.822183,1.693906387
1096,240,29,-13.89267885,-12.063249,-0.742877,0.474746301
1097,241,5,-23.38556442,-3.423168,-2.360229,1.661593791
1098,241,13,-24.9085285,29.48992,0.027065,0.138629714
1099,241,15,-25.3671573,31.790108,1.522388,-0.319999088
1100,241,16,-24.49133352,-5.601279,-3.677775,0.555824691
1101,241,18,-21.52715597,1.633578,-2.734826,3.520002251
1102,241,20,-22.6477282,2.9139,0.656887,2.399430012
1103,241,26,-21.55730243,0.097853,-2.65996,3.489855786
1104,241,29,-23.77205914,0.819717,-0.862095,1.275099074
1105,242,5,-17.78725976,-1.508844,-2.294644,-1.098638645
1106,242,10,-10.94513971,42.99231,2.042192,5.743481413
1107,242,13,-14.8363728,18.545483,-0.021244,1.852248318
1108,242,15,-13.21444545,-7.105378,1.395417,3.474175667
1109,242,16,-17.91348858,-0.072845,-3.518043,-1.224867456
1110,242,18,-14.35727767,1.041952,-2.679206,2.331343454
1111,242,20,-13.05892135,0.519101,0.576312,3.629699773
1112,242,25,-9.853767155,1.045711,2.567823,6.834853965
1113,242,26,-14.88693049,-2.05569,-2.574083,1.801690633
1114,242,29,-14.46186409,2.461645,-0.910182,2.226757029
1115,243,5,-17.53431613,-2.527534,-2.294201,-1.295696638
1116,243,13,-14.82185659,7.162721,-0.095517,1.416762901
1117,243,15,-12.82724415,39.29498,1.2684,3.411375341
1118,243,16,-17.86590636,-7.264628,-3.422005,-1.627286875
1119,243,18,-14.22454123,-2.5858,-2.693254,2.014078262
1120,243,20,-13.08515687,2.168739,0.49534,3.153462618
1121,243,25,-9.601748627,-21.141634,2.456572,6.636870861
1122,243,26,-15.20550844,-6.540288,-2.541042,1.033111048
1123,243,29,-14.07642035,-11.689309,-1.008719,2.162199135
1124,244,5,-16.29826768,-2.443224,-2.344216,1.988262075
1125,244,13,-18.28143189,4.034971,-0.113552,0.005097868
1126,244,15,-19.0564218,38.958176,1.264163,-0.769892047
1127,244,16,-19.35933768,-11.026213,-3.481207,-1.07280792
1128,244,18,-16.473497,-4.873984,-2.770242,1.813032756
1129,244,20,-16.76930563,0.385257,0.474422,1.517224132
1130,244,25,-17.75000689,-3.62506,2.478816,0.536522867
1131,244,26,-16.55345934,-6.847691,-2.601572,1.73307042
1132,244,29,-17.2102569,-7.738324,-1.063646,1.07627286
1133,245,5,-88.32216566,-2.506971,-2.374876,-1.309914928
1134,245,13,-91.61605137,-1.110407,-0.140034,-4.603800634
1135,245,15,-91.44750006,45.946202,1.234461,-4.435249324
1136,245,16,-84.44435524,-8.372682,-3.498651,2.567895488
1137,245,18,-89.75127818,-5.802776,-2.823115,-2.739027449
1138,245,20,-90.22946692,0.545207,0.442321,-3.217216187
1139,245,25,-90.04991624,-4.192505,2.468245,-3.037665512
1140,245,26,-87.84355971,-6.179313,-2.634035,-0.831308976
1141,245,29,-89.32334563,-1.275825,-1.119789,-2.311094901
1142,246,5,-87.64586169,4.998786,-2.412234,-1.696116166
1143,246,10,-89.22956135,-16.281365,2.013043,-3.279815828
1144,246,13,-92.66572808,11.759608,-0.167931,-6.715982553
1145,246,15,-92.15577198,30.502514,1.20694,-6.206026449
1146,246,16,-83.61754826,-4.791921,-3.52429,2.332197266
1147,246,18,-89.44210453,5.012721,-2.882855,-3.492359004
1148,246,20,-89.04839168,2.854657,0.411615,-3.098646149
1149,246,25,-88.52355683,-4.072525,2.463884,-2.573811306
1150,246,26,-87.75956667,0.179699,-2.672434,-1.809821143
1151,246,29,-89.24673136,1.920529,-1.179338,-3.296985835
1152,247,5,-41.6667911,7.61401,-2.453115,2.526368456
1153,247,13,-44.32001106,9.155459,-0.196624,-0.1268515
1154,247,15,-45.59538564,43.66766,1.179719,-1.402226079
1155,247,16,-42.74795153,-6.187017,-3.554881,1.445208033
1156,247,18,-45.97647537,4.908822,-2.948526,-1.783315813
1157,247,20,-49.95651187,2.009177,0.379376,-5.763352308
1158,247,25,-47.94170245,-2.833446,2.461436,-3.748542891
1159,247,26,-42.63812327,5.740399,-2.715804,1.55503629
1160,247,29,-47.28003426,10.037737,-1.242679,-3.086874697
1161,248,5,-28.84944084,1.683687,-2.494614,2.134125151
1162,248,13,-27.79774616,0.387427,-0.223935,3.185819839
1163,248,15,-28.55778546,42.569992,1.153573,2.425780537
1164,248,16,-30.29314778,-9.223011,-3.589774,0.690418211
1165,248,18,-30.50420316,-0.723794,-3.019742,0.479362835
1166,248,20,-34.18505859,-3.771028,0.343929,-3.201492593
1167,248,25,-30.63277668,10.29907,2.458952,0.350789312
1168,248,26,-29.95758138,0.29644,-2.764601,1.025984617
1169,248,29,-30.69076037,4.489608,-1.308662,0.292805626
1170,249,5,-89.47307442,2.327353,-2.537716,-1.695004874
1171,249,13,-92.02904344,-9.703657,-0.252416,-4.250973894
1172,249,15,-91.50185826,44.982065,1.126084,-3.723788711
1173,249,16,-85.96799433,-5.759761,-3.626004,1.810075219
1174,249,18,-89.7261459,-5.225627,-3.094149,-1.948076357
1175,249,20,-89.26673133,-0.951277,0.306594,-1.488661787
1176,249,25,-89.59664604,-10.472797,2.455976,-1.818576496
1177,249,26,-88.94453734,-1.360761,-2.815581,-1.166467799
1178,249,29,-89.7014722,5.737456,-1.377715,-1.923402651
1179,250,5,-17.48726129,0.680429,-2.580787,-1.970762936
1180,250,13,-14.72449643,-7.122245,-0.281605,0.792001924
1181,250,15,-12.75490413,25.603465,1.097368,2.761594224
1182,250,16,-17.61714419,-3.428231,-3.661326,-2.100645837
1183,250,18,-13.96706266,0.881808,-3.168702,1.549435696
1184,250,20,-12.44874528,5.863816,0.268456,3.067753075
1185,250,25,-8.768734481,-8.610402,2.45194,6.747763873
1186,250,26,-14.12575343,6.895064,-2.866254,1.390744922
1187,250,29,-14.35343231,7.049504,-1.447706,1.163066043
1188,251,5,-22.61584706,3.628849,-2.628601,3.796779656
1189,251,13,-24.41619676,9.555627,-0.314173,1.996429951
1190,251,16,-25.2718982,-5.24126,-3.699264,1.140728515
1191,251,18,-22.79180464,5.851948,-3.248105,3.620822078
1192,251,20,-26.2680642,7.945733,0.229185,0.144562512
1193,251,25,-25.03657036,-8.742591,2.449035,1.37605635
1194,251,26,-22.60093585,4.084661,-2.919704,3.811690867
1195,251,29,-23.73445562,5.718594,-1.522874,2.678171096
1196,252,5,-81.58559993,0.349759,-2.686184,0.411867402
1197,252,13,-82.84249227,4.064607,-0.349715,-0.845024941
1198,252,16,-78.75166559,-2.541838,-3.746228,3.245801738
1199,252,18,-79.0811218,-0.480209,-3.331795,2.916345528
1200,252,20,-81.01477213,2.860898,0.196638,0.982695205
1201,252,25,-81.06287172,-9.66944,2.457185,0.93459561
1202,252,26,-79.17408401,0.356929,-2.976618,2.823383319
1203,252,29,-80.12660104,8.59343,-1.599209,1.870866289
1204,253,5,-97.7267342,0.578617,-2.726425,-0.649980606
1205,253,13,-99.96309469,6.225292,-0.373755,-2.886341094
1206,253,16,-92.35498261,-2.952667,-3.779653,4.721770986
1207,253,18,-96.20644863,3.830987,-3.387693,0.87030496
1208,253,20,-98.38986388,6.954332,0.177218,-1.313110284
1209,253,25,-97.79674303,-18.163965,2.466,-0.71998944
1210,253,26,-94.57843707,0.645265,-3.014704,2.498316523
1211,253,29,-97.00971889,6.209041,-1.648921,0.067034699
1212,254,5,-75.75977446,1.507308,-2.733586,0.031278443
1213,254,10,-74.54608742,29.733308,2.082502,1.244965483
1214,254,13,-76.64190991,1.520531,-0.38039,-0.850857009
1215,254,15,-75.94259918,-30.894822,1.014219,-0.151546286
1216,254,16,-74.7312396,-1.823039,-3.784421,1.0598133
1217,254,18,-74.28856165,1.678037,-3.401798,1.502491247
1218,254,20,-75.23462314,6.030897,0.167934,0.556429757
1219,254,25,-74.83964235,-12.14926,2.463299,0.951410546
1220,254,26,-72.50054843,1.572047,-3.023295,3.29050447
1221,254,29,-75.72745196,11.385503,-1.662782,0.063600933
1222,255,5,-56.01920461,-5.750558,-2.71811,0.715215908
1223,255,10,-54.38357626,68.561219,2.071085,2.350844262
1224,255,13,-57.62283263,3.26047,-0.374558,-0.888412113
1225,255,15,-57.11462862,38.618691,1.013555,-0.380208108
1226,255,16,-56.16233693,-7.422178,-3.770292,0.572083588
1227,255,18,-57.8728636,-5.710434,-3.387239,-1.13844308
1228,255,20,-59.06622576,-2.832778,0.166141,-2.331805246
1229,255,25,-57.32230009,-0.791386,2.453494,-0.587879576
1230,255,26,-57.76966828,-11.16254,-3.011983,-1.035247762
1231,255,29,-58.61854127,-0.684694,-1.651424,-1.884120752
1232,256,5,-15.69299519,-0.868421,-2.660494,-6.588170785
1233,256,13,-9.239621644,-3.89659,-0.346506,-0.134797241
1234,256,16,-14.78542028,-5.405323,-3.720814,-5.680595872
1235,256,18,-9.340192151,-5.743075,-3.323326,-0.235367748
1236,256,20,-2.527318858,1.331491,0.173533,6.577505545
1237,256,25,1.289767516,-11.456128,2.42676,10.39459192
1238,256,26,-10.58557803,-7.358581,-2.966292,-1.48075363
1239,256,29,-9.221780402,-2.769314,-1.597725,-0.116955999
1240,257,5,-30.65654676,0.364301,-2.585507,0.313253951
1241,257,10,-32.41513149,85.372969,1.990656,-1.445330778
1242,257,13,-31.89809251,-4.27729,-0.310101,-0.928291795
1243,257,15,-33.38701957,22.156737,1.033903,-2.417218854
1244,257,16,-28.89441944,-6.512748,-3.657224,2.075381271
1245,257,18,-32.15422581,-2.260556,-3.244333,-1.18442509
1246,257,20,-33.83899856,1.505925,0.178908,-2.869197843
1247,257,25,-34.74374229,-14.054478,2.388888,-3.773941571
1248,257,26,-33.00639985,-6.07735,-2.910232,-2.036599133
1249,257,29,-34.39795418,-3.455389,-1.532029,-3.428153468
1250,258,5,-60.87398719,0.218744,-2.568449,0.308119466
1251,258,10,-58.19284534,65.394635,1.97212,2.989261321
1252,258,13,-61.35829074,-3.428163,-0.307686,-0.176184083
1253,258,15,-60.55201911,43.771171,1.024464,0.630087552
1254,258,16,-59.99744177,-5.449953,-3.637894,1.184664884
1255,258,18,-61.14118191,-2.281092,-3.234307,0.040924743
1256,258,20,-62.90930303,-2.748048,0.167465,-1.727196368
1257,258,25,-61.53180421,-1.831578,2.36881,-0.349697551
1258,258,26,-60.90844498,-3.568686,-2.900307,0.273661679
1259,258,29,-62.64160068,-1.384833,-1.529603,-1.459494022
1260,259,5,-61.54514021,-8.578491,-2.594343,0.49405356
1261,259,13,-62.03380195,-3.457554,-0.327806,0.005391816
1262,259,15,-61.01584585,33.044373,1.005493,1.023347917
1263,259,16,-60.6994536,-7.951737,-3.654104,1.339740168
1264,259,18,-61.90251451,-10.340103,-3.272361,0.136679255
1265,259,20,-63.61211174,-3.348917,0.148912,-1.572917976
1266,259,25,-62.15686843,11.988885,2.367443,-0.117674666
1267,259,26,-61.69928502,-5.885161,-2.923685,0.339908742
1268,259,29,-63.4567297,-2.890996,-1.568296,-1.417535931
1269,260,5,-63.1430459,-2.586689,-2.621936,0.399361842
1270,260,10,-61.20844097,58.401116,1.985046,2.333966766
1271,260,13,-63.91462909,-9.473319,-0.345942,-0.372221348
1272,260,15,-62.70883991,32.837901,0.990065,0.833567823
1273,260,16,-62.58261569,-10.120205,-3.676386,0.959792048
1274,260,18,-63.83990453,-6.943285,-3.314827,-0.297496789
1275,260,20,-65.391416,-4.516849,0.130273,-1.84900826
1276,260,25,-64.56736331,15.719636,2.369462,-1.024955569
1277,260,26,-63.705064,-5.485298,-2.952124,-0.162656262
1278,260,29,-65.30007309,-7.081261,-1.607298,-1.757665354
1279,261,5,-56.13966854,-8.974787,-2.653495,0.011766563
1280,261,10,-54.43718621,76.602284,1.995253,1.714248893
1281,261,13,-56.8070517,-14.738489,-0.364524,-0.655616594
1282,261,15,-55.79869061,11.816262,0.976189,0.352744491
1283,261,16,-55.11180499,-8.541042,-3.704438,1.039630114
1284,261,18,-56.94235099,-9.63697,-3.362567,-0.790915884
1285,261,20,-58.24848909,-9.403091,0.111664,-2.097053986
1286,261,25,-58.44100279,17.267693,2.37507,-2.289567692
1287,261,26,-57.03970715,-10.669302,-2.985284,-0.888272047
1288,261,29,-57.49332168,-6.914395,-1.648831,-1.341886583
1289,262,5,-38.292419,-2.461592,-2.682716,-2.484840891
1290,262,13,-36.87996927,-12.539114,-0.38132,-1.072391168
1291,262,15,-34.62817193,1.259484,0.963357,1.179406172
1292,262,16,-34.74834955,-0.681168,-3.731709,1.059228559
1293,262,18,-38.19244663,-4.245569,-3.408924,-2.38486852
1294,262,20,-38.67287046,-3.202553,0.092772,-2.865292354
1295,262,25,-36.43781755,28.459339,2.379789,-0.630239439
1296,262,26,-36.32081675,-5.723481,-3.017966,-0.513238645
1297,262,29,-38.63687796,-2.594114,-1.688477,-2.829299851
1298,263,5,-58.62620339,-0.155984,-2.698366,0.666941267
1299,263,13,-59.16168998,-5.936453,-0.388108,0.131454676
1300,263,15,-57.83730651,-3.947537,0.957394,1.455838149
1301,263,16,-57.98383412,-1.565189,-3.752489,1.309310543
1302,263,18,-59.11899367,0.228968,-3.442821,0.174150989
1303,263,20,-60.7024982,1.154691,0.076111,-1.409353544
1304,263,25,-60.15152706,21.978333,2.381108,-0.858382405
1305,263,26,-59.14579119,1.236706,-3.044063,0.147353463
1306,263,29,-60.2011072,-2.528632,-1.714008,-0.907962545
1307,264,5,-60.43453205,-8.881374,-2.699803,0.405385307
1308,264,10,-58.79209463,100.519847,1.999938,2.047822721
1309,264,13,-61.57515206,-11.596054,-0.38393,-0.735234709
1310,264,15,-59.78839561,-30.124375,0.959431,1.051521746
1311,264,16,-59.74797495,-5.130826,-3.767099,1.091942407
1312,264,18,-61.2900913,-6.028473,-3.463626,-0.450173944
1313,264,20,-62.64711959,-4.941033,0.062258,-1.80720223
1314,264,25,-62.47772143,3.913617,2.379544,-1.637804071
1315,264,26,-61.40146393,-7.715544,-3.063519,-0.561546578
1316,264,29,-61.99137299,-9.343905,-1.724163,-1.151455634
1317,265,5,-24.89470099,-5.475495,-2.696091,-3.222630951
1318,265,10,-21.74497923,64.731866,1.991144,-0.072909193
1319,265,13,-25.10045458,-18.7106,-0.377146,-3.42838454
1320,265,15,-25.45409546,-11.551708,0.962251,-3.782025418
1321,265,16,-18.78544405,-3.512682,-3.777507,2.886625987
1322,265,18,-22.58598829,-10.08869,-3.479275,-0.913918251
1323,265,20,-23.01451217,-5.261124,0.048587,-1.342442136
1324,265,25,-23.72993126,17.75631,2.37526,-2.057861223
1325,265,26,-22.85548035,-9.719372,-3.079426,-1.183410311
1326,265,29,-24.36216932,-3.200774,-1.730021,-2.690099279
1327,266,5,-61.38707956,2.519858,-2.690617,1.012970284
1328,266,13,-62.28601789,-1.805796,-0.369629,0.114031955
1329,266,16,-61.02775705,-1.560532,-3.786289,1.372292787
1330,266,18,-62.17551271,2.716348,-3.493231,0.224537131
1331,266,20,-63.82816854,3.185866,0.034765,-1.428118696
1332,266,25,-62.74236691,6.826079,2.369786,-0.342317072
1333,266,26,-62.03334358,-2.134481,-3.094087,0.366706258
1334,266,29,-63.20958547,-8.711079,-1.734658,-0.809535631
1335,267,5,-53.4090167,-6.443117,-2.683412,0.170461213
1336,267,10,-51.66025557,92.106753,1.969903,1.919222343
1337,267,13,-53.8201881,-2.514644,-0.361227,-0.240710188
1338,267,15,-52.14357037,-43.471829,0.96813,1.435907535
1339,267,16,-52.32622055,-7.020891,-3.793683,1.253257357
1340,267,18,-53.90774184,-4.724966,-3.505482,-0.328263931
1341,267,20,-55.29423163,-2.053856,0.020986,-1.714753724
1342,267,25,-55.17390192,-21.021079,2.363397,-1.594424008
1343,267,26,-53.9361492,-11.271441,-3.107585,-0.356671291
1344,267,29,-54.07821583,-17.720475,-1.737865,-0.498737919
1345,268,5,-62.97132975,-7.789169,-2.67467,0.503035558
1346,268,10,-60.97869442,66.618451,1.95788,2.495670886
1347,268,13,-63.81950985,-2.54444,-0.351846,-0.345144543
1348,268,15,-62.7064232,-13.868949,0.971768,0.767942109
1349,268,16,-62.56185779,-2.175873,-3.800098,0.91250752
1350,268,18,-63.78233168,-2.463931,-3.5162,-0.307966373
1351,268,20,-65.23216572,-4.499755,0.007435,-1.757800407
1352,268,25,-63.98138153,6.444855,2.356472,-0.507016218
1353,268,26,-63.64942612,-7.157663,-3.120153,-0.175060814
1354,268,29,-64.9057674,-16.474889,-1.739558,-1.431402095
1355,269,5,-64.79630384,-17.361569,-2.665527,0.706744731
1356,269,10,-62.97024586,77.566047,1.945805,2.532802716
1357,269,13,-65.76751137,-13.584929,-0.341948,-0.26446279
1358,269,16,-64.36841113,-13.425728,-3.806623,1.134637448
1359,269,18,-65.65776286,-21.350916,-3.526538,-0.154714284
1360,269,20,-67.01792564,-7.730752,-0.00584,-1.51487706
1361,269,26,-65.72036361,-20.68448,-3.132654,-0.217315037
1362,269,29,-66.64427554,-23.224874,-1.740562,-1.14122696
1363,270,5,-58.04178364,-9.693337,-2.65612,0.487444179
1364,270,10,-56.28159563,56.01191,1.933845,2.247632194
1365,270,13,-58.72593049,0.335541,-0.331285,-0.196702667
1366,270,16,-57.09453274,-6.861484,-3.813877,1.434695084
1367,270,18,-58.44137604,-10.124475,-3.5369,0.087851781
1368,270,20,-59.94148878,-6.638611,-0.018814,-1.412260954
1369,270,26,-58.5142861,-10.148319,-3.145586,0.014941724
1370,270,29,-58.96490873,-10.406865,-1.74084,-0.435680907
1371,271,5,-61.56348505,-8.084151,-2.644615,0.872874075
1372,271,10,-59.74454536,70.065018,1.921349,2.691813764
1373,271,13,-62.55904756,-15.527491,-0.317778,-0.122688436
1374,271,15,-60.77893293,27.994609,0.989368,1.657426193
1375,271,16,-61.1365407,-5.229342,-3.822072,1.299818421
1376,271,18,-62.26481885,-11.552248,-3.545961,0.171540272
1377,271,20,-63.84422849,-5.918897,-0.030878,-1.407869367
1378,271,26,-62.35253876,-5.429138,-3.158786,0.083820359
1379,271,29,-63.25412342,-12.359289,-1.737931,-0.817764296
1380,272,5,-56.70475639,-9.432342,-2.631226,0.933562241
1381,272,10,-55.04532865,44.295212,1.908083,2.592989972
1382,272,13,-57.03889822,2.461794,-0.301674,0.599420406
1383,272,15,-55.68539016,41.506054,1.000111,1.952928466
1384,272,16,-56.29305553,-3.887958,-3.831349,1.345263099
1385,272,18,-57.19349601,-6.361646,-3.554463,0.444822619
1386,272,20,-59.06145742,-5.525241,-0.042675,-1.423138793
1387,272,26,-57.10466944,-4.382721,-3.172746,0.53364919
1388,272,29,-58.25881399,-11.049439,-1.732624,-0.620495359
1389,273,5,-23.02574907,-6.434263,-2.619821,0.832573058
1390,273,13,-21.1344346,-4.354329,-0.28545,2.723887535
1391,273,15,-20.59930517,56.023477,1.012226,3.259016963
1392,273,16,-24.10139149,-5.142136,-3.843957,-0.243069354
1393,273,18,-21.37181855,-5.822414,-3.565525,2.486503583
1394,273,20,-21.77362891,-1.687021,-0.054075,2.084693226
1395,273,26,-22.53167611,-3.240612,-3.189213,1.326646024
1396,273,29,-21.27309206,-8.724593,-1.728107,2.585230072
1397,274,5,-52.67407054,-8.175024,-2.610333,1.530531258
1398,274,13,-52.81340768,0.815316,-0.269216,1.391194112
1399,274,15,-51.59269539,46.264874,1.02556,2.611906405
1400,274,16,-52.15817352,-5.490806,-3.85957,2.046428274
1401,274,18,-52.82366176,-7.961228,-3.578841,1.380940032
1402,274,20,-55.28608179,-3.232043,-0.064979,-1.081479991
1403,274,26,-52.95791027,-8.43883,-3.20786,1.246691523
1404,274,29,-54.132451,-1.317729,-1.724294,0.072150792
1405,275,5,-97.63733309,-5.292454,-2.612279,-1.753771437
1406,275,10,-96.48028561,52.063568,1.885984,-0.596723958
1407,275,13,-100.2342836,-7.113895,-0.253754,-4.350721913
1408,275,15,-98.23690126,45.917847,1.044377,-2.353339604
1409,275,16,-91.87127762,-2.743672,-3.892364,4.012284035
1410,275,18,-97.46723271,-2.770485,-3.606891,-1.583671057
1411,275,20,-99.29376824,0.719832,-0.074896,-3.410206585
1412,275,26,-95.98012326,-4.577588,-3.240037,-0.096561601
1413,275,29,-98.18284169,-2.222011,-1.726742,-2.299280033
1414,276,5,-28.18245903,-2.140585,-2.652452,3.826274016
1415,276,13,-29.55370234,10.606545,-0.246862,2.455030704
1416,276,15,-30.52367571,48.153181,1.073796,1.485057341
1417,276,16,-30.03832728,1.708431,-3.972504,1.970405768
1418,276,18,-27.82090105,5.661515,-3.677683,4.187832001
1419,276,20,-30.84098893,2.206361,-0.080651,1.167744115
1420,276,25,-30.42557517,-12.668973,2.386882,1.583157876
1421,276,26,-27.29549271,-0.248527,-3.308577,4.713240339
1422,276,29,-28.90878402,3.373153,-1.751746,3.099949029
1423,277,5,-15.43129192,-6.539809,-2.800958,-2.506259722
1424,277,10,-7.152428457,42.429529,2.058434,5.772603739
1425,277,13,-11.59328656,-3.985814,-0.243297,1.331745633
1426,277,15,-8.94409756,90.844678,1.178606,3.980934636
1427,277,16,-17.09283179,-11.474253,-4.205111,-4.167799596
1428,277,18,-12.25057903,-11.430261,-3.836956,0.674453162
1429,277,20,-8.847684778,-9.433442,-0.024451,4.077347418
1430,277,25,-5.365918288,-4.183315,2.572531,7.559113907
1431,277,26,-12.80550151,-12.167092,-3.465992,0.119530684
1432,277,29,-12.57752429,-8.652595,-1.788168,0.347507907
1433,278,5,-62.02912798,-7.724834,-2.837613,-1.353987359
1434,278,10,-59.88238965,67.881173,2.045358,0.792750963
1435,278,13,-61.52806151,-14.342236,-0.342913,-0.852920889
1436,278,15,-62.45487092,32.929563,1.051942,-1.779730301
1437,278,16,-58.60381061,-3.056158,-4.115776,2.07133001
1438,278,18,-59.83701308,-6.675671,-3.837774,0.838127536
1439,278,20,-60.72041205,-3.856955,-0.063826,-0.045271434
1440,278,25,-61.4796605,-1.206492,2.500801,-0.804519884
1441,278,26,-57.76818356,-6.973946,-3.413804,2.906957059
1442,278,29,-61.06026546,-0.481187,-1.883095,-0.385124843
1443,279,5,-44.73406019,-5.268284,-2.752136,0.155597589
1444,279,13,-45.20108468,9.561063,-0.45393,-0.311426894
1445,279,15,-45.2512447,114.558237,0.810588,-0.361586922
1446,279,16,-44.22383372,4.372405,-3.838489,0.66582406
1447,279,18,-44.15572765,7.717348,-3.753095,0.733930128
1448,279,20,-44.55331956,5.10798,-0.200318,0.336338218
1449,279,25,-45.40910394,-2.806084,2.240665,-0.519446155
1450,279,26,-42.55981308,-0.334895,-3.264073,2.329844704
1451,279,29,-46.21978648,-0.644838,-1.995276,-1.3301287
1452,280,5,-8.993361397,-0.313481,-2.694401,1.796366705
1453,280,13,-10.00180684,-6.58294,-0.346906,0.787921263
1454,280,15,-8.432042339,103.366825,0.925578,2.357685763
1455,280,16,-13.82288778,-1.775855,-3.918164,-3.033159676
1456,280,18,-10.12024276,2.334841,-3.763652,0.669485344
1457,280,20,-8.956361378,10.3305,-0.193554,1.833366724
1458,280,25,-7.427741632,-16.515659,2.282078,3.36198647
1459,280,26,-10.34968415,-2.868654,-3.32594,0.440043947
1460,280,29,-11.30968375,-7.871029,-1.910824,-0.519955653
1461,281,5,-13.03182805,-1.433779,-2.794482,-4.600447248
1462,281,13,-5.08553202,-9.567733,-0.156683,3.345848779
1463,281,15,-3.10853733,19.765714,1.288481,5.32284347
1464,281,16,-16.19962778,-9.372437,-4.345639,-7.768246979
1465,281,18,-10.24398426,-5.250575,-3.924932,-1.81260346
1466,281,20,-3.715835151,-0.654018,-0.038241,4.715545649
1467,281,25,0.309790619,15.246181,2.640385,8.741171418
1468,281,26,-11.15440909,-4.022678,-3.587164,-2.72302829
1469,281,29,-7.843280861,-9.44306,-1.756195,0.588099939
1470,282,5,-12.82061436,-10.488832,-2.819191,-4.526360619
1471,282,13,-4.692776219,-4.193749,-0.199414,3.601477524
1472,282,15,-3.020313493,70.011339,1.238211,5.27394025
1473,282,16,-16.32547316,-7.395014,-4.323813,-8.031219414
1474,282,18,-10.27972136,-4.784295,-3.941832,-1.985467614
1475,282,20,-3.73266485,-6.287101,-0.058327,4.561588893
1476,282,25,0.191550973,12.654975,2.617728,8.485804716
1477,282,26,-11.1891329,-5.381856,-3.579714,-2.894879153
1478,282,29,-7.440891311,-13.661172,-1.804272,0.853362432
1479,283,5,-22.85534812,-5.775585,-2.849752,1.418862447
1480,283,13,-24.43034221,-0.674526,-0.266758,-0.156131646
1481,283,15,-24.80300576,30.875298,1.137133,-0.528795197
1482,283,16,-24.15755859,-10.936472,-4.29098,0.116651976
1483,283,18,-21.05253129,-7.071555,-4.007883,3.221679274
1484,283,20,-21.90803513,-2.3798,-0.139512,2.36617543
1485,283,25,-24.65820369,4.372419,2.544091,-0.383993127
1486,283,26,-20.78198982,-3.877613,-3.598735,3.492220738
1487,283,29,-23.61952068,-2.97191,-1.919387,0.654689885
1488,284,5,-7.73897558,2.310535,-2.770532,0.357935288
1489,284,13,-8.137486576,2.72632,-0.244078,-0.040575708
1490,284,15,-6.990123228,53.807958,1.101986,1.10678764
1491,284,16,-14.40946375,-2.063163,-4.221025,-6.312552883
1492,284,18,-9.344223156,5.339708,-3.985766,-1.247312288
1493,284,20,-7.6060051,2.357098,-0.207022,0.490905768
1494,284,25,-6.363025811,4.869002,2.447178,1.733885057
1495,284,26,-9.620223521,1.108988,-3.580346,-1.523312653
1496,284,29,-10.19241192,2.212484,-1.921225,-2.095501055
1497,285,5,-8.338205443,-6.439059,-2.815094,1.458993894
1498,285,13,-9.07482921,6.140752,-0.129917,0.722370127
1499,285,15,-7.991060305,12.367982,1.297637,1.806139032
1500,285,16,-15.44387587,-3.864521,-4.465965,-5.646676536
1501,285,18,-10.42719478,-3.280731,-4.103135,-0.629995439
1502,285,20,-9.197043008,1.729619,-0.15478,0.600156329
1503,285,25,-6.652871757,1.063214,2.623896,3.14432758
1504,285,26,-11.25887472,-2.739373,-3.751135,-1.461675384
1505,285,29,-10.60331872,-2.78255,-1.854341,-0.806119378
1506,286,5,-15.21317265,-6.12544,-2.760719,2.434342002
1507,286,10,-15.93313637,61.038304,2.067991,1.714378281
1508,286,13,-17.42651549,9.159515,-0.021916,0.220999165
1509,286,15,-17.64795238,15.336878,1.455399,-0.000437731
1510,286,16,-19.28916417,-6.666562,-4.515504,-1.641649522
1511,286,18,-16.11954617,-3.61067,-3.99902,1.527968481
1512,286,20,-16.74542536,-5.734267,-0.03278,0.902089293
1513,286,25,-16.66579501,5.166922,2.736091,0.981719646
1514,286,26,-16.87424432,-3.023896,-3.720746,0.773270327
1515,286,29,-16.77572426,-1.785911,-1.670053,0.871790392
1516,287,5,-12.59583709,-1.475066,-2.439418,0.561022205
1517,287,10,-10.26530877,76.044344,1.981869,2.891550523
1518,287,13,-9.854817196,-6.854753,0.273031,3.302042096
1519,287,15,-9.005869931,-6.078897,1.739925,4.150989361
1520,287,16,-18.580612,-7.251455,-4.413068,-5.423752704
1521,287,18,-13.83464638,-0.898924,-3.621771,-0.677787093
1522,287,20,-12.4960121,-1.277495,0.149776,0.66084719
1523,287,25,-9.368453068,4.785539,2.778886,3.788406224
1524,287,26,-16.25910713,-3.176057,-3.532621,-3.102247842
1525,287,29,-11.88482629,-2.993172,-1.199373,1.272033003
1526,288,5,-7.151067004,-0.666901,-2.122707,4.787804414
1527,288,10,-12.83383704,-2.256953,1.84306,-0.894965625
1528,288,13,-1.710818968,-1.527223,0.602501,10.22805245
1529,288,15,-3.86902208,-0.542748,2.033428,8.069849337
1530,288,16,-19.00614501,-0.16695,-4.412276,-7.067273591
1531,288,18,-13.27508976,0.701849,-3.404517,-1.336218338
1532,288,20,-13.08253356,0.57405,0.21645,-1.143662141
1533,288,25,-10.37373023,-0.541313,2.789595,1.56514119
1534,288,26,-17.65247195,0.569178,-3.496206,-5.713600535
1535,288,29,-7.490759349,-4.207986,-0.81931,4.448112069
1536,289,5,-4.97855411,-0.146989,-1.015937,6.08076662
1537,289,10,-14.65896105,15.263758,0.938713,-3.59964032
1538,289,13,-0.016071117,1.37587,1.629368,11.04324961
1539,289,15,-4.07179646,-5.289641,2.641564,6.987524269
1540,289,16,-17.39263484,6.457295,-4.438442,-6.333314107
1541,289,18,-12.20978757,4.14702,-3.286748,-1.150466842
1542,289,20,-13.80426423,2.215626,-0.277241,-2.744943505
1543,289,25,-11.86599164,1.036544,2.295216,-0.806670914
1544,289,26,-16.56857984,-3.128071,-3.818793,-5.509259105
1545,289,29,-7.645341163,4.530154,-0.183148,3.413979567
1546,290,5,-6.708414876,4.42758,0.785126,5.142882941
1547,290,10,-15.280149,2.159521,-0.729908,-3.428851182
1548,290,13,-4.618277063,-1.776303,2.963735,7.233020753
1549,290,15,-7.401128175,-2.745081,3.096663,4.450169641
1550,290,16,-16.38366662,-9.616482,-4.005743,-4.532368807
1551,290,18,-11.60296751,-2.469435,-3.030205,0.248330307
1552,290,20,-14.39473125,-3.341249,-1.321452,-2.543433432
1553,290,25,-13.86759933,-6.366531,1.054902,-2.016301509
1554,290,26,-15.59971288,-5.780227,-4.092018,-3.748415059
1555,290,29,-9.449756858,-2.432836,0.503067,2.401540958
1556,291,5,-9.049695849,9.527324,1.812444,4.448362074
1557,291,10,-15.68874979,-1.267219,-1.951153,-2.190691863
1558,291,13,-9.667967603,7.02482,3.404973,3.83009032
1559,291,15,-12.5259277,4.916952,2.796758,0.972130225
1560,291,16,-16.09636887,-1.345526,-3.357879,-2.598310947
1561,291,18,-13.50346587,6.289472,-2.981215,-0.005407947
1562,291,20,-16.58291307,5.029092,-2.297711,-3.084855143
1563,291,25,-15.91757422,-0.805559,-0.152629,-2.419516293
1564,291,26,-15.6982678,-0.404326,-4.138376,-2.200209873
1565,291,29,-13.15330599,6.357707,0.430572,0.344751934
1566,292,5,-9.863741189,-4.382192,2.861678,3.545346578
1567,292,10,-16.86684746,-6.272966,-2.995798,-3.457759698
1568,292,13,-10.29216974,-2.1268,3.992197,3.116918029
1569,292,15,-13.40447032,-2.159115,2.784632,0.004617447
1570,292,16,-16.57827885,3.425216,-2.814859,-3.169191085
1571,292,18,-14.3230009,-2.808423,-2.720664,-0.913913133
1572,292,20,-17.14969941,-6.456787,-2.970804,-3.740611641
1573,292,25,-16.19853694,-1.560749,-1.07995,-2.789449169
1574,292,26,-15.14649269,-4.1578,-4.095229,-1.737404921
1575,292,29,-13.97875238,-12.173179,0.695722,-0.569664616
1576,293,5,-10.1648851,4.181915,3.652171,3.797201393
1577,293,10,-16.82678127,-1.853922,-3.79122,-2.864694769
1578,293,13,-10.639081,9.175005,4.673662,3.323005492
1579,293,15,-13.72688318,-0.086981,3.061399,0.235203317
1580,293,16,-16.46709764,-5.709273,-2.832014,-2.505011142
1581,293,18,-14.25456071,1.667345,-2.855217,-0.292474211
1582,293,20,-17.711837,-3.35018,-3.579802,-3.749750505
1583,293,25,-16.20085428,0.199984,-1.626849,-2.238767788
1584,293,26,-14.9702612,-5.40826,-4.474608,-1.008174708
1585,293,29,-14.17896697,-6.384519,0.902817,-0.216880475
1586,294,5,-9.866099643,6.248061,4.179394,3.672307709
1587,294,10,-16.67209876,-6.83717,-4.31977,-3.133691411
1588,294,13,-10.27526988,4.845753,5.173516,3.263137469
1589,294,15,-13.46647143,1.52003,3.302614,0.071935923
1590,294,16,-16.35820312,-1.490217,-2.922548,-2.819795764
1591,294,18,-13.98393448,1.039416,-3.000771,-0.445527132
1592,294,20,-17.28685895,-7.211425,-3.998735,-3.748451601
1593,294,25,-16.04403008,-1.834813,-1.958878,-2.505622732
1594,294,26,-14.94535399,-5.77695,-4.800522,-1.406946637
1595,294,29,-13.93097183,-3.896279,1.048086,-0.392564474
1596,295,5,-8.609873983,12.999949,4.555003,4.25068339
1597,295,10,-15.62339522,-4.975219,-4.629879,-2.762837847
1598,295,13,-8.861849492,1.663135,5.592562,3.998707882
1599,295,15,-12.28142161,1.742562,3.5932,0.579135762
1600,295,16,-15.92233269,-5.411313,-3.058218,-3.061775312
1601,295,18,-12.82461024,-2.759146,-3.059238,0.03594713
1602,295,20,-16.59934999,-5.972996,-4.197514,-3.738792622
1603,295,25,-15.35116358,-5.086354,-2.082687,-2.490606202
1604,295,26,-14.46841211,-7.298049,-5.033488,-1.607854738
1605,295,29,-12.79506344,-5.048541,1.264637,0.065493931
1606,296,5,-8.662138286,7.198719,4.902112,3.562529948
1607,296,10,-15.6521506,-3.571141,-4.834767,-3.427482362
1608,296,13,-9.104642838,5.582841,5.912506,3.120025396
1609,296,15,-12.55071336,5.972799,3.831306,-0.326045125
1610,296,16,-16.07947024,-5.10314,-3.015692,-3.854802003
1611,296,18,-13.18050775,-5.884481,-2.867069,-0.95583952
1612,296,20,-16.78226887,-1.833296,-4.206296,-4.557600638
1613,296,25,-15.47444216,-1.135815,-2.156165,-3.249773921
1614,296,26,-14.84630005,4.454911,-5.008198,-2.62163182
1615,296,29,-13.10357565,7.308575,1.590806,-0.878907412
1616,297,5,-10.19094763,-8.323313,5.274431,3.39275704
1617,297,10,-16.55596297,-7.117668,-5.104642,-2.972258304
1618,297,13,-10.06327631,20.927904,5.979505,3.520428353
1619,297,15,-13.31553893,5.68885,3.718471,0.268165739
1620,297,16,-16.34973138,0.035439,-2.5132,-2.766026713
1621,297,18,-14.00307764,-10.63364,-2.39349,-0.419372978
1622,297,20,-17.15920512,-5.346857,-4.208029,-3.575500454
1623,297,25,-15.94024688,-3.698621,-2.474278,-2.356542214
1624,297,26,-15.27761605,-13.275717,-4.599309,-1.693911387
1625,297,29,-13.93997461,-4.1975,1.834638,-0.356269943
1626,298,5,-10.27089919,40.021243,5.379048,1.90026142
1627,298,10,-15.38125694,-9.710143,-5.299435,-3.210096331
1628,298,13,-9.171586204,-0.311277,5.755769,2.999574405
1629,298,15,-12.14185319,-5.924777,3.316319,0.02930742
1630,298,16,-15.91994412,2.115692,-2.01672,-3.748783513
1631,298,18,-13.35068852,-8.175114,-2.169773,-1.179527907
1632,298,20,-16.16629976,-12.818927,-4.339827,-3.995139147
1633,298,25,-15.73769822,-6.854689,-2.852695,-3.566537615
1634,298,26,-15.78377436,-19.098309,-4.267701,-3.612613755
1635,298,29,-13.04829978,-8.769056,1.68868,-0.877139168
1636,299,5,-10.41826815,32.965461,5.170935,1.761967924
1637,299,10,-15.46717796,-14.533597,-5.130189,-3.286941881
1638,299,13,-8.952831928,5.821716,5.550068,3.227404148
1639,299,15,-12.13553687,2.609366,3.186453,0.044699208
1640,299,16,-16.08646831,6.676953,-1.991037,-3.906232232
1641,299,18,-13.69221249,2.164378,-2.176804,-1.511976411
1642,299,20,-15.08816736,-2.291623,-4.243916,-2.90793128
1643,299,25,-14.83310378,-3.426228,-2.768411,-2.652867704
1644,299,26,-15.38498211,-1.447529,-4.188016,-3.204746038
1645,299,29,-12.96789647,1.228804,1.566839,-0.787660399
1646,300,5,-10.8555581,4.362347,5.197045,1.747188432
1647,300,10,-15.71991064,-4.731146,-4.896865,-3.117164108
1648,300,13,-10.10201838,8.206486,5.883683,2.50072815
1649,300,15,-13.2869848,10.061558,3.738804,-0.684238269
1650,300,16,-16.42207231,9.782959,-2.383661,-3.819325786
1651,300,18,-14.1184917,2.67137,-2.090277,-1.515745175
1652,300,20,-15.86318681,4.530298,-3.898158,-3.260440283
1653,300,25,-15.37840071,6.419544,-2.302604,-2.775654178
1654,300,26,-15.78033995,-0.589336,-4.31143,-3.177593423
1655,300,29,-13.77786364,9.640439,2.02168,-1.175117115
1656,301,5,-8.631938591,12.770355,4.717699,1.74812707
1657,301,10,-15.37342381,-7.450944,-4.478406,-4.993358152
1658,301,13,-5.033659581,11.388487,5.51268,5.346406081
1659,301,15,-7.946936402,6.68068,3.582679,2.433129259
1660,301,18,-12.23087555,6.049147,-2.187357,-1.850809887
1661,301,20,-14.41707817,0.658015,-3.661877,-4.03701251
1662,301,25,-14.25371524,1.954109,-2.008984,-3.873649583
1663,301,26,-15.53869002,-10.452906,-4.253072,-5.158624354
1664,301,29,-10.65300986,4.32433,1.797223,-0.272944196
1665,302,5,-6.190896296,-1.370016,3.928646,4.773904067
1666,302,13,-1.476926675,-5.747954,4.916644,9.487873688
1667,302,15,-5.686329245,1.893556,3.516393,5.278471117
1668,302,16,-16.47772949,-4.397357,-2.517063,-5.512929125
1669,302,18,-11.05098134,6.282386,-1.837213,-0.086180972
1670,302,20,-14.26470186,-4.628515,-2.772162,-3.299901498
1671,302,25,-13.46691892,2.140662,-1.226557,-2.502118552
1672,302,26,-15.33634728,5.094678,-3.748227,-4.371546917
1673,302,29,-8.507905157,-0.339765,1.873434,2.456895206
1674,303,5,-13.80139589,8.30696,3.517852,2.93614731
1675,303,10,-18.1243666,1.635255,-2.893967,-1.386823403
1676,303,13,-13.75922604,5.134366,4.665092,2.978317157
1677,303,15,-16.28616947,3.81824,3.628845,0.451373723
1678,303,16,-18.55748247,3.635359,-2.563596,-1.819939276
1679,303,18,-16.36926966,1.004005,-1.501959,0.368273535
1680,303,20,-19.60549964,-1.500777,-2.110206,-2.86795644
1681,303,25,-18.94295501,-2.91299,-0.653787,-2.205411812
1682,303,26,-17.96036115,-0.235079,-3.395388,-1.222817953
1683,303,29,-16.51877393,7.567076,2.11174,0.218769269
1684,304,5,-16.02403492,14.391954,3.1226,2.399774674
1685,304,10,-20.93209523,-1.574186,-2.88751,-2.50828564
1686,304,13,-15.88554863,18.279802,4.007101,2.538260962
1687,304,15,-17.6991626,1.756312,2.857422,0.72464699
1688,304,16,-19.85111889,-12.379212,-2.233905,-1.427309299
1689,304,18,-18.02750562,0.33055,-1.771349,0.396303974
1690,304,20,-21.34335268,-4.560766,-2.412003,-2.919543085
1691,304,25,-20.56835906,-7.613844,-1.005906,-2.144549466
1692,304,26,-19.76092562,-2.542608,-3.293369,-1.337116033
1693,304,29,-18.08416686,-0.11224,1.346905,0.339642728
1694,305,5,-11.06377314,-3.829935,3.109657,2.547331543
1695,305,10,-15.75510857,-0.431472,-3.130899,-2.144003892
1696,305,13,-9.88673683,-0.270294,3.730581,3.724367849
1697,305,15,-12.87833073,7.565421,2.367959,0.732773947
1698,305,16,-16.49880814,12.484811,-1.921954,-2.887703464
1699,305,18,-14.39259067,-0.758846,-1.913906,-0.78148599
1700,305,20,-15.54034004,5.226782,-2.778499,-1.929235362
1701,305,25,-15.06947864,5.116846,-1.445925,-1.45837396
1702,305,26,-15.96074595,-9.930872,-3.249182,-2.349641269
1703,305,29,-13.56786776,6.318446,0.904317,0.04323692
1704,306,5,-7.545818565,0.628385,3.073052,1.861569028
1705,306,10,-15.44883426,5.142941,-3.243134,-6.041446662
1706,306,13,-3.648398492,9.67089,3.467265,5.758989102
1707,306,15,-6.768923086,-0.75813,1.978755,2.638464507
1708,306,18,-11.90202941,-6.33136,-1.889698,-2.494641812
1709,306,20,-14.45299979,-9.680406,-2.941088,-5.045612195
1710,306,25,-14.13437918,-4.78994,-1.733947,-4.726991591
1711,306,26,-15.59129753,-18.632623,-3.080516,-6.183909939
1712,306,29,-10.09854904,-1.630013,0.632095,-0.691161444
1713,307,5,-10.83468602,-3.751337,2.843172,0.633079863
1714,307,10,-15.603547,-3.176268,-2.640514,-4.135781116
1715,307,13,-9.401005119,6.379737,3.745631,2.066760765
1716,307,15,-12.92461693,5.871404,2.713816,-1.456851044
1717,307,18,-13.97638328,3.845888,-1.762186,-2.508617397
1718,307,20,-15.63943748,3.120531,-2.252216,-4.171671596
1719,307,25,-15.32586438,3.064017,-0.861184,-3.858098498
1720,307,26,-15.39698351,-4.48092,-3.180032,-3.929217627
1721,307,29,-13.76267325,1.855057,1.217481,-2.294907367
1722,308,5,-12.02495427,-5.003149,2.464752,0.888021563
1723,308,10,-17.16703806,-7.547166,-2.259497,-4.254062225
1724,308,13,-11.63870638,1.13761,3.522026,1.274269459
1725,308,15,-14.4487887,0.642762,2.707063,-1.53581286
1726,308,18,-14.98465254,11.203504,-1.832845,-2.071676704
1727,308,20,-18.53911558,-4.126577,-1.997542,-5.626139742
1728,308,25,-16.79091618,-5.388154,-0.528619,-3.877940348
1729,308,26,-15.82273038,-1.910054,-3.169399,-2.909754545
1730,308,29,-15.55353483,-3.662939,1.129374,-2.640558991
1731,309,5,-9.973337051,6.563318,2.41772,0.66399012
1732,309,10,-15.22548713,1.750809,-2.097153,-4.588159962
1733,309,13,-9.548134884,4.93835,3.299806,1.089192287
1734,309,15,-13.1433498,2.486017,2.541408,-2.506022631
1735,309,18,-13.77100266,3.19799,-1.363098,-3.133675492
1736,309,20,-16.61759001,-1.016349,-1.683381,-5.980262839
1737,309,25,-15.89864633,-6.128355,-0.498445,-5.261319164
1738,309,26,-14.65083981,-9.626061,-2.66235,-4.013512637
1739,309,29,-14.83023605,0.287866,1.286136,-4.192908875
1740,310,5,-7.978746521,41.938314,2.33236,1.679881582
1741,310,10,-16.17296827,-5.458078,-2.130187,-6.514340163
1742,310,13,-4.565829324,-2.475509,2.703078,5.092798779
1743,310,15,-9.662803625,-7.672185,1.798168,-0.004175522
1744,310,18,-12.62836925,-6.100776,-0.88833,-2.969741145
1745,310,20,-15.87179923,-4.763645,-1.647236,-6.213171131
1746,310,25,-14.9884609,-2.669822,-0.919282,-5.329832797
1747,310,26,-14.03922151,-2.447366,-1.936067,-4.380593405
1748,310,29,-11.37508425,-1.706775,1.022036,-1.716456145
1749,311,10,-15.47577042,2.033576,-1.992856,-4.21934055
1750,311,13,-6.423171892,7.932894,2.300713,4.83325798
1751,311,15,-9.805297973,-0.495182,1.407955,1.451131899
1752,311,18,-13.38444323,9.995974,-0.702325,-2.128013359
1753,311,20,-14.47501002,1.111847,-1.540998,-3.218580149
1754,311,25,-14.29952314,0.464271,-1.001744,-3.043093271
1755,311,26,-14.76026565,-2.553806,-1.58141,-3.503835783
1756,311,29,-11.97655172,8.292869,0.827595,-0.72012185
1757,312,10,-15.51745436,0.137643,-1.646691,-4.104460978
1758,312,13,-7.514113147,5.592719,1.980453,3.898880233
1759,312,15,-10.53418717,-1.810068,1.25745,0.878806209
1760,312,18,-13.51566376,-0.93746,-0.561279,-2.10267038
1761,312,20,-14.83593247,1.886443,-1.242731,-3.422939088
1762,312,25,-14.52917762,4.413232,-0.783306,-3.116184242
1763,312,26,-14.79707531,-0.941184,-1.331362,-3.384081926
1764,312,29,-12.59817701,7.269898,0.767943,-1.185183625
1765,313,10,-16.2124104,5.412251,-1.309576,-6.521771337
1766,313,13,-2.9184212,7.128479,1.657724,6.772217867
1767,313,15,-7.785076174,-1.094051,1.09799,1.905562893
1768,313,18,-12.09617976,3.238687,-0.425436,-2.405540692
1769,313,20,-14.56817131,5.416949,-0.955914,-4.877532244
1770,313,25,-14.27292891,-0.616989,-0.576753,-4.582289845
1771,313,26,-14.53717168,-2.834796,-1.083452,-4.846532615
1772,313,29,-10.28266537,-1.875207,0.699079,-0.592026298
1773,314,5,-8.888999236,60.499341,1.22491,1.364988032
1774,314,10,-17.42426218,-15.146184,-1.032995,-7.170274908
1775,314,13,-4.675569576,-2.220006,1.399809,5.578417693
1776,314,15,-7.394720192,14.778155,0.974348,2.859267076
1777,314,16,-13.9905364,7.030021,-0.512397,-3.736549133
1778,314,18,-13.04136717,-0.00946,-0.274302,-2.787379901
1779,314,20,-16.68984612,1.192801,-0.699691,-6.435858853
1780,314,25,-15.2612655,2.42152,-0.406458,-5.00727823
1781,314,26,-14.73485671,-2.944584,-0.848812,-4.480869441
1782,314,29,-10.87193653,0.936987,0.673437,-0.617949265
1783,315,10,-15.4379902,1.191881,-1.187235,-4.233271844
